<?xml version="1.0"?>
<opencv_storage>
<opencv_ml_svm>
  <format>3</format>
  <svmType>C_SVC</svmType>
  <kernel>
    <type>RBF</type>
    <gamma>5.0624999999999998e-01</gamma></kernel>
  <C>1.2500000000000000e+01</C>
  <term_criteria><epsilon>1.1920928955078125e-07</epsilon>
    <iterations>1000</iterations></term_criteria>
  <var_count>81</var_count>
  <class_count>10</class_count>
  <class_labels type_id="opencv-matrix">
    <rows>10</rows>
    <cols>1</cols>
    <dt>i</dt>
    <data>
      1 2 3 4 5 6 7 8 9 10</data></class_labels>
  <sv_total>385</sv_total>
  <support_vectors>
    <_>
      4.98374999e-01 4.98374999e-01 3.76650006e-01 5.56097999e-02
      1.10494003e-01 4.98374999e-01 2.68997997e-01 6.98302016e-02
      1.24440998e-01 3.50019008e-01 3.05049002e-01 3.50019008e-01
      3.50019008e-01 3.50019008e-01 3.50019008e-01 2.14133993e-01
      3.50019008e-01 3.50019008e-01 2.29646996e-01 8.05028006e-02
      2.61218011e-01 4.80538011e-01 2.60861993e-01 1.34210005e-01
      2.98218995e-01 4.80538011e-01 4.80538011e-01 2.35044003e-01
      4.21965986e-01 4.21965986e-01 3.61631989e-01 1.35139003e-01
      2.63752013e-01 4.21965986e-01 3.93528998e-01 1.81392998e-01
      3.62536997e-01 2.51228988e-01 3.55417013e-01 3.62536997e-01
      3.62536997e-01 3.45696986e-01 2.75968999e-01 2.92481005e-01
      3.62536997e-01 2.04808995e-01 3.57143998e-01 3.57143998e-01
      2.78102994e-01 3.34412009e-01 3.57143998e-01 3.57143998e-01
      3.57143998e-01 3.57143998e-01 1.96091995e-01 1.45126998e-01
      4.39763010e-01 4.39763010e-01 3.78257990e-01 3.02660000e-02
      1.36129007e-01 4.39763010e-01 4.39763010e-01 3.92845988e-01
      2.10960999e-01 2.45715007e-01 3.92845988e-01 3.92845988e-01
      3.92845988e-01 2.85881996e-01 1.94489002e-01 3.92845988e-01
      4.54815000e-01 4.70081002e-01 8.54012966e-02 5.40959015e-02
      3.00476015e-01 4.70081002e-01 4.70081002e-01 1.15029000e-01
      1.08539000e-01</_>
    <_>
      4.96239990e-01 4.96239990e-01 3.35411996e-01 8.06097984e-02
      1.76386997e-01 4.96239990e-01 2.23467007e-01 8.61866996e-02
      2.20915005e-01 3.89286995e-01 2.52285987e-01 2.71948010e-01
      3.89286995e-01 3.89286995e-01 2.73225993e-01 1.61657006e-01
      3.89286995e-01 3.89286995e-01 2.05181003e-01 5.89235984e-02
      2.22783998e-01 4.97402012e-01 2.35405996e-01 1.01181000e-01
      3.03232014e-01 4.97402012e-01 4.97402012e-01 3.13697010e-01
      3.69006008e-01 3.69006008e-01 3.29389989e-01 2.68314987e-01
      3.17301005e-01 3.69006008e-01 3.53083014e-01 2.89090991e-01
      4.46096987e-01 1.69594005e-01 2.19815999e-01 3.02020013e-01
      4.46096987e-01 3.24297994e-01 2.21310005e-01 2.75849998e-01
      4.46096987e-01 1.95041999e-01 3.74707013e-01 3.74707013e-01
      2.65318990e-01 3.09331000e-01 3.00184011e-01 3.74707013e-01
      3.74707013e-01 3.74707013e-01 2.39537001e-01 1.84687003e-01
      4.20134991e-01 4.20134991e-01 4.20134991e-01 7.67213032e-02
      1.25954002e-01 4.20134991e-01 4.20134991e-01 4.38690007e-01
      1.71845004e-01 1.61011994e-01 2.90387005e-01 4.38690007e-01
      4.38690007e-01 2.54536986e-01 1.45781994e-01 4.38690007e-01
      4.67238009e-01 4.67238009e-01 1.03692003e-01 5.00379018e-02
      2.85708010e-01 4.67238009e-01 4.67238009e-01 1.19025998e-01
      1.14170000e-01</_>
    <_>
      4.58732009e-01 4.58732009e-01 4.10097986e-01 1.19703002e-01
      2.35416993e-01 4.58732009e-01 3.14850003e-01 1.01007000e-01
      1.29801005e-01 3.41821998e-01 3.41821998e-01 3.41821998e-01
      3.41821998e-01 3.41821998e-01 3.41821998e-01 2.48686001e-01
      3.41821998e-01 3.41821998e-01 2.72307009e-01 1.30089000e-01
      2.78542012e-01 3.71399999e-01 3.71399999e-01 3.71399999e-01
      3.71399999e-01 3.71399999e-01 3.71399999e-01 3.62507999e-01
      3.62507999e-01 3.62507999e-01 2.57407993e-01 3.62507999e-01
      3.38158995e-01 3.62507999e-01 2.92322010e-01 2.70660013e-01
      4.63820994e-01 2.37944007e-01 1.89085007e-01 2.57366002e-01
      4.63820994e-01 3.77113998e-01 1.75758004e-01 1.35137007e-01
      4.63820994e-01 3.55511993e-01 2.66119987e-01 3.55511993e-01
      2.02259004e-01 3.55511993e-01 3.55511993e-01 3.55511993e-01
      3.55511993e-01 3.55511993e-01 2.52330005e-01 3.87506992e-01
      3.87506992e-01 3.87506992e-01 3.87506992e-01 1.16438001e-01
      1.33911997e-01 3.87506992e-01 3.87506992e-01 4.26916987e-01
      1.87918007e-01 2.20767006e-01 2.85506994e-01 4.26916987e-01
      4.26916987e-01 3.00714999e-01 1.03473000e-01 4.26916987e-01
      4.69200999e-01 4.69200999e-01 8.57997015e-02 2.92674005e-02
      3.26090008e-01 4.69200999e-01 3.84463012e-01 1.19190000e-01
      2.41440997e-01</_>
    <_>
      3.70175004e-01 3.94576997e-01 3.94576997e-01 1.19322002e-01
      1.58895999e-01 3.94576997e-01 3.94576997e-01 2.02702999e-01
      3.94576997e-01 3.36818010e-01 3.36818010e-01 3.36818010e-01
      2.98440009e-01 3.36818010e-01 3.36818010e-01 3.36818010e-01
      3.36818010e-01 3.36818010e-01 1.40333995e-01 2.57842988e-01
      3.64565015e-01 3.64565015e-01 3.64565015e-01 3.64565015e-01
      3.64565015e-01 3.64565015e-01 3.35761994e-01 4.16993983e-02
      4.67711002e-01 4.67711002e-01 6.46343008e-02 9.24753025e-02
      3.97868991e-01 4.67711002e-01 3.97442997e-01 9.13195014e-02
      2.54736006e-01 3.59661996e-01 3.59661996e-01 1.61301002e-01
      3.59661996e-01 3.59661996e-01 3.59661996e-01 3.59661996e-01
      3.59661996e-01 1.66977003e-01 2.88035989e-01 3.62695009e-01
      3.10232997e-01 3.62695009e-01 3.62695009e-01 3.62695009e-01
      3.62695009e-01 3.62695009e-01 6.32491037e-02 4.05140996e-01
      4.05140996e-01 3.77146006e-01 1.50166005e-01 8.04117993e-02
      4.05140996e-01 4.05140996e-01 4.05140996e-01 3.26000988e-01
      3.41488987e-01 3.41488987e-01 2.72042006e-01 3.41488987e-01
      3.41488987e-01 3.41488987e-01 3.41488987e-01 3.41488987e-01
      3.88350993e-01 3.88350993e-01 3.30541998e-01 4.68414985e-02
      3.00242990e-01 3.88350993e-01 3.88350993e-01 3.88350993e-01
      2.01102003e-01</_>
    <_>
      3.45366001e-01 3.45366001e-01 3.45366001e-01 2.05739006e-01
      3.45366001e-01 3.45366001e-01 3.45366001e-01 3.45366001e-01
      3.45366001e-01 3.39332014e-01 3.39332014e-01 3.39332014e-01
      3.39332014e-01 3.39332014e-01 3.39332014e-01 2.74668008e-01
      3.39332014e-01 3.39332014e-01 2.82379001e-01 2.75119990e-01
      3.63644987e-01 3.63644987e-01 3.63644987e-01 2.17975006e-01
      3.63644987e-01 3.63644987e-01 3.63644987e-01 1.95091993e-01
      3.58833998e-01 3.58833998e-01 3.15528989e-01 3.55322003e-01
      3.58833998e-01 3.58833998e-01 3.58833998e-01 2.97879994e-01
      3.54214013e-01 3.20556998e-01 3.36176008e-01 3.54214013e-01
      3.54214013e-01 3.54214013e-01 2.47517005e-01 3.03460985e-01
      3.54214013e-01 3.08409005e-01 3.35694999e-01 3.35694999e-01
      3.35694999e-01 3.35694999e-01 3.35694999e-01 3.35694999e-01
      3.35694999e-01 3.35694999e-01 1.90687001e-01 3.77588987e-01
      3.89734000e-01 3.89734000e-01 3.89734000e-01 1.35077000e-01
      1.98648006e-01 3.89734000e-01 3.89734000e-01 3.74796003e-01
      2.50981003e-01 2.85185009e-01 3.74796003e-01 3.74796003e-01
      3.74796003e-01 3.18765014e-01 2.19004005e-01 3.74796003e-01
      3.55710000e-01 3.55710000e-01 3.55710000e-01 3.55710000e-01
      3.55710000e-01 3.55710000e-01 3.27302009e-01 1.97548002e-01
      3.01854998e-01</_>
    <_>
      1.33536998e-02 3.23208988e-01 5.28289020e-01 1.47139996e-01
      1.46256998e-01 5.28289020e-01 5.28289020e-01 9.59198028e-02
      2.38841008e-02 8.83307979e-02 3.92520994e-01 3.92520994e-01
      3.92520994e-01 2.28297994e-01 2.48183995e-01 3.92520994e-01
      3.92520994e-01 3.22798997e-01 4.04057018e-02 1.16406001e-01
      4.91582006e-01 4.91582006e-01 2.08098993e-01 2.00200006e-01
      4.91582006e-01 4.07420993e-01 7.46525005e-02 1.93694998e-02
      4.19378012e-01 4.99110013e-01 1.04231998e-01 3.70086990e-02
      2.57699996e-01 4.99110013e-01 4.91299987e-01 2.28557996e-02
      2.70399988e-01 4.51799005e-01 4.51799005e-01 1.26089007e-01
      7.41735026e-02 8.00302029e-02 4.51799005e-01 4.51799005e-01
      2.79419005e-01 1.03092998e-01 3.20933014e-01 5.27144015e-01
      1.62515000e-01 6.66233003e-02 7.12378025e-02 5.27144015e-01
      5.27144015e-01 1.07428998e-01 6.54760972e-02 4.48063999e-01
      4.60231990e-01 5.53778000e-02 2.67351996e-02 7.36215012e-03
      3.88687015e-01 4.60231990e-01 4.60231990e-01 2.08462000e-01
      4.05734986e-01 4.05734986e-01 2.11759999e-01 2.19760001e-01
      4.05734986e-01 4.05734986e-01 3.53401005e-01 2.75638998e-01
      4.58238989e-01 4.58238989e-01 1.76027998e-01 1.25163002e-02
      7.27462023e-02 3.69161010e-01 4.58238989e-01 4.34801996e-01
      6.08792007e-02</_>
    <_>
      2.31181994e-01 4.57352012e-01 4.57352012e-01 1.99313000e-01
      1.84358999e-01 4.57352012e-01 4.57352012e-01 1.49661005e-01
      9.58684012e-02 3.34953010e-01 3.34953010e-01 3.34953010e-01
      3.34953010e-01 3.34953010e-01 3.34953010e-01 3.14810991e-01
      3.34953010e-01 3.34953010e-01 3.42070997e-01 1.68339998e-01
      1.84217006e-01 3.69013995e-01 3.69013995e-01 3.69013995e-01
      3.69013995e-01 3.69013995e-01 3.69013995e-01 1.49452999e-01
      4.15800989e-01 4.15800989e-01 3.38169008e-01 2.11430997e-01
      3.21460992e-01 4.15800989e-01 4.15800989e-01 1.39816001e-01
      4.01818007e-01 3.62356991e-01 3.69421989e-01 2.39807993e-01
      4.01818007e-01 4.01818007e-01 1.27801999e-01 9.24111009e-02
      4.01818007e-01 4.03416991e-01 9.32136029e-02 5.07130995e-02
      9.07652974e-02 4.03416991e-01 4.03416991e-01 4.03416991e-01
      4.03416991e-01 4.03416991e-01 1.15277000e-01 4.17225003e-01
      4.17225003e-01 2.73402005e-01 1.05169997e-01 1.62324995e-01
      4.17225003e-01 4.17225003e-01 4.17225003e-01 3.65511000e-01
      3.65511000e-01 3.65511000e-01 3.65511000e-01 3.65511000e-01
      3.65511000e-01 2.02253997e-01 1.42314002e-01 3.65511000e-01
      3.76269996e-01 3.76269996e-01 6.21064007e-02 3.64894010e-02
      3.76269996e-01 3.76269996e-01 3.76269996e-01 3.76269996e-01
      3.76269996e-01</_>
    <_>
      1.93233997e-01 3.88004988e-01 4.65285987e-01 2.24416003e-01
      2.90526003e-01 4.65285987e-01 4.65285987e-01 8.42325985e-02
      1.27001002e-01 4.17937011e-01 2.59718001e-01 2.66175002e-01
      3.60119998e-01 4.17937011e-01 4.17937011e-01 1.17890999e-01
      1.23496003e-01 4.17937011e-01 3.80910009e-01 7.38281980e-02
      2.25860998e-01 3.80910009e-01 3.80910009e-01 3.80910009e-01
      3.80910009e-01 2.63011009e-01 3.80910009e-01 2.83086002e-01
      3.86314988e-01 3.86314988e-01 3.86314988e-01 2.75029004e-01
      2.68736005e-01 3.86314988e-01 3.86314988e-01 1.48144007e-01
      4.41953987e-01 3.12456995e-01 2.48012006e-01 2.17721000e-01
      4.41953987e-01 4.41953987e-01 4.47154008e-02 7.58282021e-02
      4.41953987e-01 3.92708004e-01 1.28633007e-01 2.21242994e-01
      7.25487024e-02 3.92708004e-01 3.92708004e-01 3.92708004e-01
      3.92708004e-01 3.92708004e-01 2.55250990e-01 3.73746991e-01
      3.73746991e-01 3.70225012e-01 1.60395995e-01 2.64358997e-01
      3.73746991e-01 3.73746991e-01 3.73746991e-01 3.91907007e-01
      3.76332998e-01 2.59662002e-01 3.91907007e-01 3.91907007e-01
      3.91907007e-01 1.08533002e-01 8.54453966e-02 3.91907007e-01
      3.92150998e-01 3.92150998e-01 4.52627018e-02 6.84252977e-02
      3.92150998e-01 3.92150998e-01 3.92150998e-01 2.58179992e-01
      3.92150998e-01</_>
    <_>
      2.99335003e-01 4.31010008e-01 4.31010008e-01 2.21937999e-01
      3.00861001e-01 4.31010008e-01 4.31010008e-01 6.86967000e-02
      1.36095002e-01 3.45997006e-01 3.45997006e-01 2.01302007e-01
      3.45997006e-01 3.45997006e-01 3.45997006e-01 3.43546987e-01
      3.45997006e-01 3.45997006e-01 2.23723993e-01 2.27587000e-01
      4.01582986e-01 4.01582986e-01 3.31717998e-01 4.01582986e-01
      4.01582986e-01 3.00861001e-01 2.20248997e-01 3.67181003e-01
      3.67181003e-01 3.67181003e-01 2.60634989e-01 3.67181003e-01
      3.67181003e-01 3.67181003e-01 2.67648995e-01 2.18709007e-01
      4.47613001e-01 2.69847006e-01 1.87466994e-01 1.48655996e-01
      4.47613001e-01 4.47613001e-01 2.11944997e-01 1.38271004e-01
      4.47613001e-01 3.56157005e-01 2.61451006e-01 3.56157005e-01
      2.00374007e-01 3.56157005e-01 3.56157005e-01 3.56157005e-01
      3.56157005e-01 3.56157005e-01 2.44103998e-01 3.96524996e-01
      3.96524996e-01 3.48966002e-01 3.07444006e-01 2.00742006e-01
      2.25674003e-01 3.96524996e-01 3.96524996e-01 3.81045014e-01
      3.81045014e-01 2.61465013e-01 2.17985004e-01 3.81045014e-01
      3.81045014e-01 3.76998991e-01 1.10480003e-01 3.81045014e-01
      4.04698014e-01 4.04698014e-01 2.48014003e-01 3.56324986e-02
      2.63356000e-01 4.04698014e-01 4.04698014e-01 2.45945007e-01
      3.84979010e-01</_>
    <_>
      1.86394006e-01 3.76533002e-01 4.77362990e-01 1.10838003e-01
      1.61397994e-01 4.77362990e-01 4.77362990e-01 2.23703995e-01
      2.16122001e-01 3.32778990e-01 3.32778990e-01 3.32778990e-01
      3.32778990e-01 3.32778990e-01 3.32778990e-01 3.32778990e-01
      3.32778990e-01 3.32778990e-01 2.91105002e-01 2.05988005e-01
      2.77633011e-01 3.63344997e-01 3.63344997e-01 3.63344997e-01
      3.63344997e-01 3.63344997e-01 3.63344997e-01 1.79023996e-01
      4.63824987e-01 4.63824987e-01 1.40053004e-01 9.74484012e-02
      1.56312004e-01 4.63824987e-01 4.63824987e-01 2.21899003e-01
      3.44420999e-01 3.44420999e-01 3.44420999e-01 3.44420999e-01
      3.44420999e-01 2.18066007e-01 3.44420999e-01 3.44420999e-01
      3.44420999e-01 2.05399007e-01 2.87162006e-01 2.51576990e-01
      2.43985996e-01 1.90210998e-01 4.40669000e-01 4.40669000e-01
      4.40669000e-01 3.59694988e-01 1.01318002e-01 2.21068993e-01
      4.06632990e-01 4.06632990e-01 4.06632990e-01 1.62318006e-01
      2.89314985e-01 4.06632990e-01 4.06632990e-01 3.36899012e-01
      3.36899012e-01 3.36899012e-01 3.07359993e-01 3.28114003e-01
      3.36899012e-01 3.36899012e-01 3.36899012e-01 3.36899012e-01
      3.77916992e-01 3.77916992e-01 9.79489982e-02 3.94394994e-02
      3.77916992e-01 3.77916992e-01 3.77916992e-01 3.77916992e-01
      3.57977003e-01</_>
    <_>
      2.13423997e-01 4.08437014e-01 4.08437014e-01 2.89824992e-01
      3.17510992e-01 4.08437014e-01 4.08437014e-01 2.62562990e-01
      1.71275005e-01 3.48809004e-01 2.44431004e-01 3.48809004e-01
      3.48809004e-01 3.48809004e-01 3.48809004e-01 2.91707993e-01
      3.48809004e-01 3.48809004e-01 2.77271986e-01 1.90233007e-01
      3.56009990e-01 3.56009990e-01 3.56009990e-01 3.56009990e-01
      3.56009990e-01 3.56009990e-01 3.50594014e-01 3.55275989e-01
      3.55275989e-01 3.55275989e-01 3.06822002e-01 3.55275989e-01
      3.55275989e-01 3.55275989e-01 2.32144997e-01 3.01815987e-01
      4.02222991e-01 3.02579999e-01 2.99257994e-01 2.58538991e-01
      4.02222991e-01 3.29014987e-01 2.70640999e-01 2.84922987e-01
      4.02222991e-01 3.50439996e-01 3.04933012e-01 3.50439996e-01
      2.09424004e-01 3.50439996e-01 3.50439996e-01 3.50439996e-01
      3.50439996e-01 3.50439996e-01 3.59710991e-01 3.59710991e-01
      3.59710991e-01 3.59710991e-01 3.59710991e-01 1.61560997e-01
      2.54088014e-01 3.59710991e-01 3.59710991e-01 4.31551993e-01
      1.99357003e-01 2.06288993e-01 2.40058005e-01 4.31551993e-01
      4.31551993e-01 3.13180000e-01 1.12845004e-01 4.31551993e-01
      3.78055990e-01 3.78055990e-01 1.59667999e-01 5.38609996e-02
      3.78055990e-01 3.78055990e-01 3.78055990e-01 3.32066000e-01
      3.78055990e-01</_>
    <_>
      1.77111998e-01 4.30979013e-01 4.30979013e-01 2.38205001e-01
      1.97586998e-01 4.30979013e-01 4.30979013e-01 3.22021991e-01
      1.47905007e-01 3.39994013e-01 2.68025011e-01 3.39994013e-01
      3.39994013e-01 3.39994013e-01 3.39994013e-01 3.39994013e-01
      3.39994013e-01 3.39994013e-01 2.80494004e-01 1.57098994e-01
      3.50796014e-01 3.58238012e-01 3.58238012e-01 3.58238012e-01
      3.58238012e-01 3.58238012e-01 3.58238012e-01 3.61761004e-01
      3.61761004e-01 3.61761004e-01 2.98954010e-01 3.61505985e-01
      3.61761004e-01 3.61761004e-01 2.66692013e-01 2.25493997e-01
      3.65961999e-01 3.32899004e-01 3.61912996e-01 2.14186996e-01
      3.65961999e-01 3.65945011e-01 3.20320010e-01 2.65253007e-01
      3.65961999e-01 3.51516992e-01 2.60681003e-01 3.37217003e-01
      1.51080996e-01 3.65592003e-01 3.65592003e-01 3.65592003e-01
      3.65592003e-01 3.65592003e-01 3.59678000e-01 3.59678000e-01
      3.59678000e-01 3.59678000e-01 3.59678000e-01 1.36124998e-01
      2.68882006e-01 3.59678000e-01 3.59678000e-01 3.84676993e-01
      2.39115000e-01 3.33721012e-01 2.63211012e-01 3.84676993e-01
      3.84676993e-01 3.84676993e-01 1.35826007e-01 3.84676993e-01
      3.91198993e-01 3.91198993e-01 8.12489986e-02 4.21902984e-02
      3.91198993e-01 3.91198993e-01 3.91198993e-01 3.20075005e-01
      3.46525013e-01</_>
    <_>
      3.38030994e-01 3.98056000e-01 3.98056000e-01 2.47749001e-01
      3.98056000e-01 3.98056000e-01 3.98056000e-01 1.28334999e-01
      1.08011998e-01 3.57638001e-01 3.57638001e-01 3.57638001e-01
      3.57638001e-01 3.57638001e-01 3.57638001e-01 1.26021996e-01
      2.91904986e-01 3.57638001e-01 3.21148992e-01 1.38411999e-01
      1.17771000e-01 3.78605008e-01 3.78605008e-01 3.78605008e-01
      3.78605008e-01 3.78605008e-01 3.78605008e-01 3.14025015e-01
      4.01342988e-01 4.01342988e-01 1.86453000e-01 1.61072001e-01
      4.01342988e-01 4.01342988e-01 4.01342988e-01 1.76881000e-01
      3.37114990e-01 3.37114990e-01 3.37114990e-01 3.37114990e-01
      3.37114990e-01 3.37114990e-01 2.95731992e-01 3.37114990e-01
      3.37114990e-01 3.58947009e-01 1.27174005e-01 1.39478996e-01
      2.64369994e-01 3.90316993e-01 3.90316993e-01 3.90316993e-01
      3.90316993e-01 3.90316993e-01 1.08542003e-01 2.90603012e-01
      4.19454008e-01 4.19454008e-01 1.20884001e-01 7.25018978e-02
      4.19454008e-01 4.19454008e-01 4.19454008e-01 3.48347992e-01
      3.48347992e-01 3.48347992e-01 3.48347992e-01 3.48347992e-01
      3.48347992e-01 2.48457998e-01 2.92169005e-01 3.48347992e-01
      3.81745994e-01 3.81745994e-01 1.07202999e-01 8.92449021e-02
      3.19918007e-01 3.81745994e-01 3.81745994e-01 3.81745994e-01
      3.81745994e-01</_>
    <_>
      3.74626994e-01 3.74626994e-01 3.74626994e-01 3.34248006e-01
      3.74626994e-01 3.74626994e-01 2.48581007e-01 1.21173002e-01
      3.26086998e-01 3.34706992e-01 3.34706992e-01 3.16900015e-01
      3.34706992e-01 3.34706992e-01 3.34706992e-01 3.34706992e-01
      3.34706992e-01 3.34706992e-01 1.66532993e-01 9.63001028e-02
      3.39976996e-01 3.85836989e-01 3.85836989e-01 3.14965993e-01
      3.85836989e-01 3.85836989e-01 3.85836989e-01 3.51732999e-01
      3.51732999e-01 3.51732999e-01 3.51732999e-01 3.41116995e-01
      3.20510000e-01 3.51732999e-01 2.49069005e-01 3.11100006e-01
      3.90231997e-01 1.47064999e-01 1.73071995e-01 2.56633013e-01
      3.90231997e-01 3.90231997e-01 3.42420995e-01 3.90231997e-01
      3.90231997e-01 1.61229998e-01 3.58774006e-01 3.58774006e-01
      3.58774006e-01 2.63415992e-01 3.58774006e-01 3.58774006e-01
      3.58774006e-01 3.58774006e-01 3.71075004e-01 3.71075004e-01
      3.71075004e-01 3.71075004e-01 3.54734004e-01 7.08225965e-02
      1.98140994e-01 3.71075004e-01 3.71075004e-01 3.77216995e-01
      2.22782999e-01 1.22796997e-01 3.01833987e-01 3.77216995e-01
      3.77216995e-01 3.77216995e-01 3.59099001e-01 3.77216995e-01
      4.16505992e-01 4.16505992e-01 3.19283992e-01 4.47846986e-02
      2.89763987e-01 4.16505992e-01 4.16505992e-01 3.22636008e-01
      9.96249989e-02</_>
    <_>
      4.41567004e-01 4.41567004e-01 3.31871986e-01 1.35260999e-01
      4.41567004e-01 4.41567004e-01 2.65181988e-01 5.69610000e-02
      1.16883002e-01 3.72202009e-01 3.72202009e-01 2.87499011e-01
      3.25304002e-01 3.72202009e-01 3.72202009e-01 2.16928005e-01
      2.60908991e-01 3.72202009e-01 2.41343006e-01 9.88605022e-02
      2.65181005e-01 3.83334994e-01 3.83334994e-01 3.50854993e-01
      3.83334994e-01 3.83334994e-01 3.83334994e-01 2.74697989e-01
      3.91386986e-01 3.91386986e-01 2.87889004e-01 2.07398996e-01
      3.91386986e-01 3.91386986e-01 3.91386986e-01 1.69761002e-01
      3.82656991e-01 3.26743990e-01 3.82656991e-01 2.63577014e-01
      3.82656991e-01 3.82656991e-01 2.53594011e-01 1.53301999e-01
      3.82656991e-01 2.80086011e-01 3.43627989e-01 3.53657991e-01
      2.22476006e-01 3.53657991e-01 3.53657991e-01 3.53657991e-01
      3.53657991e-01 3.53657991e-01 2.26435006e-01 3.46421987e-01
      4.26230997e-01 4.26230997e-01 1.24062002e-01 4.57603000e-02
      2.83344001e-01 4.26230997e-01 4.26230997e-01 3.46379995e-01
      3.12649995e-01 3.46379995e-01 3.46379995e-01 3.46379995e-01
      3.46379995e-01 3.46379995e-01 2.42763996e-01 3.46379995e-01
      3.82606000e-01 3.82606000e-01 2.26181999e-01 5.22679016e-02
      3.82606000e-01 3.82606000e-01 3.82606000e-01 3.82606000e-01
      2.52909005e-01</_>
    <_>
      4.31874990e-01 4.31874990e-01 4.31874990e-01 1.86437994e-01
      3.46884996e-01 4.31874990e-01 2.09462002e-01 1.06299996e-01
      1.98394001e-01 3.69605005e-01 3.12855005e-01 2.21683994e-01
      3.69605005e-01 3.69605005e-01 3.69605005e-01 2.65098989e-01
      3.09789985e-01 3.69605005e-01 1.73346996e-01 1.15634002e-01
      2.82606989e-01 3.97471994e-01 3.97471994e-01 2.87791014e-01
      3.97471994e-01 3.97471994e-01 3.97471994e-01 3.43066007e-01
      3.43066007e-01 3.43066007e-01 3.43066007e-01 3.43066007e-01
      2.83627003e-01 3.43066007e-01 3.43066007e-01 3.03755999e-01
      4.09577996e-01 2.34932005e-01 1.89092994e-01 3.12187999e-01
      4.09577996e-01 4.09577996e-01 2.49849007e-01 2.72132009e-01
      4.09577996e-01 2.66759992e-01 3.56555015e-01 3.56555015e-01
      1.88029006e-01 3.56555015e-01 3.56555015e-01 3.56555015e-01
      3.56555015e-01 3.56555015e-01 3.23507994e-01 3.96319002e-01
      3.96319002e-01 3.96319002e-01 2.92843997e-01 6.82884008e-02
      1.24972999e-01 3.96319002e-01 3.96319002e-01 3.89218986e-01
      2.33302996e-01 2.57800013e-01 2.71643013e-01 3.89218986e-01
      3.89218986e-01 3.89218986e-01 2.09702000e-01 3.89218986e-01
      4.62870002e-01 4.62870002e-01 1.43331006e-01 1.86931994e-02
      2.54090011e-01 4.62870002e-01 4.62870002e-01 1.82988003e-01
      1.39431000e-01</_>
    <_>
      3.57104987e-01 3.57104987e-01 2.70891011e-01 2.35438004e-01
      3.20116013e-01 3.57104987e-01 3.57104987e-01 3.57104987e-01
      3.57104987e-01 3.49386990e-01 3.26961011e-01 3.17694992e-01
      3.49386990e-01 3.49386990e-01 3.49386990e-01 2.37169996e-01
      3.49386990e-01 3.49386990e-01 3.84741992e-01 1.73663005e-01
      3.84741992e-01 3.84741992e-01 3.84741992e-01 1.62118003e-01
      2.27062002e-01 3.84741992e-01 3.84741992e-01 2.66613007e-01
      3.45317990e-01 3.45317990e-01 3.45317990e-01 3.01254988e-01
      3.45317990e-01 3.45317990e-01 3.45317990e-01 3.45317990e-01
      3.84844989e-01 2.69861996e-01 2.93260008e-01 3.35339010e-01
      3.84844989e-01 3.81655991e-01 2.17896998e-01 2.95666993e-01
      3.84844989e-01 2.99971014e-01 3.38328987e-01 3.38328987e-01
      3.38328987e-01 3.38328987e-01 3.24611992e-01 3.38328987e-01
      3.38328987e-01 3.38328987e-01 3.87825012e-01 2.66811013e-01
      3.41253012e-01 3.87825012e-01 3.87825012e-01 1.94688007e-01
      1.36163995e-01 3.87825012e-01 3.87825012e-01 4.06798989e-01
      2.00277999e-01 1.96682006e-01 3.52034986e-01 4.06798989e-01
      4.06798989e-01 2.89887011e-01 2.17340007e-01 4.06798989e-01
      3.76174986e-01 3.76174986e-01 1.79381996e-01 2.20442995e-01
      3.76174986e-01 3.76174986e-01 3.76174986e-01 2.57726014e-01
      3.76174986e-01</_>
    <_>
      4.06318009e-01 4.06318009e-01 4.06318009e-01 1.40636995e-01
      1.86692998e-01 4.06318009e-01 4.06318009e-01 2.50642002e-01
      2.30248004e-01 3.54081988e-01 2.45728999e-01 3.54081988e-01
      3.54081988e-01 3.54081988e-01 3.54081988e-01 2.41788000e-01
      3.54081988e-01 3.54081988e-01 3.15400988e-01 9.89324972e-02
      3.25735003e-01 3.62791985e-01 3.62791985e-01 3.50591987e-01
      3.62791985e-01 3.62791985e-01 3.62791985e-01 3.41383994e-01
      3.41383994e-01 3.41383994e-01 3.00796986e-01 3.41383994e-01
      3.00729990e-01 3.41383994e-01 3.41383994e-01 3.41192007e-01
      4.85437006e-01 1.79186001e-01 1.95133999e-01 2.53387004e-01
      4.85437006e-01 3.30956012e-01 1.47589996e-01 1.50000006e-01
      4.85437006e-01 3.72070998e-01 1.59807995e-01 3.22986007e-01
      1.89221993e-01 3.72070998e-01 3.72070998e-01 3.72070998e-01
      3.72070998e-01 3.72070998e-01 3.74554992e-01 3.74554992e-01
      3.74554992e-01 3.74554992e-01 3.06526005e-01 9.30214971e-02
      2.27808997e-01 3.74554992e-01 3.74554992e-01 4.21575993e-01
      1.78331003e-01 2.06920996e-01 3.76141995e-01 4.21575993e-01
      4.21575993e-01 2.30132997e-01 1.25786006e-01 4.21575993e-01
      3.71978998e-01 3.71978998e-01 1.29637003e-01 1.04390003e-01
      3.71978998e-01 3.71978998e-01 3.71978998e-01 3.71978998e-01
      3.71978998e-01</_>
    <_>
      5.02295971e-01 5.02295971e-01 5.02295971e-01 3.79844010e-02
      3.38578001e-02 1.88863993e-01 3.70231986e-01 1.96363002e-01
      1.55536994e-01 3.97953987e-01 3.97953987e-01 3.97953987e-01
      1.04953997e-01 6.39879033e-02 1.75237000e-01 3.97953987e-01
      3.97953987e-01 3.97953987e-01 3.26305985e-01 2.41285995e-01
      1.58507004e-01 4.13652986e-01 5.77807017e-02 1.49174005e-01
      4.50547993e-01 4.50547993e-01 4.50547993e-01 2.62630999e-01
      4.66138989e-01 4.66138989e-01 1.01304002e-01 2.12782994e-02
      1.60299003e-01 4.66138989e-01 4.66138989e-01 1.44270003e-01
      1.37980998e-01 4.80480999e-01 4.80480999e-01 7.19311982e-02
      3.37614007e-02 1.59866005e-01 4.80480999e-01 4.80480999e-01
      1.44374996e-01 1.67888999e-01 4.69309002e-01 4.64022994e-01
      2.52743989e-01 3.83377001e-02 1.49847999e-01 4.69309002e-01
      4.69309002e-01 5.70078008e-02 3.55437994e-02 1.72969997e-01
      5.10170996e-01 5.10170996e-01 9.92710963e-02 1.26531005e-01
      5.10170996e-01 3.86227012e-01 8.86735022e-02 1.59698993e-01
      3.83662999e-01 3.83662999e-01 3.83662999e-01 3.83662999e-01
      3.83662999e-01 3.83662999e-01 2.51920015e-01 1.54973999e-01
      3.11598986e-01 4.54385996e-01 8.81033018e-02 5.14672995e-02
      3.71964991e-01 4.61997002e-01 4.61997002e-01 3.10160011e-01
      1.41330004e-01</_>
    <_>
      4.19535995e-01 4.19535995e-01 4.19535995e-01 1.63696006e-01
      1.92470998e-01 4.19535995e-01 4.19535995e-01 1.93957999e-01
      1.19570002e-01 3.61615002e-01 3.40631008e-01 3.61615002e-01
      3.61615002e-01 2.71813989e-01 1.47931993e-01 3.61615002e-01
      3.61615002e-01 3.61615002e-01 5.40242009e-02 3.75252999e-02
      4.39161003e-01 4.39161003e-01 1.47129998e-01 7.29748011e-02
      4.39161003e-01 4.39161003e-01 4.39161003e-01 4.96314988e-02
      4.71125007e-01 4.71125007e-01 2.02131003e-01 3.87494005e-02
      1.67294994e-01 4.71125007e-01 4.71125007e-01 1.86140001e-01
      1.55348003e-01 4.15192008e-01 4.15192008e-01 1.84286997e-01
      1.45717993e-01 2.33671993e-01 4.15192008e-01 4.15192008e-01
      4.15192008e-01 1.69367000e-01 4.74462986e-01 4.74462986e-01
      1.85996994e-01 5.26516996e-02 1.47608995e-01 4.74462986e-01
      4.74462986e-01 8.34186971e-02 3.05774994e-02 1.97558001e-01
      4.65178996e-01 4.65178996e-01 2.40262002e-01 4.61020991e-02
      1.73129007e-01 4.65178996e-01 4.65178996e-01 1.97911993e-01
      2.52353013e-01 3.57286990e-01 3.57286990e-01 3.57286990e-01
      3.57286990e-01 3.57286990e-01 3.57286990e-01 3.57286990e-01
      4.63528007e-01 4.63528007e-01 8.71383026e-02 1.14957998e-02
      2.98575997e-01 4.63528007e-01 4.63528007e-01 1.72020003e-01
      9.73246992e-02</_>
    <_>
      4.32895005e-01 4.32895005e-01 3.95350993e-01 1.69591993e-01
      1.85723007e-01 4.32895005e-01 3.80510986e-01 1.16480999e-01
      2.35731006e-01 3.52236003e-01 3.45777988e-01 2.96649992e-01
      3.52236003e-01 3.52236003e-01 3.52236003e-01 2.10945994e-01
      3.52236003e-01 3.52236003e-01 2.73229003e-01 6.42929003e-02
      2.95154005e-01 4.38995987e-01 3.62352014e-01 1.67796001e-01
      3.03489000e-01 4.38995987e-01 4.38995987e-01 3.08010012e-01
      3.71906012e-01 3.71906012e-01 2.87248999e-01 2.00367004e-01
      3.59717011e-01 3.71906012e-01 3.71906012e-01 3.10001999e-01
      3.65608990e-01 2.75965989e-01 3.65608990e-01 3.20813000e-01
      3.65608990e-01 3.55053008e-01 2.64661014e-01 2.94077009e-01
      3.65608990e-01 3.32545012e-01 3.35027009e-01 3.35027009e-01
      3.16807002e-01 3.35027009e-01 3.35027009e-01 3.35027009e-01
      3.35027009e-01 3.35027009e-01 1.39866993e-01 1.55722007e-01
      4.11911011e-01 4.11911011e-01 2.96131015e-01 1.26595005e-01
      4.11911011e-01 4.11911011e-01 4.11911011e-01 3.80721003e-01
      2.02359006e-01 3.14354986e-01 3.80721003e-01 3.80721003e-01
      3.80721003e-01 2.67040998e-01 2.45713994e-01 3.80721003e-01
      4.26075011e-01 4.26075011e-01 1.09339997e-01 3.52675989e-02
      4.26075011e-01 4.26075011e-01 4.26075011e-01 1.39926001e-01
      2.35084996e-01</_>
    <_>
      4.25853014e-01 4.25853014e-01 4.25853014e-01 9.89388973e-02
      1.68907002e-01 4.25853014e-01 4.25853014e-01 1.10711999e-01
      1.95998996e-01 3.37314010e-01 3.14146012e-01 3.37314010e-01
      3.37314010e-01 3.37314010e-01 3.37314010e-01 3.18554997e-01
      3.37314010e-01 3.37314010e-01 1.63996994e-01 2.54106998e-01
      3.78527999e-01 3.78527999e-01 3.78527999e-01 2.12253004e-01
      3.78527999e-01 3.78527999e-01 3.78527999e-01 1.90632001e-01
      4.17605996e-01 4.17605996e-01 2.12252006e-01 1.82180002e-01
      3.72801989e-01 4.17605996e-01 4.17605996e-01 2.11394995e-01
      3.81734014e-01 2.39644006e-01 3.81734014e-01 3.81734014e-01
      3.81734014e-01 3.06167006e-01 1.91962004e-01 2.82072991e-01
      3.81734014e-01 2.16020003e-01 1.33876994e-01 3.64841998e-01
      3.64841998e-01 3.64841998e-01 3.64841998e-01 3.64841998e-01
      3.64841998e-01 3.64841998e-01 1.66814998e-01 3.45851004e-01
      3.98205012e-01 3.98205012e-01 2.11974993e-01 1.03979997e-01
      3.98205012e-01 3.98205012e-01 3.98205012e-01 3.75115991e-01
      2.32711002e-01 3.75115991e-01 3.75115991e-01 3.75115991e-01
      3.20704013e-01 2.76652008e-01 2.43210003e-01 3.75115991e-01
      3.50477993e-01 3.50477993e-01 3.27850997e-01 1.70788005e-01
      3.50477993e-01 3.50477993e-01 3.50477993e-01 3.50477993e-01
      3.50477993e-01</_>
    <_>
      1.96051002e-01 4.08528000e-01 4.08528000e-01 2.51603991e-01
      2.40444005e-01 4.08528000e-01 4.08528000e-01 3.39924008e-01
      2.30731994e-01 3.65435004e-01 1.86688006e-01 3.65435004e-01
      3.65435004e-01 3.65435004e-01 2.54602998e-01 3.08896989e-01
      3.65435004e-01 3.65435004e-01 1.86341003e-01 1.04561001e-01
      3.68523002e-01 3.68523002e-01 3.68523002e-01 3.68523002e-01
      3.68523002e-01 3.68523002e-01 3.68523002e-01 3.13309997e-01
      3.65000010e-01 3.65000010e-01 3.65000010e-01 2.85676003e-01
      1.31254002e-01 3.65000010e-01 3.65000010e-01 3.65000010e-01
      4.32920009e-01 1.89567998e-01 2.77164996e-01 4.31955010e-01
      4.32920009e-01 1.97051004e-01 2.12129995e-01 2.24159002e-01
      4.32920009e-01 3.08661014e-01 3.30204010e-01 3.49992990e-01
      2.39216998e-01 3.49992990e-01 3.49992990e-01 3.49992990e-01
      3.49992990e-01 3.49992990e-01 1.88224003e-01 1.28834993e-01
      4.44018990e-01 4.44018990e-01 3.76507998e-01 6.34697974e-02
      9.56109017e-02 4.44018990e-01 4.44018990e-01 3.84395003e-01
      1.58013001e-01 2.80238986e-01 3.84395003e-01 3.84395003e-01
      3.84395003e-01 3.23038995e-01 2.22498000e-01 3.84395003e-01
      3.99237007e-01 3.99237007e-01 1.00853004e-01 1.13481000e-01
      3.99237007e-01 3.99237007e-01 3.99237007e-01 1.71913996e-01
      3.82696003e-01</_>
    <_>
      2.46002004e-01 3.97850007e-01 4.13111001e-01 2.96368986e-01
      3.37186992e-01 4.13111001e-01 3.59811008e-01 2.30176002e-01
      2.27541998e-01 3.69663000e-01 2.13291004e-01 3.69663000e-01
      3.69663000e-01 3.69663000e-01 2.06567004e-01 2.97048986e-01
      3.69663000e-01 3.69663000e-01 2.64032006e-01 8.14151019e-02
      3.89652997e-01 3.89652997e-01 3.89652997e-01 1.67374998e-01
      3.64149988e-01 3.89652997e-01 3.89652997e-01 3.39713007e-01
      3.39713007e-01 3.39713007e-01 3.39713007e-01 3.39713007e-01
      2.70864010e-01 3.39713007e-01 3.39713007e-01 3.39713007e-01
      4.49366003e-01 1.31395996e-01 2.24968001e-01 4.49366003e-01
      4.49366003e-01 1.68233007e-01 2.11015001e-01 2.16998994e-01
      4.49366003e-01 3.23881000e-01 2.19478995e-01 3.50564003e-01
      3.50564003e-01 3.50564003e-01 3.25661987e-01 3.50564003e-01
      3.50564003e-01 3.50564003e-01 3.62639010e-01 2.89272994e-01
      3.84932995e-01 3.84932995e-01 3.84932995e-01 6.82189986e-02
      1.88275993e-01 3.84932995e-01 3.84932995e-01 4.23862010e-01
      1.46191999e-01 2.45398998e-01 4.23862010e-01 4.23862010e-01
      3.12357992e-01 2.68561989e-01 1.60761997e-01 4.23862010e-01
      3.58144999e-01 3.58144999e-01 2.95969993e-01 1.25210002e-01
      3.58144999e-01 3.58144999e-01 3.58144999e-01 3.51482987e-01
      3.58144999e-01</_>
    <_>
      2.59844005e-01 3.81087005e-01 3.81087005e-01 3.12920004e-01
      3.07788998e-01 3.81087005e-01 3.81087005e-01 2.81228989e-01
      2.75721997e-01 3.65476012e-01 1.95785001e-01 3.65476012e-01
      3.65476012e-01 3.65476012e-01 2.41630003e-01 3.13365012e-01
      3.65476012e-01 3.65476012e-01 2.04517007e-01 1.11047998e-01
      3.81112993e-01 3.81112993e-01 3.81112993e-01 2.65619010e-01
      3.81112993e-01 3.81112993e-01 3.81112993e-01 3.46345991e-01
      3.46345991e-01 3.46345991e-01 3.46345991e-01 3.46345991e-01
      1.92074001e-01 3.46345991e-01 3.46345991e-01 3.46345991e-01
      4.52753991e-01 1.52373999e-01 2.20719993e-01 4.52753991e-01
      4.52753991e-01 1.74974993e-01 1.91167995e-01 1.90880001e-01
      4.52753991e-01 3.32679003e-01 2.63884008e-01 3.45133990e-01
      3.45133990e-01 3.45133990e-01 3.18650991e-01 3.45133990e-01
      3.45133990e-01 3.45133990e-01 2.29626998e-01 2.08759993e-01
      4.29663986e-01 4.19995010e-01 3.55904996e-01 5.13061993e-02
      1.99671000e-01 4.29663986e-01 4.29663986e-01 4.02410001e-01
      1.72809005e-01 2.59162009e-01 4.02410001e-01 4.02410001e-01
      3.69767010e-01 2.92174011e-01 1.70659006e-01 4.02410001e-01
      3.81826013e-01 3.81826013e-01 2.11142004e-01 1.06099002e-01
      3.81826013e-01 3.81826013e-01 3.81826013e-01 2.56125987e-01
      3.81826013e-01</_>
    <_>
      2.74594009e-01 3.91007990e-01 3.91007990e-01 3.09762001e-01
      2.99201995e-01 3.91007990e-01 3.91007990e-01 2.29366004e-01
      2.66566992e-01 3.61755013e-01 2.05450997e-01 3.61755013e-01
      3.61755013e-01 3.61755013e-01 2.38873005e-01 3.34538996e-01
      3.61755013e-01 3.61755013e-01 2.22299993e-01 1.51170999e-01
      3.73264998e-01 3.73264998e-01 3.73264998e-01 2.96712995e-01
      3.73264998e-01 3.73264998e-01 3.73264998e-01 3.51476014e-01
      3.51476014e-01 3.51476014e-01 2.99930006e-01 3.51476014e-01
      2.04409003e-01 3.51476014e-01 3.51476014e-01 3.51476014e-01
      4.55902010e-01 1.56764001e-01 2.17981994e-01 4.55902010e-01
      4.55902010e-01 1.83118999e-01 1.83983997e-01 1.56797007e-01
      4.55902010e-01 3.44879001e-01 1.54583007e-01 3.52391988e-01
      3.52391988e-01 3.52391988e-01 3.29486996e-01 3.52391988e-01
      3.52391988e-01 3.52391988e-01 2.54839003e-01 2.64441013e-01
      4.35856014e-01 3.96059006e-01 3.15445006e-01 4.47777994e-02
      1.80251002e-01 4.35856014e-01 4.35856014e-01 4.23850000e-01
      1.56899005e-01 2.61680007e-01 4.23850000e-01 4.23850000e-01
      3.02489996e-01 2.48698995e-01 1.75290003e-01 4.23850000e-01
      3.71448994e-01 3.71448994e-01 2.02912003e-01 1.61006004e-01
      3.71448994e-01 3.71448994e-01 3.71448994e-01 3.18351001e-01
      3.71448994e-01</_>
    <_>
      3.54357004e-01 3.54357004e-01 3.54357004e-01 2.54224986e-01
      2.35687003e-01 3.54357004e-01 3.54357004e-01 3.54357004e-01
      3.50526005e-01 3.54485989e-01 2.98593998e-01 3.54485989e-01
      3.54485989e-01 3.54485989e-01 3.54485989e-01 1.66362002e-01
      3.54485989e-01 3.54485989e-01 2.61799008e-01 1.07882999e-01
      3.82894993e-01 3.82894993e-01 3.82894993e-01 2.06330001e-01
      3.74678999e-01 3.82894993e-01 3.82894993e-01 2.30455995e-01
      3.78255993e-01 3.78255993e-01 1.64902002e-01 2.57800013e-01
      3.78255993e-01 3.78255993e-01 3.78255993e-01 3.66156995e-01
      4.22414988e-01 2.45169997e-01 3.04136008e-01 3.20407003e-01
      4.22414988e-01 3.11464995e-01 2.19286993e-01 2.45181993e-01
      4.22414988e-01 2.84992009e-01 3.42613012e-01 3.42613012e-01
      3.42613012e-01 3.42613012e-01 3.06057006e-01 3.42613012e-01
      3.42613012e-01 3.42613012e-01 2.66259015e-01 2.64580011e-01
      3.94410998e-01 3.94410998e-01 3.94410998e-01 7.57130012e-02
      2.67639011e-01 3.94410998e-01 3.94410998e-01 3.96908998e-01
      2.13558003e-01 2.13692993e-01 3.87248993e-01 3.96908998e-01
      3.96908998e-01 2.96552986e-01 1.91600993e-01 3.96908998e-01
      3.61736000e-01 3.61736000e-01 2.08115995e-01 2.28343993e-01
      3.61736000e-01 3.61736000e-01 3.61736000e-01 3.40317994e-01
      3.61736000e-01</_>
    <_>
      6.44703023e-03 2.32560001e-02 7.54207969e-02 3.76621008e-01
      5.08744001e-01 5.08744001e-01 5.08744001e-01 2.65114009e-01
      7.72958016e-03 9.37085003e-02 3.33267003e-01 4.23243999e-01
      4.23243999e-01 4.23243999e-01 4.23243999e-01 3.56353998e-01
      1.34026006e-01 1.20119996e-01 3.33756000e-01 1.24939002e-01
      3.52436006e-01 3.52436006e-01 3.52436006e-01 3.52436006e-01
      3.52436006e-01 3.52436006e-01 3.52436006e-01 1.16235003e-01
      2.80750006e-01 3.56420010e-01 2.45462999e-01 4.12357002e-01
      4.22533005e-01 4.22533005e-01 4.22533005e-01 1.02564998e-01
      1.96318999e-01 4.72126991e-01 4.72126991e-01 2.41202995e-01
      1.76559001e-01 3.11480999e-01 4.07642007e-01 3.00462008e-01
      2.60987997e-01 2.29989007e-01 2.81596005e-01 3.40200007e-01
      2.12617993e-01 1.98225006e-01 4.02837008e-01 4.32653010e-01
      4.32653010e-01 3.55802000e-01 4.26180005e-01 2.21649006e-01
      8.65715966e-02 6.29583001e-02 8.16212967e-02 9.42796022e-02
      4.51979011e-01 5.16135991e-01 5.16135991e-01 2.86650985e-01
      4.19445008e-01 4.19445008e-01 3.41416001e-01 1.78473994e-01
      2.49661997e-01 2.60022998e-01 4.19445008e-01 3.27838004e-01
      4.28142995e-01 3.50834996e-01 1.72402993e-01 1.00863002e-01
      1.47624001e-01 4.85363007e-01 4.85363007e-01 3.68901998e-01
      1.40817001e-01</_>
    <_>
      4.42823991e-02 2.27418005e-01 4.20655012e-01 1.02424003e-01
      3.59876990e-01 5.27853012e-01 5.27853012e-01 2.46425003e-01
      7.81937018e-02 3.42983007e-01 3.42983007e-01 3.42983007e-01
      3.23235989e-01 3.42983007e-01 3.42983007e-01 2.96222001e-01
      3.13876003e-01 3.42983007e-01 3.33766997e-01 6.22395985e-02
      3.54799986e-01 3.54799986e-01 3.54799986e-01 3.54799986e-01
      3.54799986e-01 3.54799986e-01 3.54799986e-01 1.67411000e-01
      4.31463003e-01 4.31463003e-01 1.96049005e-01 1.81034997e-01
      3.32911015e-01 4.31463003e-01 4.31463003e-01 2.02441007e-01
      3.41010988e-01 3.41010988e-01 3.41010988e-01 2.68067002e-01
      3.41010988e-01 3.32740009e-01 3.41010988e-01 3.41010988e-01
      3.41010988e-01 1.77316993e-01 3.43991011e-01 3.73804986e-01
      2.25116000e-01 3.11713994e-01 3.73804986e-01 3.73804986e-01
      3.73804986e-01 3.73804986e-01 8.59801024e-02 3.11890006e-01
      3.63023013e-01 3.00083995e-01 4.21698987e-01 1.55819997e-01
      3.33934993e-01 4.21698987e-01 4.21698987e-01 3.43445987e-01
      3.43445987e-01 3.43445987e-01 3.43445987e-01 2.58002996e-01
      3.43445987e-01 3.43445987e-01 3.22979003e-01 3.43445987e-01
      4.47304994e-01 4.47304994e-01 1.50231004e-01 3.42634991e-02
      1.94019005e-01 4.47304994e-01 4.47304994e-01 3.22245002e-01
      1.73141003e-01</_>
    <_>
      3.86271998e-02 5.90746999e-02 1.26562998e-01 1.51536003e-01
      4.16260004e-01 6.13638997e-01 6.13638997e-01 1.40428007e-01
      6.17488995e-02 3.19029003e-01 3.88365000e-01 3.88365000e-01
      3.88365000e-01 3.88365000e-01 3.88365000e-01 1.98842004e-01
      1.24442004e-01 2.91855007e-01 3.46590996e-01 5.30741997e-02
      1.86585993e-01 3.75335991e-01 3.75335991e-01 3.75335991e-01
      3.75335991e-01 3.66205007e-01 3.75335991e-01 1.66637003e-02
      1.46965995e-01 4.57397997e-01 3.76547992e-01 2.64638007e-01
      4.23406988e-01 4.57397997e-01 4.03008014e-01 4.02139984e-02
      3.82171988e-01 3.82171988e-01 3.82171988e-01 3.82171988e-01
      3.82171988e-01 2.39001006e-01 1.18270002e-01 2.20776007e-01
      3.82171988e-01 3.95419002e-01 2.45731007e-02 5.68706989e-02
      2.17115000e-01 3.97165000e-01 3.97165000e-01 3.97165000e-01
      3.97165000e-01 3.97165000e-01 4.31114994e-02 2.18049005e-01
      4.56665993e-01 4.56665993e-01 1.06562003e-01 2.89184991e-02
      3.81832004e-01 4.56665993e-01 4.03008014e-01 3.58036995e-01
      3.58036995e-01 3.58036995e-01 3.58036995e-01 3.58036995e-01
      3.22524011e-01 4.47308011e-02 3.48221987e-01 3.58036995e-01
      3.81186008e-01 3.38871986e-01 3.02411001e-02 9.28900987e-02
      3.81186008e-01 3.81186008e-01 3.81186008e-01 3.81186008e-01
      3.81186008e-01</_>
    <_>
      2.18943000e-01 2.96218991e-01 3.24604988e-01 3.91992986e-01
      4.21357006e-01 4.21357006e-01 4.21357006e-01 1.06165998e-01
      2.39133999e-01 3.46854001e-01 2.96781003e-01 3.46854001e-01
      3.46854001e-01 3.46854001e-01 3.46854001e-01 2.57492989e-01
      3.46854001e-01 3.46854001e-01 1.83901995e-01 8.70212987e-02
      3.52831006e-01 3.73147011e-01 3.73147011e-01 3.66328001e-01
      3.73147011e-01 3.73147011e-01 3.73147011e-01 3.03770006e-01
      3.59311998e-01 3.59311998e-01 3.59311998e-01 3.58897001e-01
      3.42938989e-01 3.59311998e-01 3.32188994e-01 1.75924003e-01
      4.31089997e-01 2.58091986e-01 2.49093994e-01 3.73661011e-01
      4.31089997e-01 3.43897998e-01 1.07804999e-01 2.00020999e-01
      4.31089997e-01 3.92509013e-01 6.07233010e-02 1.26062006e-01
      2.28297994e-01 3.92509013e-01 3.92509013e-01 3.92509013e-01
      3.92509013e-01 3.92509013e-01 3.42967987e-01 3.55360001e-01
      4.03250992e-01 3.30648005e-01 2.33475998e-01 1.11870997e-01
      2.96438009e-01 4.03250992e-01 4.03250992e-01 3.99774998e-01
      1.97283000e-01 2.71925002e-01 3.99774998e-01 3.99774998e-01
      3.99774998e-01 2.46004999e-01 1.53375998e-01 3.99774998e-01
      3.71919990e-01 3.71919990e-01 1.30965993e-01 1.04221001e-01
      3.71919990e-01 3.71919990e-01 3.71919990e-01 3.71919990e-01
      3.71919990e-01</_>
    <_>
      1.07915998e-01 1.48025006e-01 1.96904004e-01 1.06766000e-01
      5.19354999e-01 6.23592973e-01 4.93313998e-01 6.63757026e-02
      6.07030988e-02 3.75550985e-01 2.00670004e-01 2.83885986e-01
      3.82824987e-01 3.82824987e-01 3.82824987e-01 1.53799996e-01
      3.52705985e-01 3.82824987e-01 8.85388032e-02 5.44954985e-02
      4.51552987e-01 4.51552987e-01 4.51552987e-01 1.22033000e-01
      2.87665009e-01 4.51552987e-01 2.67280012e-01 2.79969007e-01
      3.30091000e-01 3.55253994e-01 2.27761999e-01 3.55253994e-01
      3.55253994e-01 3.55253994e-01 3.55253994e-01 3.55253994e-01
      4.25700009e-01 2.11436003e-01 2.38545001e-01 4.25700009e-01
      4.25700009e-01 3.08618009e-01 1.84640005e-01 1.99800000e-01
      4.25700009e-01 2.81374007e-01 3.53920996e-01 3.53920996e-01
      3.53920996e-01 3.53920996e-01 2.80142993e-01 3.53920996e-01
      2.95385003e-01 3.53920996e-01 4.11516994e-01 1.29214004e-01
      2.54866987e-01 3.58595014e-01 4.11516994e-01 1.60395995e-01
      2.87286013e-01 4.11516994e-01 4.11516994e-01 4.30988014e-01
      1.72087997e-01 2.09546998e-01 3.27915996e-01 4.30988014e-01
      4.30988014e-01 2.05247998e-01 1.71795994e-01 4.30988014e-01
      4.06848997e-01 4.06848997e-01 1.91273004e-01 2.06983998e-01
      4.06848997e-01 4.06848997e-01 2.41768003e-01 1.74431995e-01
      4.06848997e-01</_>
    <_>
      2.20988005e-01 1.94694996e-01 3.74740005e-01 4.23593998e-01
      4.23593998e-01 4.23593998e-01 4.23593998e-01 1.75632000e-01
      1.41503006e-01 3.05200994e-01 1.74742997e-01 4.24228013e-01
      4.24228013e-01 4.24228013e-01 2.59665012e-01 1.21653996e-01
      2.64530003e-01 4.24228013e-01 7.12862983e-02 2.99300998e-02
      1.91670001e-01 4.30193007e-01 4.30193007e-01 1.72010005e-01
      4.27944005e-01 4.30193007e-01 4.30193007e-01 3.64253014e-01
      3.64253014e-01 3.64253014e-01 2.97403991e-01 2.07963005e-01
      2.61878014e-01 3.64253014e-01 3.64253014e-01 3.64253014e-01
      3.54025006e-01 2.34256998e-01 3.02114993e-01 3.54025006e-01
      3.54025006e-01 3.13546985e-01 3.54025006e-01 3.54025006e-01
      3.54025006e-01 8.82185027e-02 5.94246984e-02 2.85977006e-01
      4.29345995e-01 4.29345995e-01 4.29345995e-01 3.91494989e-01
      4.29345995e-01 1.09522998e-01 3.54499012e-01 3.54499012e-01
      3.54499012e-01 2.51109004e-01 3.54499012e-01 2.31768996e-01
      3.54499012e-01 3.54499012e-01 3.54499012e-01 3.18235993e-01
      1.34865999e-01 1.54585004e-01 2.96063989e-01 3.91171992e-01
      3.91171992e-01 3.91171992e-01 3.91171992e-01 3.91171992e-01
      3.40766996e-01 3.40766996e-01 3.01113993e-01 3.40766996e-01
      3.40766996e-01 3.05074006e-01 3.40766996e-01 3.40766996e-01
      3.40766996e-01</_>
    <_>
      3.81031990e-01 3.81031990e-01 3.81031990e-01 3.81031990e-01
      3.81031990e-01 3.81031990e-01 2.39222005e-01 1.64089993e-01
      2.02305004e-01 3.55259001e-01 2.59059012e-01 3.55259001e-01
      3.55259001e-01 3.55259001e-01 3.55259001e-01 2.34886006e-01
      3.41928005e-01 3.55259001e-01 7.37418979e-02 5.88904992e-02
      2.12283000e-01 4.52060997e-01 3.59371006e-01 2.67556995e-01
      4.52060997e-01 4.52060997e-01 3.57354999e-01 3.48170996e-01
      3.48170996e-01 3.48170996e-01 1.70708001e-01 3.44704002e-01
      3.48170996e-01 3.48170996e-01 3.48170996e-01 3.48170996e-01
      3.56860995e-01 2.55421013e-01 1.99366003e-01 3.56860995e-01
      3.56860995e-01 3.56860995e-01 3.56860995e-01 3.56860995e-01
      3.56860995e-01 5.99332005e-02 2.28872001e-01 3.94125015e-01
      3.94125015e-01 3.94125015e-01 3.94125015e-01 3.94125015e-01
      3.94125015e-01 8.98851007e-02 3.54077011e-01 3.54077011e-01
      3.17667007e-01 1.34004995e-01 3.54077011e-01 3.54077011e-01
      3.54077011e-01 3.54077011e-01 3.54077011e-01 3.56225997e-01
      3.13966990e-01 1.42193004e-01 3.40974003e-01 3.56225997e-01
      3.56225997e-01 3.56225997e-01 3.56225997e-01 3.56225997e-01
      3.88889998e-01 3.88889998e-01 3.88889998e-01 1.71709999e-01
      3.16552013e-01 3.88889998e-01 3.88889998e-01 3.02608997e-01
      1.36666998e-01</_>
    <_>
      3.14716011e-01 4.41224992e-01 3.41170996e-01 2.28855997e-01
      4.41224992e-01 4.41224992e-01 3.59759003e-01 1.08148001e-01
      5.11183999e-02 3.93427014e-01 3.93427014e-01 3.93427014e-01
      3.93427014e-01 3.93427014e-01 3.93427014e-01 1.23262003e-01
      9.70432982e-02 2.06763998e-01 2.14533001e-01 2.73770005e-01
      2.56944001e-01 3.93857986e-01 3.93857986e-01 3.93857986e-01
      3.93857986e-01 3.93857986e-01 1.82889998e-01 3.93197000e-01
      3.93197000e-01 3.93197000e-01 9.00887027e-02 1.49076998e-01
      3.66075993e-01 3.93197000e-01 3.93197000e-01 2.42285997e-01
      3.37330997e-01 3.37330997e-01 2.93758988e-01 3.37330997e-01
      3.37330997e-01 3.37330997e-01 3.37330997e-01 3.37330997e-01
      3.37330997e-01 3.89409006e-01 1.24546997e-01 1.68124005e-01
      3.97273004e-01 3.97273004e-01 3.97273004e-01 3.97273004e-01
      3.85410011e-01 1.44122005e-01 3.78690988e-01 3.78690988e-01
      3.07078987e-01 7.93064013e-02 1.87582001e-01 3.78690988e-01
      3.78690988e-01 3.78690988e-01 3.78690988e-01 3.62877011e-01
      3.17853004e-01 1.81942999e-01 2.68633991e-01 3.62877011e-01
      3.62877011e-01 3.62877011e-01 3.62877011e-01 3.62877011e-01
      3.78591001e-01 3.78591001e-01 1.72103003e-01 2.35315993e-01
      3.78591001e-01 3.78591001e-01 3.78591001e-01 3.37532014e-01
      2.83975989e-01</_>
    <_>
      2.90197015e-01 3.74311000e-01 3.74311000e-01 3.38043004e-01
      3.74311000e-01 3.74311000e-01 3.74311000e-01 2.44131997e-01
      1.93981007e-01 3.75865996e-01 3.32969010e-01 3.75865996e-01
      3.75865996e-01 3.75865996e-01 3.75865996e-01 1.16662003e-01
      1.55350000e-01 3.75840008e-01 1.84672996e-01 1.68285996e-01
      2.65500009e-01 4.18421000e-01 4.18421000e-01 4.18421000e-01
      4.18421000e-01 3.78571987e-01 1.38873994e-01 3.72491002e-01
      3.86031002e-01 3.86031002e-01 1.50569007e-01 1.60580993e-01
      3.03027004e-01 3.86031002e-01 3.86031002e-01 3.47894996e-01
      3.62917989e-01 2.07543999e-01 1.91639006e-01 3.62917989e-01
      3.62917989e-01 3.62917989e-01 3.55414003e-01 3.62917989e-01
      3.62917989e-01 1.90706000e-01 6.98582977e-02 1.41567007e-01
      4.08623010e-01 4.08623010e-01 4.08623010e-01 4.08623010e-01
      4.08623010e-01 3.15856993e-01 3.65685999e-01 3.65685999e-01
      3.65685999e-01 1.79881006e-01 1.67058006e-01 3.65685999e-01
      3.65685999e-01 3.65685999e-01 3.65685999e-01 3.59829992e-01
      9.97003019e-02 1.55820996e-01 3.72509986e-01 3.72509986e-01
      3.72509986e-01 3.72509986e-01 3.72509986e-01 3.72509986e-01
      3.88020992e-01 3.88020992e-01 9.45677012e-02 1.79475993e-01
      3.88020992e-01 3.88020992e-01 3.88020992e-01 3.88020992e-01
      2.27172002e-01</_>
    <_>
      3.34513009e-01 3.81155998e-01 3.81155998e-01 3.76749009e-01
      3.81155998e-01 3.81155998e-01 3.81155998e-01 9.24052969e-02
      8.61195996e-02 3.90323013e-01 3.90323013e-01 3.90323013e-01
      3.90323013e-01 3.90323013e-01 3.90323013e-01 2.36157000e-01
      1.12516001e-01 1.16446003e-01 2.27893993e-01 1.42928004e-01
      3.21361005e-01 4.44532990e-01 4.44532990e-01 4.44532990e-01
      4.44532990e-01 1.46969005e-01 8.87952968e-02 4.44905013e-01
      4.44905013e-01 2.94674993e-01 2.27069005e-01 1.32320002e-01
      4.44905013e-01 4.44905013e-01 1.34590000e-01 1.72563002e-01
      3.54126990e-01 3.41017991e-01 2.13032007e-01 3.54126990e-01
      3.54126990e-01 3.54126990e-01 3.54126990e-01 2.86965996e-01
      3.54126990e-01 1.39899001e-01 1.56882003e-01 3.51826012e-01
      3.95337999e-01 3.95337999e-01 3.95337999e-01 3.95337999e-01
      3.95337999e-01 2.15924993e-01 3.79797012e-01 3.79797012e-01
      2.91884989e-01 1.40910998e-01 1.60248995e-01 3.79797012e-01
      3.79797012e-01 3.79797012e-01 3.79797012e-01 3.87591004e-01
      2.56116986e-01 2.09772006e-01 1.72863007e-01 3.87591004e-01
      3.87591004e-01 3.87591004e-01 3.24824005e-01 3.87591004e-01
      4.30974007e-01 4.30974007e-01 1.51260003e-01 5.21156006e-02
      3.88767004e-01 4.30974007e-01 4.30974007e-01 1.85417995e-01
      2.04019994e-01</_>
    <_>
      1.60418004e-01 3.49898994e-01 4.43648994e-01 2.76419997e-01
      4.48130012e-01 4.48130012e-01 3.99116009e-01 8.59799013e-02
      7.61673003e-02 3.31519991e-01 3.99035007e-01 3.99035007e-01
      3.99035007e-01 3.99035007e-01 3.99035007e-01 2.40465999e-01
      1.25908002e-01 1.27614006e-01 1.33396000e-01 1.71295002e-01
      3.26831013e-01 4.47961003e-01 4.47961003e-01 4.47961003e-01
      4.47961003e-01 1.88623995e-01 5.75754009e-02 4.12903011e-01
      4.12903011e-01 3.71325999e-01 2.06989005e-01 2.32326001e-01
      4.12903011e-01 4.12903011e-01 2.26098999e-01 1.67620003e-01
      3.39022994e-01 3.39022994e-01 3.07689011e-01 3.39022994e-01
      3.39022994e-01 3.39022994e-01 3.39022994e-01 3.12063992e-01
      3.39022994e-01 1.32091999e-01 1.24867000e-01 3.89746994e-01
      3.89746994e-01 3.89746994e-01 3.89746994e-01 3.89746994e-01
      3.89746994e-01 2.27261007e-01 3.62260997e-01 3.62260997e-01
      3.62260997e-01 1.79636002e-01 2.13262007e-01 3.62260997e-01
      3.62260997e-01 3.62260997e-01 3.62260997e-01 3.46662998e-01
      3.46662998e-01 2.89499998e-01 2.67396986e-01 3.46662998e-01
      3.46662998e-01 3.46662998e-01 3.46662998e-01 3.46662998e-01
      3.81359994e-01 3.81359994e-01 2.05955997e-01 1.43677995e-01
      3.81359994e-01 3.81359994e-01 3.81359994e-01 3.81359994e-01
      2.46002004e-01</_>
    <_>
      3.36910993e-01 3.59003991e-01 3.59003991e-01 3.28920990e-01
      3.51749003e-01 3.59003991e-01 3.59003991e-01 2.55997986e-01
      2.64420986e-01 3.49155992e-01 2.62374997e-01 3.49155992e-01
      3.49155992e-01 3.49155992e-01 3.16267014e-01 3.10140014e-01
      3.49155992e-01 3.49155992e-01 3.05101007e-01 1.45405993e-01
      3.55010003e-01 3.55010003e-01 3.55010003e-01 3.55010003e-01
      3.55010003e-01 3.55010003e-01 3.55010003e-01 3.38156998e-01
      3.38156998e-01 3.38156998e-01 2.89779991e-01 3.38156998e-01
      3.38156998e-01 3.38156998e-01 3.38156998e-01 3.34957987e-01
      4.77324992e-01 2.34687999e-01 2.31094003e-01 2.26524994e-01
      4.77324992e-01 3.07141989e-01 1.75834000e-01 1.63289994e-01
      4.77324992e-01 3.54395002e-01 3.06769013e-01 3.54395002e-01
      1.52259007e-01 3.54395002e-01 3.54395002e-01 3.54395002e-01
      3.54395002e-01 3.54395002e-01 3.59344006e-01 3.59344006e-01
      3.59344006e-01 2.73151994e-01 3.21460009e-01 2.09029004e-01
      3.59344006e-01 3.59344006e-01 3.59344006e-01 4.19185013e-01
      2.18095005e-01 2.61287987e-01 2.58397013e-01 4.19185013e-01
      4.19185013e-01 3.16339999e-01 1.01337999e-01 4.19185013e-01
      3.85664999e-01 3.85664999e-01 1.66260004e-01 7.44526982e-02
      3.85664999e-01 3.85664999e-01 3.85664999e-01 2.65590012e-01
      3.85664999e-01</_>
    <_>
      4.47194010e-01 4.47194010e-01 2.04427004e-01 8.10661986e-02
      3.41603011e-01 4.47194010e-01 4.47194010e-01 1.01153001e-01
      1.42542005e-01 3.69830996e-01 3.69830996e-01 2.93987989e-01
      3.69830996e-01 3.69830996e-01 3.69830996e-01 1.54082999e-01
      2.55899996e-01 3.69830996e-01 3.93568993e-01 2.23521993e-01
      3.36569011e-01 3.93568993e-01 3.93568993e-01 2.05658004e-01
      1.26679003e-01 3.93568993e-01 3.93568993e-01 3.47413987e-01
      3.47413987e-01 3.47413987e-01 3.47413987e-01 3.47413987e-01
      2.55019993e-01 3.47413987e-01 3.47413987e-01 2.94310987e-01
      3.44812006e-01 3.44812006e-01 3.44812006e-01 3.44812006e-01
      3.44812006e-01 3.44812006e-01 2.91110992e-01 2.82029003e-01
      3.44812006e-01 2.55445987e-01 3.41199994e-01 3.41199994e-01
      3.41199994e-01 3.41199994e-01 3.41199994e-01 3.41199994e-01
      3.41199994e-01 3.41199994e-01 4.23301995e-01 2.06774995e-01
      4.23301995e-01 4.23301995e-01 1.58470005e-01 4.53226008e-02
      1.72989994e-01 4.23301995e-01 4.23301995e-01 3.68243009e-01
      2.65161008e-01 2.53363997e-01 3.68243009e-01 3.68243009e-01
      3.68243009e-01 2.82361001e-01 3.22605014e-01 3.68243009e-01
      3.97643000e-01 3.97643000e-01 1.60591006e-01 8.21985006e-02
      3.97643000e-01 3.97643000e-01 3.97643000e-01 1.21495999e-01
      3.97643000e-01</_>
    <_>
      4.77991015e-01 4.77991015e-01 1.49008006e-01 9.39885005e-02
      3.06787997e-01 4.77991015e-01 3.62955987e-01 9.20884013e-02
      2.10773006e-01 3.75223011e-01 3.24535012e-01 2.25584999e-01
      3.75223011e-01 3.75223011e-01 3.53610992e-01 1.05057999e-01
      3.75223011e-01 3.75223011e-01 3.66127014e-01 3.31609994e-01
      3.40929002e-01 3.66127014e-01 3.66127014e-01 2.59748995e-01
      1.80078000e-01 3.66127014e-01 3.66127014e-01 3.32778990e-01
      3.32778990e-01 3.32778990e-01 3.32778990e-01 3.32778990e-01
      3.32778990e-01 3.32778990e-01 3.32778990e-01 3.32778990e-01
      3.87993008e-01 2.28398994e-01 2.53733993e-01 3.87993008e-01
      3.87993008e-01 3.57605010e-01 2.13995993e-01 3.22097987e-01
      3.87993008e-01 2.58895010e-01 3.40875000e-01 3.40875000e-01
      3.40875000e-01 3.40875000e-01 3.40875000e-01 3.40875000e-01
      3.40875000e-01 3.40875000e-01 3.58195990e-01 2.19558999e-01
      3.58195990e-01 3.25875998e-01 3.33009005e-01 3.35337996e-01
      3.24737996e-01 3.58195990e-01 3.58195990e-01 3.91766012e-01
      2.95852005e-01 1.93829000e-01 3.40413988e-01 3.91766012e-01
      3.91766012e-01 2.92948008e-01 2.35300004e-01 3.91766012e-01
      3.75730991e-01 3.75730991e-01 3.70436996e-01 1.03087999e-01
      2.97304004e-01 3.75730991e-01 3.75730991e-01 2.32669994e-01
      3.75730991e-01</_>
    <_>
      3.36416990e-01 3.36416990e-01 3.36416990e-01 3.36416990e-01
      3.36416990e-01 3.36416990e-01 3.36416990e-01 3.02037001e-01
      3.36416990e-01 3.33546013e-01 3.33546013e-01 3.33546013e-01
      3.33546013e-01 3.33546013e-01 3.33546013e-01 3.26564014e-01
      3.33546013e-01 3.33546013e-01 3.33826005e-01 3.33826005e-01
      3.33826005e-01 3.33826005e-01 3.33826005e-01 3.33826005e-01
      3.24267000e-01 3.33826005e-01 3.33826005e-01 2.70103991e-01
      3.59277010e-01 3.59277010e-01 3.19216013e-01 3.59277010e-01
      2.60477990e-01 3.59277010e-01 3.59277010e-01 3.29102993e-01
      4.01039004e-01 3.24730992e-01 2.84794986e-01 4.01039004e-01
      4.01039004e-01 2.81221002e-01 1.81994006e-01 2.32159004e-01
      4.01039004e-01 2.98366010e-01 3.37101012e-01 3.37101012e-01
      3.34886998e-01 3.37101012e-01 3.37101012e-01 3.37101012e-01
      3.37101012e-01 3.37101012e-01 2.54471004e-01 2.90623993e-01
      4.12795007e-01 4.12795007e-01 3.75452012e-01 8.62730965e-02
      1.29042000e-01 4.12795007e-01 4.12795007e-01 4.03865010e-01
      2.15547994e-01 2.42981002e-01 4.03865010e-01 4.03865010e-01
      4.03865010e-01 2.09240004e-01 1.76489994e-01 4.03865010e-01
      4.06304002e-01 4.06304002e-01 1.60224006e-01 1.19906999e-01
      4.06304002e-01 4.06304002e-01 4.06304002e-01 1.39843002e-01
      3.33047003e-01</_>
    <_>
      3.58476013e-01 3.58476013e-01 3.58476013e-01 2.24216998e-01
      3.58476013e-01 3.58476013e-01 3.58476013e-01 2.55791992e-01
      3.31191003e-01 3.42281014e-01 2.93839008e-01 3.42281014e-01
      3.42281014e-01 3.42281014e-01 3.39641988e-01 3.03222001e-01
      3.42281014e-01 3.42281014e-01 3.34282011e-01 3.20472002e-01
      3.34282011e-01 3.34282011e-01 3.34282011e-01 3.34282011e-01
      3.34282011e-01 3.34282011e-01 3.34282011e-01 3.44554991e-01
      3.44554991e-01 3.44554991e-01 3.44554991e-01 3.44554991e-01
      2.71263003e-01 3.44554991e-01 3.03229988e-01 3.44554991e-01
      4.66663986e-01 2.10565999e-01 1.74355000e-01 3.65334004e-01
      4.66663986e-01 2.55640000e-01 1.98346004e-01 1.70624003e-01
      4.66663986e-01 3.37368995e-01 2.93408990e-01 3.37368995e-01
      3.37368995e-01 3.37368995e-01 3.37368995e-01 3.37368995e-01
      3.37368995e-01 3.37368995e-01 3.57876003e-01 3.57876003e-01
      3.57876003e-01 3.57876003e-01 3.57876003e-01 1.58282995e-01
      2.73577988e-01 3.57876003e-01 3.57876003e-01 4.25933003e-01
      1.78112000e-01 1.87712997e-01 3.38009000e-01 4.25933003e-01
      4.25933003e-01 2.80061990e-01 1.02095000e-01 4.25933003e-01
      3.85120988e-01 3.85120988e-01 1.76235005e-01 8.84113982e-02
      3.85120988e-01 3.85120988e-01 3.85120988e-01 2.59553999e-01
      3.85120988e-01</_>
    <_>
      1.20934002e-01 2.08400995e-01 5.24612010e-01 1.64211005e-01
      2.82189995e-01 5.24612010e-01 5.24612010e-01 3.33186984e-02
      5.78294992e-02 3.87210011e-01 2.25143999e-01 3.87210011e-01
      3.87210011e-01 3.87210011e-01 3.87210011e-01 1.45484000e-01
      1.57122999e-01 3.87210011e-01 2.05933005e-01 7.10631013e-02
      2.21391007e-01 3.87225002e-01 3.87225002e-01 3.87225002e-01
      3.87225002e-01 3.87225002e-01 3.87225002e-01 1.94891006e-01
      4.15957004e-01 4.15957004e-01 4.15957004e-01 1.61741003e-01
      3.70467991e-01 4.15957004e-01 3.02004993e-01 1.05686001e-01
      3.77961010e-01 3.42999011e-01 3.77961010e-01 3.77961010e-01
      3.77961010e-01 3.19011986e-01 9.73265022e-02 2.30354995e-01
      3.77961010e-01 3.28027993e-01 2.44163007e-01 2.27414995e-01
      2.10721999e-01 3.82840991e-01 3.82840991e-01 3.82840991e-01
      3.82840991e-01 3.82840991e-01 2.77938992e-01 3.80618006e-01
      3.80618006e-01 3.80618006e-01 3.80618006e-01 3.80618006e-01
      3.80618006e-01 2.16581002e-01 5.30821010e-02 1.84731007e-01
      1.41602993e-01 2.17081994e-01 5.46914995e-01 5.46914995e-01
      5.06188989e-01 1.31382003e-01 6.21212013e-02 1.32882997e-01
      1.81743994e-01 3.86954010e-01 3.63166988e-01 3.86954010e-01
      3.86954010e-01 3.86954010e-01 3.86954010e-01 2.68510997e-01
      1.02206998e-01</_>
    <_>
      1.30559998e-02 1.16034001e-01 2.19437003e-01 6.08210005e-02
      1.09596997e-01 6.74767971e-01 6.74767971e-01 7.08018988e-02
      1.13375997e-02 3.71057987e-01 3.71057987e-01 3.71057987e-01
      3.71057987e-01 3.71057987e-01 3.71057987e-01 1.41137004e-01
      1.12182997e-01 3.71057987e-01 3.75052005e-01 4.21416014e-02
      9.91526991e-02 3.75052005e-01 3.75052005e-01 3.75052005e-01
      3.75052005e-01 3.75052005e-01 3.75052005e-01 4.25781012e-02
      1.94383994e-01 3.52279007e-01 1.06305003e-01 9.28058028e-02
      4.01127994e-01 5.66917002e-01 5.66917002e-01 8.38586986e-02
      3.81345004e-01 3.81345004e-01 3.81345004e-01 3.81345004e-01
      3.81345004e-01 3.35538000e-01 7.19235018e-02 7.67318010e-02
      3.81345004e-01 4.00736988e-01 7.47527033e-02 9.90025997e-02
      1.30638003e-01 4.00736988e-01 4.00736988e-01 4.00736988e-01
      4.00736988e-01 4.00736988e-01 4.34877984e-02 1.21478997e-01
      1.60641000e-01 1.03788003e-01 4.74714011e-01 3.66627991e-01
      4.74714011e-01 4.74714011e-01 3.62706989e-01 3.76100987e-01
      3.76100987e-01 3.76100987e-01 3.76100987e-01 3.76100987e-01
      3.76100987e-01 7.12559968e-02 2.35257998e-01 2.95136988e-01
      3.01829994e-01 3.79635990e-01 1.87739998e-01 1.41200006e-01
      3.79635990e-01 3.79635990e-01 3.79635990e-01 3.64315987e-01
      3.75101000e-01</_>
    <_>
      1.73583999e-01 4.28160012e-01 3.27556998e-01 1.23003997e-01
      4.83262986e-01 4.83262986e-01 4.07036990e-01 6.93894029e-02
      1.47370994e-01 3.89798999e-01 1.77067995e-01 1.85202003e-01
      3.89798999e-01 3.89798999e-01 3.89798999e-01 3.07924002e-01
      2.75536001e-01 3.89798999e-01 4.62208986e-01 7.57832006e-02
      5.35377979e-01 5.35377979e-01 2.71926999e-01 1.03404000e-01
      1.12305000e-01 4.28057015e-02 3.20832014e-01 2.96703011e-01
      3.64861995e-01 3.64861995e-01 3.22733998e-01 3.64861995e-01
      3.64861995e-01 3.64861995e-01 1.30914003e-01 3.48430991e-01
      3.86485994e-01 1.15748003e-01 1.34066999e-01 2.61795998e-01
      3.86485994e-01 3.86485994e-01 3.86485994e-01 3.86485994e-01
      3.86485994e-01 6.14510998e-02 4.30444002e-01 4.30444002e-01
      4.30444002e-01 1.80974007e-01 4.01948005e-01 4.11049992e-01
      2.43578002e-01 1.16072997e-01 3.70945990e-01 3.70945990e-01
      3.70945990e-01 3.70945990e-01 3.12184006e-01 1.06524996e-01
      2.74850011e-01 3.70945990e-01 3.52052003e-01 3.75901997e-01
      2.24470004e-01 2.19531998e-01 2.23270997e-01 3.75901997e-01
      3.75901997e-01 3.75901997e-01 3.75901997e-01 3.75901997e-01
      4.23577011e-01 4.23577011e-01 4.23577011e-01 3.07319999e-01
      7.75206983e-02 2.01551005e-01 4.22315001e-01 2.96370000e-01
      2.24169001e-01</_>
    <_>
      1.67742997e-01 2.33569995e-01 3.03306997e-01 1.45691007e-01
      5.12899995e-01 5.12899995e-01 5.12899995e-01 2.94668004e-02
      9.43168998e-02 3.24723005e-01 2.51365006e-01 2.04294994e-01
      3.96194994e-01 3.96194994e-01 3.96194994e-01 2.66454995e-01
      2.94609010e-01 3.96194994e-01 7.03900978e-02 7.17077032e-02
      3.45257014e-01 5.78297019e-01 5.65253019e-01 1.41560003e-01
      3.31674010e-01 2.41734996e-01 1.50019005e-01 1.59381002e-01
      4.12672013e-01 4.12672013e-01 2.93366998e-01 1.75656006e-01
      4.12672013e-01 4.12672013e-01 3.61214995e-01 2.04664007e-01
      3.65882009e-01 1.92522004e-01 3.51301998e-01 3.65882009e-01
      3.65882009e-01 3.65882009e-01 3.08151007e-01 2.67509013e-01
      3.65882009e-01 1.87499002e-01 3.46659005e-01 3.46659005e-01
      3.46659005e-01 3.46659005e-01 3.46659005e-01 3.46659005e-01
      3.46659005e-01 3.46659005e-01 1.81780994e-01 4.12968993e-01
      4.15412992e-01 2.98660994e-01 1.05472997e-01 4.08372991e-02
      4.15412992e-01 4.15412992e-01 4.15412992e-01 3.43153000e-01
      2.97897011e-01 3.43153000e-01 3.43153000e-01 3.43153000e-01
      3.43153000e-01 3.43153000e-01 2.89054990e-01 3.43153000e-01
      3.81366998e-01 3.81366998e-01 3.81366998e-01 1.74551994e-01
      2.16161996e-01 3.81366998e-01 3.81366998e-01 3.81366998e-01
      2.15290993e-01</_>
    <_>
      2.28104994e-01 3.93815011e-01 3.93815011e-01 3.24425012e-01
      3.93815011e-01 3.93815011e-01 3.93815011e-01 8.51968974e-02
      2.36800998e-01 3.55477989e-01 2.37526998e-01 2.35538006e-01
      3.55477989e-01 3.55477989e-01 3.55477989e-01 3.55477989e-01
      3.55477989e-01 3.55477989e-01 4.73124012e-02 1.14885002e-01
      5.97805023e-01 6.14537001e-01 3.07312995e-01 1.81081995e-01
      2.97737002e-01 1.34543002e-01 9.70527977e-02 3.49716008e-01
      3.49716008e-01 3.49716008e-01 3.47709000e-01 3.49716008e-01
      3.49716008e-01 3.49716008e-01 2.03780994e-01 3.16655010e-01
      4.23875004e-01 1.27572000e-01 1.51896998e-01 1.70564994e-01
      4.23875004e-01 4.23875004e-01 3.04374993e-01 3.40591997e-01
      4.23875004e-01 2.21782997e-01 3.76284003e-01 3.76284003e-01
      3.76284003e-01 2.03520998e-01 3.41414005e-01 3.76284003e-01
      3.76284003e-01 2.84815013e-01 3.67352009e-01 3.67352009e-01
      3.67352009e-01 3.67352009e-01 3.48623991e-01 7.80913979e-02
      2.42916003e-01 3.67352009e-01 3.67352009e-01 3.95709991e-01
      2.15549007e-01 1.57621995e-01 2.31939003e-01 3.95709991e-01
      3.95709991e-01 3.95709991e-01 2.96667010e-01 3.95709991e-01
      5.05321026e-01 5.05321026e-01 4.71107990e-01 1.36135995e-01
      1.12021998e-01 2.26943001e-01 3.25035989e-01 2.20593005e-01
      1.59425005e-01</_>
    <_>
      9.06156972e-02 1.72397003e-01 1.62691996e-01 6.79631010e-02
      2.46518999e-01 6.50018990e-01 6.50018990e-01 1.23645000e-01
      5.81506006e-02 3.61858994e-01 3.10497999e-01 2.53235012e-01
      3.85502011e-01 3.85502011e-01 3.85502011e-01 2.22378001e-01
      2.46518001e-01 3.85502011e-01 1.16007999e-01 1.18395001e-01
      3.86323005e-01 5.33454001e-01 5.33454001e-01 2.54043996e-01
      2.66849995e-01 2.42897004e-01 2.32506007e-01 4.57702018e-02
      1.32227004e-01 2.33273998e-01 7.33435005e-02 3.36862989e-02
      5.47955990e-01 5.47955990e-01 5.47955990e-01 1.15108997e-01
      3.54442000e-01 3.54442000e-01 3.54442000e-01 3.54442000e-01
      3.54442000e-01 3.54442000e-01 2.29782000e-01 2.53486007e-01
      3.54442000e-01 3.32778990e-01 3.32778990e-01 3.32778990e-01
      3.32778990e-01 3.32778990e-01 3.32778990e-01 3.32778990e-01
      3.32778990e-01 3.32778990e-01 7.03819990e-02 7.62548000e-02
      1.60739005e-01 1.02376997e-01 1.12668000e-01 5.71664982e-02
      5.57192028e-01 5.57192028e-01 5.57192028e-01 3.69747996e-01
      2.15939999e-01 3.18771005e-01 3.50039005e-01 3.69747996e-01
      3.69747996e-01 2.04852000e-01 3.69747996e-01 3.69747996e-01
      4.64599013e-01 4.64599013e-01 1.53499007e-01 9.53131020e-02
      4.64599013e-01 3.16303015e-01 2.28282005e-01 1.50591999e-01
      3.74590009e-01</_>
    <_>
      1.91910997e-01 2.48577997e-01 2.62502998e-01 1.59153998e-01
      5.08099020e-01 5.08099020e-01 5.08099020e-01 9.72556993e-02
      1.34588003e-01 3.92358989e-01 2.05948994e-01 1.87662005e-01
      3.92358989e-01 3.92358989e-01 3.92358989e-01 2.14524999e-01
      3.20466012e-01 3.92358989e-01 8.28158036e-02 1.63279995e-01
      4.99208987e-01 5.55566013e-01 3.52616012e-01 4.30794001e-01
      2.58087993e-01 1.16554998e-01 1.13816999e-01 2.80075997e-01
      3.47039014e-01 3.82036000e-01 2.50919014e-01 2.60383010e-01
      3.82036000e-01 3.82036000e-01 3.82036000e-01 2.87645996e-01
      4.16788995e-01 2.30257004e-01 2.19947994e-01 2.43799999e-01
      4.16788995e-01 4.16788995e-01 2.90749997e-01 2.35826999e-01
      4.16788995e-01 3.33777010e-01 3.33777010e-01 3.33777010e-01
      3.33777010e-01 3.33777010e-01 3.33777010e-01 3.33777010e-01
      3.33777010e-01 3.24669987e-01 2.78786987e-01 1.47083998e-01
      2.94391990e-01 2.19079003e-01 3.70561004e-01 1.38273999e-01
      3.16794008e-01 5.02083004e-01 5.02083004e-01 4.25770015e-01
      3.10440987e-01 1.56724006e-01 2.27094993e-01 4.25770015e-01
      4.25770015e-01 2.61115998e-01 1.73023999e-01 4.25770015e-01
      5.22697985e-01 5.22697985e-01 2.09152997e-01 9.76101980e-02
      4.99045998e-01 1.46145001e-01 1.30917996e-01 1.87468007e-01
      2.69057006e-01</_>
    <_>
      3.53074998e-01 3.53074998e-01 3.53074998e-01 3.53074998e-01
      3.53074998e-01 3.53074998e-01 3.21267992e-01 2.45637000e-01
      2.91460991e-01 3.64001006e-01 2.33481005e-01 2.27033004e-01
      3.64001006e-01 3.64001006e-01 3.64001006e-01 3.08748990e-01
      3.64001006e-01 3.64001006e-01 1.09715000e-01 1.77169994e-01
      5.11295974e-01 6.56397998e-01 2.51497000e-01 2.24241003e-01
      3.06019992e-01 1.80790007e-01 1.33681998e-01 3.67325991e-01
      3.67325991e-01 3.67325991e-01 3.67325991e-01 3.67325991e-01
      3.67325991e-01 1.67338997e-01 1.54363006e-01 3.67325991e-01
      4.62532997e-01 1.14327997e-01 1.08465001e-01 1.30135998e-01
      4.62532997e-01 4.26205009e-01 2.41888002e-01 2.67652988e-01
      4.62532997e-01 3.39632004e-01 3.39632004e-01 3.39632004e-01
      3.39632004e-01 3.39632004e-01 2.98157007e-01 3.39632004e-01
      3.39632004e-01 3.16637009e-01 3.68357986e-01 3.68357986e-01
      3.68357986e-01 3.68357986e-01 3.68357986e-01 1.64274007e-01
      1.39706999e-01 3.68357986e-01 3.68357986e-01 4.29996014e-01
      2.02426001e-01 1.32855996e-01 1.42736003e-01 4.29996014e-01
      4.29996014e-01 4.01095986e-01 1.27434999e-01 4.29996014e-01
      5.59337020e-01 5.59337020e-01 2.56630987e-01 9.25567001e-02
      2.72821009e-01 2.69380003e-01 2.95403004e-01 1.43770993e-01
      1.98348999e-01</_>
    <_>
      1.51311994e-01 4.23947006e-01 4.71459001e-01 2.37134993e-01
      1.78055003e-01 4.71459001e-01 4.71459001e-01 1.57821000e-01
      1.14009999e-01 3.37702006e-01 2.90315986e-01 3.37702006e-01
      3.37702006e-01 3.37702006e-01 3.37702006e-01 3.37702006e-01
      3.37702006e-01 3.37702006e-01 2.39894003e-01 1.98201999e-01
      2.99784988e-01 3.97453994e-01 3.97453994e-01 3.97453994e-01
      3.97453994e-01 2.69169986e-01 3.24027002e-01 3.40449005e-01
      3.59452009e-01 3.59452009e-01 3.04708987e-01 3.39424998e-01
      3.33213001e-01 3.59452009e-01 3.59452009e-01 2.11165994e-01
      4.17654008e-01 3.16976011e-01 2.92863011e-01 1.58436000e-01
      4.17654008e-01 4.17654008e-01 2.42064998e-01 1.67778000e-01
      4.17654008e-01 3.48594993e-01 3.48594993e-01 3.48594993e-01
      1.56108007e-01 3.48594993e-01 3.48594993e-01 3.48594993e-01
      3.48594993e-01 3.48594993e-01 2.07934007e-01 3.38564992e-01
      3.77810001e-01 3.77810001e-01 2.07232997e-01 2.85860986e-01
      3.77810001e-01 3.77810001e-01 3.77810001e-01 3.59432012e-01
      3.59432012e-01 3.59432012e-01 2.77547002e-01 3.59432012e-01
      3.59432012e-01 3.59432012e-01 1.22624002e-01 3.59432012e-01
      3.81128013e-01 3.81128013e-01 2.71571010e-01 8.23246017e-02
      3.81128013e-01 3.81128013e-01 3.81128013e-01 2.10026994e-01
      3.81128013e-01</_>
    <_>
      2.68840998e-01 4.00171995e-01 4.00171995e-01 3.16231012e-01
      3.65139991e-01 4.00171995e-01 4.00171995e-01 1.74620003e-01
      1.39126003e-01 3.46192002e-01 3.19211990e-01 2.71688998e-01
      3.46192002e-01 3.46192002e-01 3.46192002e-01 3.46192002e-01
      3.18962008e-01 3.46192002e-01 1.97483003e-01 2.24104002e-01
      3.80270988e-01 4.73082006e-01 3.18708986e-01 3.78724009e-01
      4.48848009e-01 1.99608997e-01 2.26549998e-01 3.50093991e-01
      3.50093991e-01 3.50093991e-01 2.87285000e-01 3.50093991e-01
      3.50093991e-01 3.50093991e-01 3.50093991e-01 2.36656994e-01
      4.30617988e-01 3.15674990e-01 2.02059001e-01 1.45168006e-01
      4.30617988e-01 4.30617988e-01 2.48885006e-01 1.74574003e-01
      4.30617988e-01 3.38645011e-01 3.38645011e-01 3.38645011e-01
      2.81376004e-01 3.38645011e-01 3.38645011e-01 3.38645011e-01
      3.38645011e-01 3.38645011e-01 2.35589996e-01 4.30281997e-01
      4.51855004e-01 2.61936009e-01 1.84885994e-01 8.37477967e-02
      1.80322006e-01 4.51855004e-01 4.51855004e-01 3.84543002e-01
      3.84543002e-01 2.40802005e-01 1.95950001e-01 3.84543002e-01
      3.84543002e-01 3.84543002e-01 1.11970000e-01 3.84543002e-01
      4.29251999e-01 4.29251999e-01 1.12635002e-01 9.65830982e-02
      3.32390994e-01 4.29251999e-01 4.29251999e-01 1.77956000e-01
      3.07435989e-01</_>
    <_>
      4.22244012e-01 4.22244012e-01 4.22244012e-01 1.23080999e-01
      2.12317005e-01 4.22244012e-01 4.22244012e-01 7.79794008e-02
      1.94998994e-01 3.34935009e-01 3.14965993e-01 3.34935009e-01
      3.34935009e-01 3.34935009e-01 3.34935009e-01 3.34935009e-01
      3.34935009e-01 3.34935009e-01 1.14095002e-01 3.91723990e-01
      4.68557000e-01 4.68557000e-01 2.48045996e-01 1.74455002e-01
      4.68557000e-01 2.68665999e-01 7.79348984e-02 7.68622011e-02
      4.05182004e-01 4.05182004e-01 4.05182004e-01 2.86677003e-01
      4.05182004e-01 4.05182004e-01 2.59837002e-01 1.39577001e-01
      3.43526006e-01 2.34447002e-01 3.43526006e-01 3.39897007e-01
      3.43526006e-01 3.43526006e-01 3.43526006e-01 3.43526006e-01
      3.43526006e-01 1.43044993e-01 3.96726996e-01 3.96726996e-01
      3.96726996e-01 2.82238990e-01 2.62840003e-01 3.96726996e-01
      3.96726996e-01 1.99676007e-01 1.20001003e-01 3.97814006e-01
      3.97814006e-01 3.97814006e-01 2.95884997e-01 1.52009994e-01
      2.82292992e-01 3.97814006e-01 3.97814006e-01 3.34666997e-01
      3.34666997e-01 3.34666997e-01 3.34666997e-01 3.34666997e-01
      3.34666997e-01 3.34666997e-01 3.17234993e-01 3.34666997e-01
      3.76872003e-01 3.76872003e-01 3.04167986e-01 3.49514008e-01
      3.76872003e-01 3.76872003e-01 3.76872003e-01 2.48769000e-01
      9.74993035e-02</_>
    <_>
      4.38196003e-01 4.38196003e-01 4.38196003e-01 1.22230001e-01
      2.63291001e-01 4.38196003e-01 3.67675006e-01 5.36726005e-02
      7.23263025e-02 3.33673000e-01 3.25520009e-01 3.33673000e-01
      3.33673000e-01 3.33673000e-01 3.33673000e-01 3.33673000e-01
      3.33673000e-01 3.33673000e-01 9.90294963e-02 2.13268995e-01
      3.86023998e-01 3.86023998e-01 3.86023998e-01 3.86023998e-01
      3.86023998e-01 3.86023998e-01 2.16251001e-01 6.24927990e-02
      4.33362991e-01 4.33362991e-01 3.69702995e-01 2.17860997e-01
      4.33362991e-01 4.33362991e-01 2.31354997e-01 5.37032001e-02
      3.44536006e-01 2.16598004e-01 3.44536006e-01 3.44536006e-01
      3.44536006e-01 3.44536006e-01 3.44536006e-01 3.44536006e-01
      3.44536006e-01 2.61945993e-01 3.40584010e-01 3.40584010e-01
      3.40584010e-01 3.40584010e-01 3.40584010e-01 3.40584010e-01
      3.40584010e-01 3.40584010e-01 7.53107965e-02 3.60529006e-01
      3.98456991e-01 3.98456991e-01 2.04061002e-01 1.57747999e-01
      3.98456991e-01 3.98456991e-01 3.98456991e-01 3.36378992e-01
      3.36378992e-01 3.36378992e-01 3.36378992e-01 3.36378992e-01
      3.36378992e-01 3.36378992e-01 3.02381009e-01 3.36378992e-01
      3.70429993e-01 3.70429993e-01 2.15231001e-01 2.26836994e-01
      3.70429993e-01 3.70429993e-01 3.70429993e-01 3.70429993e-01
      2.74244994e-01</_>
    <_>
      4.18033987e-01 4.18033987e-01 3.64652991e-01 1.73564002e-01
      2.40079001e-01 4.18033987e-01 4.18033987e-01 1.99226007e-01
      1.90755993e-01 3.50163996e-01 2.98453987e-01 3.49471003e-01
      3.50163996e-01 3.50163996e-01 3.50163996e-01 2.22724006e-01
      3.50163996e-01 3.50163996e-01 2.69567013e-01 3.47193986e-01
      3.70665014e-01 3.70665014e-01 2.94209987e-01 1.71938002e-01
      3.70665014e-01 3.70665014e-01 3.70665014e-01 2.31812999e-01
      3.93934011e-01 3.93934011e-01 2.63866991e-01 2.35535994e-01
      3.93934011e-01 3.93934011e-01 3.93934011e-01 2.03237996e-01
      3.99535000e-01 1.80364996e-01 3.22748005e-01 3.13196987e-01
      3.99535000e-01 3.99535000e-01 2.16858998e-01 2.75092989e-01
      3.99535000e-01 3.34363997e-01 3.34363997e-01 3.34363997e-01
      3.34363997e-01 3.34363997e-01 3.19790989e-01 3.34363997e-01
      3.34363997e-01 3.34363997e-01 1.47851005e-01 1.79257005e-01
      4.16350007e-01 4.16350007e-01 2.31830001e-01 1.46165997e-01
      4.16350007e-01 4.16350007e-01 4.16350007e-01 3.57621014e-01
      2.79727995e-01 3.57621014e-01 3.57621014e-01 3.57621014e-01
      3.57621014e-01 3.15472007e-01 2.26499006e-01 3.57621014e-01
      3.59423995e-01 3.59423995e-01 3.59423995e-01 2.90064991e-01
      3.59423995e-01 3.59423995e-01 3.59423995e-01 1.77842006e-01
      3.24855000e-01</_>
    <_>
      3.49056989e-01 3.49056989e-01 3.49056989e-01 3.49056989e-01
      2.95399994e-01 3.49056989e-01 3.49056989e-01 2.97906995e-01
      2.99093992e-01 3.59477997e-01 2.09509999e-01 3.59477997e-01
      3.59477997e-01 3.59477997e-01 2.18961999e-01 3.59477997e-01
      3.59477997e-01 3.59477997e-01 1.78112999e-01 1.64043993e-01
      4.08412009e-01 4.08412009e-01 2.38808006e-01 2.15063006e-01
      4.08412009e-01 4.08412009e-01 4.08412009e-01 3.49958003e-01
      3.49958003e-01 3.49958003e-01 2.98896998e-01 3.49958003e-01
      2.61249989e-01 3.49958003e-01 3.22629005e-01 3.49958003e-01
      4.87922013e-01 1.12547003e-01 2.05621004e-01 2.88044006e-01
      4.87922013e-01 2.07035005e-01 2.41895005e-01 2.04031006e-01
      4.87922013e-01 3.35013002e-01 3.35013002e-01 3.35013002e-01
      3.35013002e-01 3.35013002e-01 3.14301014e-01 3.35013002e-01
      3.35013002e-01 3.35013002e-01 3.61440003e-01 3.61440003e-01
      3.61440003e-01 3.61440003e-01 3.61440003e-01 1.47359997e-01
      2.45366007e-01 3.61440003e-01 3.61440003e-01 4.38879013e-01
      1.53926998e-01 2.05314994e-01 3.12929004e-01 4.38879013e-01
      4.05281007e-01 2.56258994e-01 1.55168995e-01 4.38879013e-01
      3.44655007e-01 3.44655007e-01 3.44655007e-01 2.38968000e-01
      3.44655007e-01 3.44655007e-01 3.44655007e-01 3.28547001e-01
      3.44655007e-01</_>
    <_>
      3.44969988e-01 3.44969988e-01 3.44969988e-01 3.44969988e-01
      2.81390995e-01 3.44969988e-01 3.44969988e-01 3.29732001e-01
      3.07610005e-01 3.61277014e-01 1.80858001e-01 3.61277014e-01
      3.61277014e-01 3.61277014e-01 2.30382994e-01 3.57042015e-01
      3.61277014e-01 3.61277014e-01 2.18865007e-01 1.58702001e-01
      3.96196008e-01 3.96196008e-01 2.66220003e-01 2.59274006e-01
      3.96196008e-01 3.96196008e-01 3.96196008e-01 3.48558009e-01
      3.48558009e-01 3.48558009e-01 3.15454006e-01 3.48558009e-01
      2.94957012e-01 3.48558009e-01 2.84691989e-01 3.48558009e-01
      4.89409000e-01 1.12765998e-01 1.90275997e-01 3.06638986e-01
      4.89409000e-01 2.20411003e-01 2.27106005e-01 1.82875007e-01
      4.89409000e-01 3.32778990e-01 3.32778990e-01 3.32778990e-01
      3.32778990e-01 3.32778990e-01 3.32778990e-01 3.32778990e-01
      3.32778990e-01 3.32778990e-01 3.75032008e-01 3.07357997e-01
      3.75032008e-01 3.75032008e-01 3.75032008e-01 1.45650998e-01
      1.91510007e-01 3.75032008e-01 3.75032008e-01 4.33277011e-01
      1.56675994e-01 1.80445001e-01 3.33117992e-01 4.33277011e-01
      4.33277011e-01 2.20755994e-01 1.67178005e-01 4.33277011e-01
      3.52315992e-01 3.52315992e-01 2.74958014e-01 2.28020996e-01
      3.52315992e-01 3.52315992e-01 3.52315992e-01 3.52315992e-01
      3.52315992e-01</_>
    <_>
      3.96899998e-01 3.96899998e-01 3.96899998e-01 2.32002005e-01
      3.01578999e-01 3.96899998e-01 3.96899998e-01 1.73573002e-01
      1.82988003e-01 3.39116007e-01 2.88273990e-01 3.39116007e-01
      3.39116007e-01 3.39116007e-01 3.39116007e-01 3.29409003e-01
      3.39116007e-01 3.39116007e-01 2.94600010e-01 2.68231004e-01
      3.86519015e-01 3.86519015e-01 2.74951011e-01 2.21631005e-01
      3.39258999e-01 3.86519015e-01 3.86519015e-01 3.01697999e-01
      3.74803990e-01 3.74803990e-01 2.57874995e-01 2.86433995e-01
      3.74803990e-01 3.74803990e-01 3.58678013e-01 2.57155001e-01
      3.79440993e-01 2.00541005e-01 3.16462010e-01 2.58468986e-01
      3.79440993e-01 3.79440993e-01 3.50364000e-01 3.00633997e-01
      3.79440993e-01 2.02179998e-01 3.58808994e-01 3.58808994e-01
      3.58808994e-01 3.58808994e-01 2.39940003e-01 3.58808994e-01
      3.58808994e-01 3.54263008e-01 2.38046005e-01 3.18370014e-01
      4.14952010e-01 4.14952010e-01 2.98878014e-01 7.44419023e-02
      2.32852995e-01 4.14952010e-01 4.14952010e-01 3.49570006e-01
      2.59941995e-01 3.49570006e-01 3.49570006e-01 3.49570006e-01
      3.49570006e-01 3.49570006e-01 2.71189004e-01 3.49570006e-01
      3.85405004e-01 3.85405004e-01 3.67110014e-01 2.37816006e-01
      3.85405004e-01 3.85405004e-01 3.85405004e-01 1.83072001e-01
      1.69186994e-01</_>
    <_>
      4.64488000e-01 4.64488000e-01 4.29401010e-01 1.44171000e-01
      2.40900993e-01 4.64488000e-01 2.87223995e-01 2.42708009e-02
      4.26953994e-02 3.71528000e-01 3.71528000e-01 3.71528000e-01
      2.29170993e-01 3.71528000e-01 3.71528000e-01 2.72006989e-01
      2.03920007e-01 3.71528000e-01 3.59356999e-01 5.70064001e-02
      7.65789971e-02 2.16431007e-01 4.02711987e-01 4.02711987e-01
      4.02711987e-01 4.02711987e-01 4.02711987e-01 1.95231006e-01
      4.33311999e-01 4.33311999e-01 1.02061003e-01 6.37589991e-02
      4.33311999e-01 4.33311999e-01 4.33311999e-01 6.54032007e-02
      2.61171997e-01 4.02260989e-01 4.02260989e-01 2.12017000e-01
      1.82028994e-01 3.28312010e-01 4.02260989e-01 4.02260989e-01
      3.07637990e-01 2.73231000e-01 8.84708986e-02 1.30576000e-01
      2.13264003e-01 2.79256999e-01 4.85448003e-01 4.85448003e-01
      4.85448003e-01 2.55293012e-01 8.51337016e-02 3.85259986e-01
      4.35674012e-01 4.35674012e-01 1.01659998e-01 5.20723984e-02
      3.51871014e-01 4.35674012e-01 3.65622014e-01 1.98394999e-01
      3.90148014e-01 3.90148014e-01 3.36668998e-01 2.81489998e-01
      3.90148014e-01 3.90148014e-01 3.07489008e-01 2.46467993e-01
      4.60631013e-01 2.90827990e-01 1.16320997e-01 7.80896991e-02
      1.18378997e-01 4.95074987e-01 4.95074987e-01 3.86943996e-01
      1.57251000e-01</_>
    <_>
      5.06848991e-01 5.06848991e-01 3.55589986e-01 7.05657974e-02
      1.11971997e-01 4.57980990e-01 3.31279993e-01 6.17027991e-02
      1.17833003e-01 3.77225995e-01 3.77225995e-01 3.77225995e-01
      2.15893000e-01 2.53495991e-01 3.77225995e-01 3.77225995e-01
      3.13464999e-01 2.74960995e-01 3.59200001e-01 1.87374994e-01
      2.41105005e-01 3.59200001e-01 3.59200001e-01 3.59200001e-01
      3.59200001e-01 3.59200001e-01 3.59200001e-01 3.82357001e-01
      3.82357001e-01 3.82357001e-01 3.52414995e-01 1.38356000e-01
      2.94970006e-01 3.82357001e-01 3.82357001e-01 1.86678007e-01
      3.62300009e-01 3.62300009e-01 3.62300009e-01 3.62300009e-01
      3.62300009e-01 2.02627003e-01 3.06897998e-01 2.71239996e-01
      3.62300009e-01 3.89126003e-01 1.42715007e-01 1.36686996e-01
      2.20330998e-01 3.89126003e-01 3.89126003e-01 3.89126003e-01
      3.89126003e-01 3.89126003e-01 7.49405995e-02 2.43092999e-01
      5.18697023e-01 5.18697023e-01 1.11878999e-01 6.01129010e-02
      2.42846996e-01 5.18697023e-01 2.18778998e-01 3.52463990e-01
      3.52463990e-01 3.52463990e-01 3.52463990e-01 3.52463990e-01
      3.52463990e-01 2.78252006e-01 2.22343996e-01 3.52463990e-01
      4.03176010e-01 3.17952007e-01 1.10633999e-01 1.08551003e-01
      4.03176010e-01 4.03176010e-01 4.03176010e-01 3.61041009e-01
      3.00502986e-01</_>
    <_>
      5.42282999e-01 5.42282999e-01 3.74886990e-01 1.13147996e-01
      1.63534001e-01 2.94941008e-01 2.86181003e-01 1.65270999e-01
      1.73642993e-01 3.40586990e-01 3.40586990e-01 3.40586990e-01
      3.40586990e-01 3.21750998e-01 2.85506994e-01 3.40586990e-01
      3.39946002e-01 3.40586990e-01 3.63314003e-01 1.78638995e-01
      2.01190993e-01 3.63314003e-01 3.63314003e-01 3.63314003e-01
      3.63314003e-01 3.63314003e-01 3.63314003e-01 2.94142991e-01
      4.11269009e-01 4.11269009e-01 2.95563012e-01 1.66057006e-01
      3.31595004e-01 4.11269009e-01 4.11269009e-01 8.89637023e-02
      3.44594002e-01 3.44594002e-01 3.44594002e-01 3.44594002e-01
      3.44594002e-01 3.44594002e-01 3.01968992e-01 2.72316009e-01
      3.44594002e-01 3.75957996e-01 4.98165004e-02 7.48801008e-02
      1.84672996e-01 4.03097004e-01 4.03097004e-01 4.03097004e-01
      4.03097004e-01 4.03097004e-01 8.85801986e-02 4.11431998e-01
      4.22461003e-01 4.22461003e-01 7.29279965e-02 9.45271999e-02
      4.22461003e-01 4.22461003e-01 3.00846994e-01 3.37123007e-01
      3.37123007e-01 3.37123007e-01 3.37123007e-01 3.37123007e-01
      3.37123007e-01 3.11711997e-01 3.22342992e-01 3.37123007e-01
      3.08955997e-01 1.55094996e-01 3.13284010e-01 2.51906991e-01
      3.20488006e-01 4.10889000e-01 4.10889000e-01 4.10889000e-01
      3.24932992e-01</_>
    <_>
      4.16177988e-01 4.16177988e-01 4.16177988e-01 2.41630003e-01
      2.91278988e-01 4.16177988e-01 3.22099000e-01 9.08052027e-02
      2.18643993e-01 3.57228994e-01 3.42550993e-01 2.81580001e-01
      3.57228994e-01 3.57228994e-01 3.57228994e-01 2.81722993e-01
      2.87001997e-01 3.57228994e-01 3.40952009e-01 5.95895983e-02
      1.77258000e-01 2.79347986e-01 3.91620010e-01 3.91620010e-01
      3.91620010e-01 3.91620010e-01 3.91620010e-01 3.19330007e-01
      4.14119989e-01 4.14119989e-01 4.14119989e-01 1.52599007e-01
      2.25017995e-01 4.14119989e-01 3.14200014e-01 1.87802002e-01
      3.37383002e-01 3.37383002e-01 3.37383002e-01 2.93276995e-01
      3.37383002e-01 3.37383002e-01 3.37383002e-01 3.37383002e-01
      3.37383002e-01 1.69299006e-01 2.33704999e-01 4.00409997e-01
      2.60163993e-01 3.57302994e-01 4.01450992e-01 4.01450992e-01
      4.01450992e-01 2.71185011e-01 3.77169013e-01 3.82160008e-01
      3.82160008e-01 3.82160008e-01 2.22951993e-01 1.13107003e-01
      2.47370005e-01 3.82160008e-01 3.82160008e-01 3.38683009e-01
      3.35869998e-01 2.84366995e-01 3.38683009e-01 3.38683009e-01
      3.38683009e-01 3.38683009e-01 3.38683009e-01 3.38683009e-01
      3.93974990e-01 3.93974990e-01 1.87243000e-01 9.37130004e-02
      3.93974990e-01 3.93974990e-01 3.93974990e-01 3.93974990e-01
      1.44657001e-01</_>
    <_>
      4.16824996e-01 4.16824996e-01 4.16824996e-01 2.35943004e-01
      2.39852995e-01 4.16824996e-01 3.69996995e-01 1.46357998e-01
      1.71308994e-01 3.57412994e-01 2.76757002e-01 2.10718006e-01
      3.57412994e-01 3.57412994e-01 3.57412994e-01 3.30101997e-01
      3.57412994e-01 3.57412994e-01 2.22672999e-01 1.18548997e-01
      3.87495995e-01 3.87495995e-01 2.88168013e-01 3.14141989e-01
      3.87495995e-01 3.87495995e-01 3.87495995e-01 2.49317005e-01
      3.91386986e-01 3.91386986e-01 3.91386986e-01 2.19987005e-01
      2.32259005e-01 3.91386986e-01 3.91386986e-01 2.56267011e-01
      3.47440004e-01 3.00931007e-01 2.46916994e-01 3.47440004e-01
      3.47440004e-01 3.47440004e-01 3.47440004e-01 3.47440004e-01
      3.47440004e-01 2.16411993e-01 3.50012988e-01 3.50012988e-01
      3.03485006e-01 3.50012988e-01 3.50012988e-01 3.50012988e-01
      3.50012988e-01 3.50012988e-01 3.70095998e-01 3.70095998e-01
      3.70095998e-01 3.70095998e-01 3.43235999e-01 1.27159998e-01
      2.01234996e-01 3.70095998e-01 3.70095998e-01 3.66259992e-01
      2.68211007e-01 2.18273997e-01 2.68106997e-01 3.66259992e-01
      3.66259992e-01 3.66259992e-01 3.66259992e-01 3.66259992e-01
      4.15935993e-01 4.15935993e-01 2.53046989e-01 1.00551002e-01
      2.66862988e-01 4.15935993e-01 4.15935993e-01 3.85066986e-01
      1.00988999e-01</_>
    <_>
      4.62933004e-01 4.62933004e-01 3.76462013e-01 1.09856002e-01
      1.47225007e-01 4.62933004e-01 3.53239000e-01 1.39303997e-01
      1.81119993e-01 3.32778990e-01 3.32778990e-01 3.32778990e-01
      3.32778990e-01 3.32778990e-01 3.32778990e-01 3.32778990e-01
      3.32778990e-01 3.32778990e-01 2.54339993e-01 1.59915999e-01
      3.28024000e-01 3.73225987e-01 3.19249004e-01 3.73225987e-01
      3.73225987e-01 3.73225987e-01 3.73225987e-01 3.39354992e-01
      3.51978987e-01 3.51978987e-01 2.34266996e-01 3.51978987e-01
      3.51978987e-01 3.51978987e-01 3.51978987e-01 2.88282007e-01
      4.17562008e-01 2.30813995e-01 2.51450986e-01 3.39406013e-01
      4.17562008e-01 4.08771992e-01 1.98535994e-01 1.85863003e-01
      4.17562008e-01 2.70581990e-01 1.89457998e-01 3.63783985e-01
      3.05326998e-01 3.63783985e-01 3.63783985e-01 3.63783985e-01
      3.63783985e-01 3.63783985e-01 2.52557993e-01 3.73263001e-01
      3.73263001e-01 3.52099001e-01 3.01328003e-01 1.45209998e-01
      3.73263001e-01 3.73263001e-01 3.73263001e-01 3.96270007e-01
      3.08858007e-01 1.68527007e-01 3.61185998e-01 3.96270007e-01
      3.96270007e-01 2.96678990e-01 1.60163000e-01 3.96270007e-01
      3.56813014e-01 3.56813014e-01 2.65823007e-01 1.85911998e-01
      3.56813014e-01 3.56813014e-01 3.56813014e-01 3.56813014e-01
      3.56813014e-01</_>
    <_>
      3.64401996e-01 3.98817986e-01 3.32697004e-01 1.37942001e-01
      2.57281005e-01 3.98817986e-01 3.98817986e-01 3.98817986e-01
      1.76335007e-01 3.32778990e-01 3.32778990e-01 3.32778990e-01
      3.32778990e-01 3.32778990e-01 3.32778990e-01 3.32778990e-01
      3.32778990e-01 3.32778990e-01 2.32396007e-01 1.64536998e-01
      3.36088985e-01 3.69161010e-01 3.47674012e-01 3.69161010e-01
      3.69161010e-01 3.69161010e-01 3.69161010e-01 3.35397005e-01
      3.47166985e-01 3.47166985e-01 2.95906007e-01 3.47166985e-01
      3.47166985e-01 3.47166985e-01 3.47166985e-01 2.70799011e-01
      4.06654000e-01 2.46492997e-01 2.39225999e-01 3.83403987e-01
      4.06654000e-01 4.06654000e-01 1.85523003e-01 1.87249005e-01
      4.06654000e-01 3.08297992e-01 2.00238004e-01 3.56893986e-01
      2.76549995e-01 3.62596989e-01 3.62596989e-01 3.62596989e-01
      3.62596989e-01 3.62596989e-01 2.76587993e-01 3.97208989e-01
      3.97208989e-01 2.79114991e-01 2.37140998e-01 1.25295997e-01
      3.72276008e-01 3.97208989e-01 3.97208989e-01 3.96443993e-01
      2.97915995e-01 2.05930993e-01 3.30455989e-01 3.96443993e-01
      3.96443993e-01 3.37017000e-01 1.15873002e-01 3.96443993e-01
      3.65195006e-01 3.65195006e-01 2.50782013e-01 1.35496005e-01
      3.65195006e-01 3.65195006e-01 3.65195006e-01 3.38961989e-01
      3.65195006e-01</_>
    <_>
      2.96373993e-01 4.13814008e-01 4.13814008e-01 2.74052992e-02
      9.12275985e-02 4.13814008e-01 4.13814008e-01 4.13814008e-01
      2.06744000e-01 3.11477989e-01 3.50784987e-01 3.50784987e-01
      2.53583014e-01 3.41297001e-01 3.50784987e-01 3.50784987e-01
      3.50784987e-01 3.21617991e-01 2.89249986e-01 1.12512000e-01
      3.93058985e-01 3.93058985e-01 2.35203996e-01 3.93058985e-01
      3.93058985e-01 3.93058985e-01 2.68238008e-01 6.51365966e-02
      4.68544006e-01 4.68544006e-01 1.15589000e-01 2.31880005e-02
      1.05157003e-01 4.68544006e-01 4.68544006e-01 2.96627015e-01
      2.48077005e-01 4.39375013e-01 4.39375013e-01 2.58024007e-01
      5.74732982e-02 2.33192995e-01 4.39375013e-01 4.39375013e-01
      1.93931997e-01 1.57212004e-01 4.49351996e-01 4.49351996e-01
      7.76263997e-02 5.14575988e-02 3.62242997e-01 4.49351996e-01
      4.49351996e-01 1.52429000e-01 1.08754002e-01 2.15829998e-01
      2.41834000e-01 3.44184004e-02 1.23643996e-02 2.52896990e-03
      2.74616987e-01 6.32468998e-01 6.32468998e-01 3.64832014e-01
      3.64832014e-01 3.64832014e-01 1.49323002e-01 2.05772996e-01
      3.64832014e-01 3.64832014e-01 3.64832014e-01 3.64832014e-01
      4.43913013e-01 4.43913013e-01 2.56561995e-01 5.74667007e-02
      1.08047001e-01 4.43913013e-01 4.43913013e-01 1.79362997e-01
      3.07182014e-01</_>
    <_>
      7.67346993e-02 2.62735009e-01 2.36532003e-01 3.07197999e-02
      1.06601000e-01 4.86268014e-01 4.86268014e-01 4.86268014e-01
      3.77626002e-01 2.79987007e-01 3.66434008e-01 3.66434008e-01
      2.89992988e-01 3.66434008e-01 3.66434008e-01 3.66434008e-01
      3.04111987e-01 2.64569014e-01 3.61360013e-01 1.99156001e-01
      3.61360013e-01 3.61360013e-01 3.61360013e-01 3.61360013e-01
      3.61360013e-01 3.00307006e-01 2.88195014e-01 1.86203998e-02
      3.68286014e-01 4.97074991e-01 9.84769035e-03 6.56206980e-02
      4.97074991e-01 4.97074991e-01 3.32127988e-01 5.56101017e-02
      1.94890007e-01 4.47530001e-01 4.47530001e-01 1.69000000e-01
      1.90477997e-01 2.55239010e-01 4.47530001e-01 4.47530001e-01
      1.62554994e-01 7.85162002e-02 1.65246993e-01 4.28018987e-01
      4.28018987e-01 1.76432997e-01 4.28018987e-01 4.28018987e-01
      4.28018987e-01 1.22970000e-01 1.75810009e-02 3.84548992e-01
      4.44335997e-01 1.53353997e-02 2.70779990e-03 1.92981008e-02
      4.80421007e-01 4.80421007e-01 4.32846993e-01 2.11563006e-01
      4.39862996e-01 4.39862996e-01 1.61791995e-01 9.37512964e-02
      3.45725000e-01 4.39862996e-01 4.39862996e-01 1.49793997e-01
      3.25940996e-01 4.39365000e-01 3.12004000e-01 4.72575985e-02
      1.02435000e-01 4.39365000e-01 4.39365000e-01 4.39365000e-01
      8.44713002e-02</_>
    <_>
      2.12890003e-02 1.54351994e-01 2.43496999e-01 4.51349989e-02
      1.94061995e-01 6.59519970e-01 6.59519970e-01 1.44176995e-02
      2.89182994e-03 1.34847999e-01 3.92572999e-01 3.92572999e-01
      3.92572999e-01 3.92572999e-01 3.92572999e-01 3.25372994e-01
      3.05393010e-01 9.05285031e-02 2.13389006e-02 8.82325023e-02
      4.02386010e-01 4.10831988e-01 4.10831988e-01 4.10831988e-01
      4.10831988e-01 3.85087013e-01 4.81444001e-02 3.77570987e-02
      4.30061013e-01 4.45701003e-01 5.32452017e-02 8.78190994e-02
      4.45701003e-01 4.45701003e-01 4.45701003e-01 6.34455010e-02
      1.69414997e-01 4.53465015e-01 4.53465015e-01 2.19492003e-01
      1.68538004e-01 2.31582999e-01 4.53465015e-01 4.53465015e-01
      1.18460998e-01 6.52087033e-02 2.72073001e-01 4.63589996e-01
      3.00669014e-01 1.43769994e-01 3.97978008e-01 4.63589996e-01
      4.63589996e-01 5.37514016e-02 5.00837006e-02 3.87663990e-01
      4.13322002e-01 5.75888008e-02 9.65072960e-03 3.50461993e-03
      4.64370012e-01 4.75688994e-01 4.75688994e-01 1.71173006e-01
      4.13938999e-01 4.13938999e-01 1.99148998e-01 2.49400005e-01
      3.63539994e-01 4.13938999e-01 4.13938999e-01 2.17163995e-01
      3.91133994e-01 4.25595999e-01 3.13795000e-01 1.77487992e-02
      1.09708004e-01 4.25595999e-01 4.25595999e-01 4.25595999e-01
      8.61226991e-02</_>
    <_>
      7.19201006e-03 2.54729986e-01 5.37639976e-01 4.60200012e-02
      2.27109000e-01 5.39732993e-01 5.39732993e-01 6.51630014e-02
      7.01197004e-03 1.70636997e-01 3.66928011e-01 3.66928011e-01
      3.66928011e-01 3.66928011e-01 3.66928011e-01 3.66928011e-01
      3.66923004e-01 1.57380998e-01 6.36954978e-02 1.06678002e-01
      4.19485986e-01 4.19485986e-01 4.19485986e-01 4.19485986e-01
      4.19485986e-01 3.13598007e-01 4.67710011e-02 3.77114005e-02
      4.74184006e-01 4.74184006e-01 3.10376007e-02 1.54630002e-02
      2.87833989e-01 4.74184006e-01 4.74184006e-01 1.01934001e-01
      2.40343004e-01 4.10382003e-01 4.10382003e-01 1.96333006e-01
      1.43942997e-01 2.92567015e-01 4.10382003e-01 4.10382003e-01
      3.45860004e-01 8.75494033e-02 4.67911988e-01 4.67911988e-01
      2.24500999e-01 7.91001022e-02 2.12136999e-01 4.67911988e-01
      4.67911988e-01 1.01176001e-01 9.24986973e-02 3.56849015e-01
      4.45814013e-01 3.71559002e-02 8.84205010e-03 1.58152003e-02
      2.89943010e-01 5.35829008e-01 5.35829008e-01 3.72117996e-01
      3.72117996e-01 3.72117996e-01 9.81448963e-02 1.31709993e-01
      3.72117996e-01 3.72117996e-01 3.72117996e-01 3.72117996e-01
      4.81884986e-01 4.81884986e-01 2.08313003e-01 1.04358997e-02
      3.79997008e-02 2.01708004e-01 4.81884986e-01 3.93462002e-01
      2.41038993e-01</_>
    <_>
      2.93924997e-04 9.53444988e-02 2.72433013e-01 3.17712985e-02
      2.60841012e-01 6.48419023e-01 6.48419023e-01 1.65227000e-02
      4.25272010e-04 6.28558025e-02 2.48290002e-01 4.23366010e-01
      4.12775010e-01 4.23366010e-01 4.23366010e-01 4.23366010e-01
      1.86169997e-01 9.04235989e-02 4.97798994e-02 7.18009025e-02
      4.09658015e-01 4.20480996e-01 4.20480996e-01 4.20480996e-01
      4.20480996e-01 3.18152010e-01 1.09127000e-01 1.58737991e-02
      2.61462003e-01 4.80057001e-01 1.38825001e-02 5.21366000e-02
      4.80057001e-01 4.80057001e-01 4.80057001e-01 4.31387983e-02
      2.44705006e-01 3.84710014e-01 3.84710014e-01 2.45276004e-01
      1.45306006e-01 3.84710014e-01 3.84710014e-01 3.84710014e-01
      3.39105010e-01 8.61485004e-02 2.46757999e-01 4.13686007e-01
      4.13686007e-01 1.32309005e-01 4.13686007e-01 4.13686007e-01
      4.13686007e-01 2.33170003e-01 3.64261009e-02 3.34334999e-01
      3.34378988e-01 2.80763004e-02 7.99859036e-03 9.98197962e-03
      5.38398981e-01 5.38398981e-01 4.34749991e-01 2.90051013e-01
      3.79974991e-01 3.79974991e-01 1.87573999e-01 2.60888010e-01
      3.79974991e-01 3.79974991e-01 3.79974991e-01 2.94829011e-01
      4.08573985e-01 4.08573985e-01 4.08573985e-01 3.25889997e-02
      6.48119003e-02 3.81098002e-01 4.08573985e-01 4.00465012e-01
      1.31591007e-01</_>
    <_>
      3.92416008e-02 2.09034994e-01 3.91249001e-01 2.21891999e-01
      4.98807997e-01 4.98807997e-01 4.98807997e-01 2.59192009e-02
      1.92891005e-02 2.28745997e-01 2.35094994e-01 3.27519000e-01
      4.40871000e-01 4.40871000e-01 4.40871000e-01 3.72316986e-01
      1.72754005e-01 1.70787007e-01 3.36307995e-02 4.08500992e-02
      5.61551988e-01 5.61551988e-01 3.46491992e-01 2.05100000e-01
      3.25365990e-01 2.90271997e-01 9.31024030e-02 9.49712992e-02
      4.57123011e-01 4.57123011e-01 1.64207995e-01 8.89761001e-02
      4.57123011e-01 4.57123011e-01 3.27580988e-01 9.15279016e-02
      3.32778990e-01 3.32778990e-01 3.32778990e-01 3.32778990e-01
      3.32778990e-01 3.32778990e-01 3.32778990e-01 3.32778990e-01
      3.32778990e-01 4.04083990e-02 3.18194002e-01 4.77218986e-01
      4.77218986e-01 1.47962004e-01 2.30759993e-01 4.77218986e-01
      3.52607995e-01 9.83078033e-02 1.33163005e-01 4.45486993e-01
      4.45486993e-01 1.59961000e-01 4.55784984e-02 5.78330010e-02
      4.45486993e-01 4.45486993e-01 3.91119987e-01 2.52371997e-01
      3.65384996e-01 3.65384996e-01 2.72801995e-01 2.39161000e-01
      3.65384996e-01 3.65384996e-01 3.65384996e-01 3.65384996e-01
      4.70443010e-01 4.70443010e-01 4.70443010e-01 4.80944999e-02
      3.47822011e-02 1.81024998e-01 4.70443010e-01 2.54938990e-01
      9.35193002e-02</_>
    <_>
      1.46687999e-01 4.38118994e-01 4.38118994e-01 1.45032004e-01
      4.38118994e-01 4.38118994e-01 3.81134987e-01 1.88137993e-01
      6.79572970e-02 1.05062999e-01 3.31081986e-01 1.17003001e-01
      1.13086998e-01 2.07556993e-01 4.98600990e-01 5.17040014e-01
      5.17040014e-01 1.46153003e-01 9.83890961e-04 1.11073002e-01
