<?xml version="1.0"?>
<opencv_storage>
<opencv_ml_svm>
  <format>3</format>
  <svmType>C_SVC</svmType>
  <kernel>
    <type>RBF</type>
    <gamma>5.0624999999999998e-01</gamma></kernel>
  <C>1.2500000000000000e+01</C>
  <term_criteria><epsilon>1.1920928955078125e-07</epsilon>
    <iterations>1000</iterations></term_criteria>
  <var_count>81</var_count>
  <class_count>11</class_count>
  <class_labels type_id="opencv-matrix">
    <rows>11</rows>
    <cols>1</cols>
    <dt>i</dt>
    <data>
      1 2 3 4 5 6 7 8 9 10 11</data></class_labels>
  <sv_total>2255</sv_total>
  <support_vectors>
    <_>
      3.14462006e-01 3.47867996e-01 3.47867996e-01 3.14592004e-01
      3.06432009e-01 3.47867996e-01 3.47867996e-01 3.47867996e-01
      3.15766007e-01 3.41100991e-01 2.56500006e-01 3.41100991e-01
      3.41100991e-01 3.41100991e-01 3.41100991e-01 3.41100991e-01
      3.41100991e-01 3.41100991e-01 2.73395002e-01 2.12020993e-01
      3.49534005e-01 3.88145000e-01 3.01566988e-01 2.64999986e-01
      3.88145000e-01 3.88145000e-01 3.75651002e-01 3.35399002e-01
      3.35399002e-01 3.35399002e-01 3.35399002e-01 3.35399002e-01
      3.35399002e-01 3.35399002e-01 3.35399002e-01 3.10979009e-01
      3.39767009e-01 3.33121985e-01 2.81504005e-01 3.39767009e-01
      3.39767009e-01 3.39767009e-01 3.37255001e-01 3.39767009e-01
      3.39767009e-01 3.41131002e-01 3.41131002e-01 3.41131002e-01
      2.56184012e-01 3.41131002e-01 3.41131002e-01 3.41131002e-01
      3.41131002e-01 3.41131002e-01 3.49853992e-01 2.70487994e-01
      3.49853992e-01 3.49853992e-01 3.49853992e-01 3.00920993e-01
      3.13690007e-01 3.49853992e-01 3.49853992e-01 3.50643992e-01
      2.63996989e-01 3.50643992e-01 3.50643992e-01 3.50643992e-01
      3.50643992e-01 3.50643992e-01 2.57185012e-01 3.50643992e-01
      4.22093987e-01 4.22093987e-01 1.51666000e-01 9.37462002e-02
      4.22093987e-01 4.22093987e-01 4.22093987e-01 2.00818002e-01
      1.81242004e-01</_>
    <_>
      3.48838001e-01 3.83814007e-01 3.83814007e-01 1.50264993e-01
      2.06251994e-01 3.83814007e-01 3.83814007e-01 3.83814007e-01
      2.69802988e-01 3.32778990e-01 3.32778990e-01 3.32778990e-01
      3.32778990e-01 3.32778990e-01 3.32778990e-01 3.32778990e-01
      3.32778990e-01 3.32778990e-01 2.92286009e-01 3.58909994e-01
      3.59286010e-01 3.59286010e-01 2.22947001e-01 3.32403004e-01
      3.59286010e-01 3.59286010e-01 3.24995011e-01 3.44152004e-01
      3.44152004e-01 3.44152004e-01 3.15236002e-01 3.44152004e-01
      3.44152004e-01 3.44152004e-01 3.44152004e-01 2.60962009e-01
      3.36506993e-01 3.36506993e-01 3.01236987e-01 3.36506993e-01
      3.36506993e-01 3.36506993e-01 3.36506993e-01 3.36506993e-01
      3.36506993e-01 1.87402993e-01 3.70113999e-01 3.70113999e-01
      2.83529013e-01 3.48574013e-01 3.70113999e-01 3.70113999e-01
      3.70113999e-01 2.72706002e-01 3.39587986e-01 3.39587986e-01
      3.39587986e-01 3.39587986e-01 3.39587986e-01 2.72119999e-01
      3.39587986e-01 3.39587986e-01 3.39587986e-01 3.48203987e-01
      3.07498008e-01 3.47467005e-01 3.48203987e-01 3.48203987e-01
      3.48203987e-01 3.48203987e-01 2.31849998e-01 3.48203987e-01
      4.51804012e-01 4.51804012e-01 2.63433993e-01 1.09713003e-01
      2.15293005e-01 4.51804012e-01 4.51804012e-01 1.59332007e-01
      1.60641998e-01</_>
    <_>
      3.59425008e-01 3.99293005e-01 3.99293005e-01 1.64794996e-01
      2.28112996e-01 3.99293005e-01 3.99293005e-01 2.84260988e-01
      2.62849003e-01 3.32778990e-01 3.32778990e-01 3.32778990e-01
      3.32778990e-01 3.32778990e-01 3.32778990e-01 3.32778990e-01
      3.32778990e-01 3.32778990e-01 3.56765002e-01 2.71515995e-01
      3.56765002e-01 3.56765002e-01 2.37214997e-01 3.20553988e-01
      3.56765002e-01 3.56765002e-01 3.56765002e-01 3.33995998e-01
      3.33995998e-01 3.33995998e-01 3.33995998e-01 3.33995998e-01
      3.33995998e-01 3.33995998e-01 3.33995998e-01 3.22852999e-01
      3.33559006e-01 3.33559006e-01 3.26453000e-01 3.33559006e-01
      3.33559006e-01 3.33559006e-01 3.33559006e-01 3.33559006e-01
      3.33559006e-01 3.65078986e-01 3.65078986e-01 3.65078986e-01
      2.38518000e-01 2.51845002e-01 3.23038012e-01 3.65078986e-01
      3.65078986e-01 3.24452013e-01 3.53329003e-01 3.53329003e-01
      3.53329003e-01 3.53329003e-01 3.53329003e-01 2.83136010e-01
      2.05946997e-01 3.53329003e-01 3.53329003e-01 3.45699012e-01
      3.00803006e-01 3.35763007e-01 3.45699012e-01 3.45699012e-01
      3.45699012e-01 3.45699012e-01 2.76190996e-01 3.45699012e-01
      4.30101007e-01 4.30101007e-01 2.74944007e-01 1.86320007e-01
      3.57623011e-01 4.30101007e-01 4.08473015e-01 1.38135999e-01
      1.28874004e-01</_>
    <_>
      3.59425008e-01 3.99293005e-01 3.99293005e-01 1.64794996e-01
      2.28112996e-01 3.99293005e-01 3.99293005e-01 2.84260988e-01
      2.62849003e-01 3.32778990e-01 3.32778990e-01 3.32778990e-01
      3.32778990e-01 3.32778990e-01 3.32778990e-01 3.32778990e-01
      3.32778990e-01 3.32778990e-01 3.56633991e-01 2.75509000e-01
      3.56633991e-01 3.56633991e-01 2.34828994e-01 3.19783986e-01
      3.56633991e-01 3.56633991e-01 3.56633991e-01 3.34026992e-01
      3.34026992e-01 3.34026992e-01 3.34026992e-01 3.34026992e-01
      3.34026992e-01 3.34026992e-01 3.34026992e-01 3.22602004e-01
      3.33480000e-01 3.33480000e-01 3.27104986e-01 3.33480000e-01
      3.33480000e-01 3.33480000e-01 3.33480000e-01 3.33480000e-01
      3.33480000e-01 3.64363998e-01 3.64363998e-01 3.64363998e-01
      2.44158000e-01 2.48887002e-01 3.15367997e-01 3.64363998e-01
      3.64363998e-01 3.33977997e-01 3.53224009e-01 3.53224009e-01
      3.53224009e-01 3.53224009e-01 3.53224009e-01 2.85420001e-01
      2.04045996e-01 3.53224009e-01 3.53224009e-01 3.46154988e-01
      2.98675001e-01 3.35301012e-01 3.46154988e-01 3.46154988e-01
      3.46154988e-01 3.46154988e-01 2.75620997e-01 3.46154988e-01
      4.29210007e-01 4.29210007e-01 2.92668015e-01 1.90320000e-01
      3.54856014e-01 4.29210007e-01 3.98092985e-01 1.41075000e-01
      1.29880995e-01</_>
    <_>
      3.40548992e-01 3.42842996e-01 3.42842996e-01 3.42842996e-01
      3.42842996e-01 3.42842996e-01 3.42842996e-01 3.21301013e-01
      2.68552005e-01 3.42391014e-01 2.42330998e-01 3.42391014e-01
      3.42391014e-01 3.42391014e-01 3.42391014e-01 3.42391014e-01
      3.42391014e-01 3.42391014e-01 3.57095987e-01 3.57095987e-01
      3.57095987e-01 3.57095987e-01 2.94075012e-01 1.90777004e-01
      3.29320014e-01 3.57095987e-01 3.57095987e-01 3.60574007e-01
      3.60574007e-01 3.60574007e-01 3.60574007e-01 3.60574007e-01
      3.14882010e-01 3.60574007e-01 2.30864003e-01 2.52716005e-01
      3.44543993e-01 2.87988991e-01 3.31586987e-01 3.19085985e-01
      3.44543993e-01 3.44543993e-01 3.31806004e-01 3.41928989e-01
      3.44543993e-01 2.07004994e-01 3.45270991e-01 3.45270991e-01
      3.45270991e-01 3.45270991e-01 3.45270991e-01 3.45270991e-01
      3.45270991e-01 3.45270991e-01 3.86599988e-01 3.17692012e-01
      3.86599988e-01 3.86599988e-01 3.30283999e-01 1.10220000e-01
      1.63323000e-01 3.86599988e-01 3.86599988e-01 3.66414994e-01
      2.46001005e-01 2.82415986e-01 3.64760011e-01 3.66414994e-01
      3.66414994e-01 3.66414994e-01 2.27409005e-01 3.66414994e-01
      3.96342009e-01 3.96342009e-01 2.71214008e-01 2.03630000e-01
      3.84404987e-01 3.96342009e-01 3.96342009e-01 1.83252007e-01
      2.67062992e-01</_>
    <_>
      1.94068998e-01 3.82398009e-01 3.82398009e-01 3.77757013e-01
      2.14583993e-01 3.82398009e-01 3.82398009e-01 3.82398009e-01
      1.96548000e-01 3.19009990e-01 2.93164998e-01 3.44920993e-01
      3.44920993e-01 3.44920993e-01 3.08247000e-01 3.44920993e-01
      3.44920993e-01 3.44920993e-01 1.25718996e-01 1.27156004e-01
      4.34136003e-01 4.34136003e-01 2.78039992e-01 3.31328988e-01
      4.34136003e-01 4.12651002e-01 2.02236995e-01 3.32284987e-01
      3.51148993e-01 3.51148993e-01 2.62944013e-01 3.51148993e-01
      3.51148993e-01 3.51148993e-01 3.51148993e-01 2.77680993e-01
      3.42083991e-01 2.45781004e-01 3.42083991e-01 3.42083991e-01
      3.42083991e-01 3.42083991e-01 3.42083991e-01 3.42083991e-01
      3.42083991e-01 2.56922007e-01 1.84156999e-01 3.59394014e-01
      3.48571986e-01 3.59394014e-01 3.59394014e-01 3.59394014e-01
      3.59394014e-01 3.59394014e-01 2.10936993e-01 2.82104999e-01
      4.27996993e-01 4.27996993e-01 1.45471007e-01 1.52097002e-01
      3.07613999e-01 4.27996993e-01 4.27996993e-01 3.40501010e-01
      2.62807995e-01 3.40501010e-01 3.40501010e-01 3.40501010e-01
      3.40501010e-01 3.40501010e-01 3.40501010e-01 3.40501010e-01
      3.63133013e-01 3.63133013e-01 3.35355997e-01 9.10900980e-02
      2.90547997e-01 3.63133013e-01 3.63133013e-01 3.63133013e-01
      3.63133013e-01</_>
    <_>
      1.95638999e-01 3.81354988e-01 3.81354988e-01 3.81354988e-01
      2.05690995e-01 3.81354988e-01 3.81354988e-01 3.81354988e-01
      2.07411006e-01 3.16904992e-01 2.86588013e-01 3.47600013e-01
      3.47600013e-01 3.47600013e-01 2.98346013e-01 3.47600013e-01
      3.47600013e-01 3.47600013e-01 1.26754999e-01 1.19842000e-01
      4.22336012e-01 4.22336012e-01 3.36468011e-01 3.22097003e-01
      4.22336012e-01 3.93651992e-01 2.41515994e-01 3.47541004e-01
      3.47541004e-01 3.47541004e-01 2.67825007e-01 3.47541004e-01
      3.47541004e-01 3.47541004e-01 3.47541004e-01 2.81610012e-01
      3.40413988e-01 2.63711989e-01 3.40413988e-01 3.40413988e-01
      3.40413988e-01 3.40413988e-01 3.40413988e-01 3.40413988e-01
      3.40413988e-01 2.04292998e-01 1.76853001e-01 3.64324003e-01
      3.64324003e-01 3.64324003e-01 3.56305003e-01 3.64324003e-01
      3.64324003e-01 3.64324003e-01 2.01781005e-01 3.10779005e-01
      4.28750992e-01 4.25787002e-01 1.43990993e-01 1.32917002e-01
      2.95365006e-01 4.28750992e-01 4.28750992e-01 3.37215990e-01
      2.94811010e-01 3.37215990e-01 3.37215990e-01 3.37215990e-01
      3.37215990e-01 3.37215990e-01 3.37215990e-01 3.37215990e-01
      3.75304013e-01 3.75304013e-01 2.62858003e-01 7.79559016e-02
      2.75610000e-01 3.75304013e-01 3.75304013e-01 3.75304013e-01
      3.75304013e-01</_>
    <_>
      3.37684989e-01 3.37684989e-01 3.37684989e-01 3.37684989e-01
      3.37684989e-01 3.37684989e-01 3.37684989e-01 3.37684989e-01
      2.90477991e-01 3.37628990e-01 2.90998012e-01 3.37628990e-01
      3.37628990e-01 3.37628990e-01 3.37628990e-01 3.37628990e-01
      3.37628990e-01 3.37628990e-01 3.66369009e-01 3.17465007e-01
      3.66369009e-01 3.66369009e-01 3.66369009e-01 8.91728029e-02
      2.86790013e-01 3.66369009e-01 3.66369009e-01 3.48291010e-01
      3.48291010e-01 3.48291010e-01 3.48291010e-01 3.36623996e-01
      3.24845999e-01 3.48291010e-01 3.48291010e-01 2.23251998e-01
      3.32778990e-01 3.32778990e-01 3.32778990e-01 3.32778990e-01
      3.32778990e-01 3.32778990e-01 3.32778990e-01 3.32778990e-01
      3.32778990e-01 2.66773999e-01 3.55567992e-01 3.55567992e-01
      3.55567992e-01 2.38225996e-01 3.33162993e-01 3.55567992e-01
      3.55567992e-01 3.54101986e-01 2.66153008e-01 2.23698005e-01
      4.26281005e-01 4.26281005e-01 2.51253009e-01 6.75455034e-02
      2.83389986e-01 4.26281005e-01 4.26281005e-01 3.44936013e-01
      2.78174013e-01 3.44936013e-01 3.44936013e-01 3.44936013e-01
      3.44936013e-01 3.44936013e-01 2.93781996e-01 3.44936013e-01
      4.26752001e-01 4.26752001e-01 2.37721995e-01 1.59226999e-01
      2.74066001e-01 4.26752001e-01 4.26752001e-01 2.23144993e-01
      2.45958999e-01</_>
    <_>
      3.32778990e-01 3.32778990e-01 3.32778990e-01 3.32778990e-01
      3.32778990e-01 3.32778990e-01 3.32778990e-01 3.32778990e-01
      3.32778990e-01 3.33177000e-01 3.29566985e-01 3.33177000e-01
      3.33177000e-01 3.33177000e-01 3.33177000e-01 3.33177000e-01
      3.33177000e-01 3.33177000e-01 3.50089014e-01 2.41069004e-01
      3.80769014e-01 3.80769014e-01 3.80769014e-01 5.63816987e-02
      3.07384014e-01 3.80769014e-01 3.71367991e-01 3.46038997e-01
      3.46038997e-01 3.46038997e-01 3.46038997e-01 3.46038997e-01
      3.46038997e-01 3.46038997e-01 3.46038997e-01 1.96471006e-01
      3.32778990e-01 3.32778990e-01 3.32778990e-01 3.32778990e-01
      3.32778990e-01 3.32778990e-01 3.32778990e-01 3.32778990e-01
      3.32778990e-01 2.84269989e-01 3.59578997e-01 3.59578997e-01
      3.59578997e-01 2.00156003e-01 3.31167996e-01 3.59578997e-01
      3.59578997e-01 3.45513999e-01 2.85935998e-01 2.02372998e-01
      4.11947012e-01 4.11947012e-01 2.35282004e-01 1.72339007e-01
      3.30623001e-01 4.11947012e-01 4.11947012e-01 3.45613003e-01
      2.88412988e-01 3.45613003e-01 3.45613003e-01 3.45613003e-01
      3.45613003e-01 3.45613003e-01 2.77893990e-01 3.45613003e-01
      4.10311013e-01 4.10311013e-01 2.50155985e-01 1.28049001e-01
      3.47694993e-01 4.10311013e-01 4.10311013e-01 2.05015004e-01
      2.83870012e-01</_>
    <_>
      3.32778990e-01 3.32778990e-01 3.32778990e-01 3.32778990e-01
      3.32778990e-01 3.32778990e-01 3.32778990e-01 3.32778990e-01
      3.32778990e-01 3.32778990e-01 3.32778990e-01 3.32778990e-01
      3.32778990e-01 3.32778990e-01 3.32778990e-01 3.32778990e-01
      3.32778990e-01 3.32778990e-01 2.54316002e-01 2.09390000e-01
      3.96189988e-01 3.96189988e-01 3.96189988e-01 5.62628992e-02
      3.15474987e-01 3.96189988e-01 3.96189988e-01 3.45135003e-01
      3.45135003e-01 3.45135003e-01 3.45135003e-01 3.35817009e-01
      3.45135003e-01 3.45135003e-01 3.45135003e-01 2.23497003e-01
      3.32778990e-01 3.32778990e-01 3.32778990e-01 3.32778990e-01
      3.32778990e-01 3.32778990e-01 3.32778990e-01 3.32778990e-01
      3.32778990e-01 2.50149995e-01 3.67635995e-01 3.67635995e-01
      3.67635995e-01 1.86508998e-01 3.67635995e-01 3.67635995e-01
      3.67635995e-01 2.96701014e-01 3.20190996e-01 1.44801006e-01
      3.84157002e-01 3.84157002e-01 3.32029998e-01 2.25234002e-01
      3.48414987e-01 3.84157002e-01 3.84157002e-01 3.40256989e-01
      3.08362007e-01 3.40256989e-01 3.40256989e-01 3.40256989e-01
      3.40256989e-01 3.40256989e-01 3.01809996e-01 3.40256989e-01
      4.00310010e-01 4.00310010e-01 1.79550007e-01 7.22735971e-02
      3.76430005e-01 4.00310010e-01 4.00310010e-01 2.92362005e-01
      3.00621003e-01</_>
    <_>
      3.32778990e-01 3.32778990e-01 3.32778990e-01 3.32778990e-01
      3.32778990e-01 3.32778990e-01 3.32778990e-01 3.32778990e-01
      3.32778990e-01 3.35317999e-01 3.35317999e-01 3.11677992e-01
      3.35317999e-01 3.35317999e-01 3.35317999e-01 3.35317999e-01
      3.35317999e-01 3.35317999e-01 2.21065000e-01 2.75986999e-01
      3.80297005e-01 3.80297005e-01 3.80297005e-01 5.83887994e-02
      3.80297005e-01 3.80297005e-01 3.80297005e-01 3.35817009e-01
      3.35817009e-01 3.35817009e-01 3.35817009e-01 3.07345003e-01
      3.35817009e-01 3.35817009e-01 3.35817009e-01 3.35817009e-01
      3.32778990e-01 3.32778990e-01 3.32778990e-01 3.32778990e-01
      3.32778990e-01 3.32778990e-01 3.32778990e-01 3.32778990e-01
      3.32778990e-01 3.05579990e-01 3.47411007e-01 3.47411007e-01
      3.47411007e-01 2.75864005e-01 3.47411007e-01 3.47411007e-01
      3.47411007e-01 3.20749998e-01 2.17289999e-01 1.44064993e-01
      3.89842004e-01 3.89842004e-01 3.89842004e-01 2.24773005e-01
      3.43113989e-01 3.89842004e-01 3.89842004e-01 3.34715009e-01
      3.34715009e-01 3.34715009e-01 3.34715009e-01 3.34715009e-01
      3.34715009e-01 3.34715009e-01 3.16830009e-01 3.34715009e-01
      3.96250010e-01 3.96250010e-01 3.12034994e-01 7.26405010e-02
      3.54203999e-01 3.96250010e-01 3.96250010e-01 2.50820011e-01
      2.77438015e-01</_>
    <_>
      3.32778990e-01 3.32778990e-01 3.32778990e-01 3.32778990e-01
      3.32778990e-01 3.32778990e-01 3.32778990e-01 3.32778990e-01
      3.32778990e-01 3.39845002e-01 3.39845002e-01 2.69529015e-01
      3.39845002e-01 3.39845002e-01 3.39845002e-01 3.39845002e-01
      3.39845002e-01 3.39845002e-01 1.52982995e-01 1.66207999e-01
      3.98276001e-01 3.98276001e-01 3.98276001e-01 6.83048964e-02
      3.83679003e-01 3.98276001e-01 3.98276001e-01 3.34762007e-01
      3.34762007e-01 3.34762007e-01 3.34762007e-01 3.34762007e-01
      3.34762007e-01 3.34762007e-01 3.34762007e-01 3.16437989e-01
      3.32778990e-01 3.32778990e-01 3.32778990e-01 3.32778990e-01
      3.32778990e-01 3.32778990e-01 3.32778990e-01 3.32778990e-01
      3.32778990e-01 2.77839005e-01 3.52512985e-01 3.52512985e-01
      3.52512985e-01 2.65074015e-01 3.52512985e-01 3.52512985e-01
      3.52512985e-01 3.21603000e-01 2.73618013e-01 1.13908999e-01
      3.64836991e-01 3.81767005e-01 3.81767005e-01 2.90969014e-01
      3.28013003e-01 3.81767005e-01 3.81767005e-01 3.37734997e-01
      3.37734997e-01 3.37734997e-01 3.37734997e-01 3.37734997e-01
      3.37734997e-01 3.10059994e-01 3.19429010e-01 3.37734997e-01
      3.74890000e-01 3.74890000e-01 2.53183007e-01 9.15511027e-02
      3.45084012e-01 3.74890000e-01 3.74890000e-01 3.74890000e-01
      3.19335997e-01</_>
    <_>
      3.38687986e-01 3.37309986e-01 3.38687986e-01 3.38687986e-01
      2.82613993e-01 3.38687986e-01 3.38687986e-01 3.38687986e-01
      3.38687986e-01 3.41457993e-01 3.41457993e-01 2.52667993e-01
      3.41457993e-01 3.41457993e-01 3.41457993e-01 3.41457993e-01
      3.41457993e-01 3.41457993e-01 9.29071978e-02 1.30008996e-01
      4.15237993e-01 4.15237993e-01 3.75571996e-01 8.94792005e-02
      3.62722009e-01 4.15237993e-01 4.15237993e-01 3.41316015e-01
      3.41316015e-01 3.41316015e-01 3.41316015e-01 2.54202992e-01
      3.41316015e-01 3.41316015e-01 3.41316015e-01 3.41316015e-01
      3.32778990e-01 3.32778990e-01 3.32778990e-01 3.32778990e-01
      3.32778990e-01 3.32778990e-01 3.32778990e-01 3.32778990e-01
      3.32778990e-01 3.41890991e-01 3.41890991e-01 3.41890991e-01
      3.41890991e-01 2.47924000e-01 3.41890991e-01 3.41890991e-01
      3.41890991e-01 3.41890991e-01 2.10159004e-01 7.57163987e-02
      2.58809000e-01 4.02150005e-01 4.02150005e-01 3.67684990e-01
      3.11462998e-01 4.02150005e-01 4.02150005e-01 3.37558001e-01
      3.37558001e-01 3.37558001e-01 3.37558001e-01 3.37558001e-01
      3.37558001e-01 2.91658998e-01 3.37558001e-01 3.37558001e-01
      3.67170006e-01 3.67170006e-01 3.41268003e-01 1.69112995e-01
      3.35341007e-01 3.67170006e-01 3.67170006e-01 3.67170006e-01
      2.54449010e-01</_>
    <_>
      3.32778990e-01 3.32778990e-01 3.32778990e-01 3.32778990e-01
      3.32778990e-01 3.32778990e-01 3.32778990e-01 3.32778990e-01
      3.32778990e-01 3.55089992e-01 3.55089992e-01 1.86982006e-01
      2.80833006e-01 3.55089992e-01 3.55089992e-01 3.55089992e-01
      3.55089992e-01 3.55089992e-01 1.37835994e-01 1.40924007e-01
      4.61156994e-01 4.61156994e-01 2.56011993e-01 1.18326999e-01
      3.38467985e-01 4.61156994e-01 3.52750987e-01 3.36324990e-01
      3.36324990e-01 3.36324990e-01 3.36324990e-01 3.36324990e-01
      3.36324990e-01 3.36324990e-01 3.36324990e-01 3.02861005e-01
      3.32890987e-01 3.32890987e-01 3.31878990e-01 3.32890987e-01
      3.32890987e-01 3.32890987e-01 3.32890987e-01 3.32890987e-01
      3.32890987e-01 3.40959013e-01 3.40959013e-01 3.40959013e-01
      3.40959013e-01 2.58013994e-01 3.40959013e-01 3.40959013e-01
      3.40959013e-01 3.40959013e-01 1.82898998e-01 5.79654984e-02
      2.13033006e-01 4.30489987e-01 4.30489987e-01 3.09882998e-01
      2.76024997e-01 4.30489987e-01 4.30489987e-01 3.40232998e-01
      3.40232998e-01 3.40232998e-01 3.40232998e-01 3.40232998e-01
      3.40232998e-01 2.65579998e-01 3.40232998e-01 3.40232998e-01
      3.51554990e-01 3.51554990e-01 3.08806002e-01 2.35057995e-01
      3.51554990e-01 3.51554990e-01 3.51554990e-01 3.51554990e-01
      3.23000997e-01</_>
    <_>
      3.32783997e-01 3.32783997e-01 3.32783997e-01 3.32783997e-01
      3.32783997e-01 3.32783997e-01 3.32733989e-01 3.32783997e-01
      3.32783997e-01 3.59171987e-01 3.59171987e-01 1.40942007e-01
      2.71135986e-01 3.59171987e-01 3.59171987e-01 3.59171987e-01
      3.59171987e-01 3.59171987e-01 9.76810008e-02 3.37500982e-02
      4.71318007e-01 4.71318007e-01 2.01490998e-01 7.55904019e-02
      2.31102005e-01 4.71318007e-01 4.67404991e-01 3.32778990e-01
      3.32778990e-01 3.32778990e-01 3.32778990e-01 3.32778990e-01
      3.32778990e-01 3.32778990e-01 3.32778990e-01 3.32778990e-01
      3.32778990e-01 3.32778990e-01 3.32778990e-01 3.32778990e-01
      3.32778990e-01 3.32778990e-01 3.32778990e-01 3.32778990e-01
      3.32778990e-01 3.41446996e-01 3.41446996e-01 3.41446996e-01
      3.34203988e-01 2.62284011e-01 3.41446996e-01 3.41446996e-01
      3.41446996e-01 3.41446996e-01 1.98705003e-01 6.51995018e-02
      2.00444996e-01 4.41287011e-01 4.41287011e-01 3.20670992e-01
      1.72952995e-01 4.41287011e-01 4.41287011e-01 3.44834000e-01
      3.44834000e-01 3.44834000e-01 3.44834000e-01 3.44834000e-01
      3.44834000e-01 2.22568005e-01 3.38591993e-01 3.44834000e-01
      3.43084008e-01 3.43084008e-01 3.34969014e-01 2.94975013e-01
      3.43084008e-01 3.43084008e-01 3.43084008e-01 3.43084008e-01
      3.01856995e-01</_>
    <_>
      2.45980993e-01 4.53085989e-01 1.98895007e-01 9.52386037e-02
      4.53085989e-01 4.53085989e-01 4.53085989e-01 2.08167002e-01
      1.47842005e-01 3.33588004e-01 3.33588004e-01 3.33588004e-01
      3.33588004e-01 3.33588004e-01 3.33588004e-01 3.33588004e-01
      3.26222986e-01 3.33588004e-01 3.00063014e-01 3.45607996e-01
      3.45607996e-01 3.45607996e-01 3.45607996e-01 3.45607996e-01
      3.45607996e-01 3.45607996e-01 2.65318006e-01 3.32778990e-01
      3.32778990e-01 3.32778990e-01 3.32778990e-01 3.32778990e-01
      3.32778990e-01 3.32778990e-01 3.32778990e-01 3.32778990e-01
      3.33862007e-01 3.33862007e-01 3.23967010e-01 3.33862007e-01
      3.33862007e-01 3.33862007e-01 3.33862007e-01 3.33862007e-01
      3.33862007e-01 1.77199006e-01 2.60448992e-01 3.58007997e-01
      3.58007997e-01 3.58007997e-01 3.58007997e-01 3.58007997e-01
      3.58007997e-01 3.58007997e-01 2.80505002e-01 3.38735014e-01
      3.38735014e-01 3.38735014e-01 3.38735014e-01 3.38735014e-01
      3.38735014e-01 3.38735014e-01 3.38735014e-01 3.54341000e-01
      2.39926994e-01 2.44932994e-01 3.54341000e-01 3.54341000e-01
      3.54341000e-01 3.54341000e-01 3.54341000e-01 3.54341000e-01
      4.93959010e-01 4.93959010e-01 4.71293986e-01 1.31327003e-01
      1.58849001e-01 2.08694994e-01 2.66009986e-01 1.85141996e-01
      3.06409001e-01</_>
    <_>
      3.46358001e-01 2.52682000e-01 3.46358001e-01 3.46358001e-01
      3.46358001e-01 3.46358001e-01 3.04868996e-01 3.46358001e-01
      3.46358001e-01 3.45149010e-01 3.45149010e-01 2.08640993e-01
      3.45149010e-01 3.45149010e-01 3.45149010e-01 3.45149010e-01
      3.45149010e-01 3.45149010e-01 1.24739997e-01 8.56956020e-02
      4.81009990e-01 4.81009990e-01 2.41990998e-01 4.70862985e-02
      1.54626995e-01 4.81009990e-01 4.39879000e-01 3.09650004e-01
      3.42429012e-01 3.42429012e-01 3.42429012e-01 3.08692992e-01
      3.29600990e-01 3.42429012e-01 3.42429012e-01 3.32385004e-01
      3.32778990e-01 3.32778990e-01 3.32778990e-01 3.32778990e-01
      3.32778990e-01 3.32778990e-01 3.32778990e-01 3.32778990e-01
      3.32778990e-01 3.38391989e-01 3.38391989e-01 3.38391989e-01
      3.38391989e-01 2.83807009e-01 3.38391989e-01 3.38391989e-01
      3.38391989e-01 3.38391989e-01 2.38221005e-01 1.15989998e-01
      3.96342993e-01 4.81180012e-01 1.80840001e-01 6.68509975e-02
      1.90073997e-01 4.81180012e-01 4.81180012e-01 3.42846990e-01
      3.42846990e-01 3.42846990e-01 3.42846990e-01 3.42846990e-01
      3.42846990e-01 2.60940999e-01 3.25082004e-01 3.42846990e-01
      3.55753005e-01 3.55753005e-01 3.37736994e-01 2.98509002e-01
      2.96808988e-01 3.55753005e-01 3.55753005e-01 3.55753005e-01
      2.69026995e-01</_>
    <_>
      3.87203008e-01 3.70902002e-01 1.47450000e-01 1.25658005e-01
      4.52964008e-01 4.52964008e-01 4.52964008e-01 1.82379007e-01
      1.47165999e-01 3.70476007e-01 3.70476007e-01 2.24463001e-01
      3.09475005e-01 3.70476007e-01 3.70476007e-01 3.17425996e-01
      3.38059008e-01 2.93406993e-01 3.55509996e-01 3.55509996e-01
      3.55509996e-01 3.55509996e-01 3.00274998e-01 3.55509996e-01
      3.55509996e-01 2.75166988e-01 2.68779010e-01 3.36465001e-01
      3.36465001e-01 3.36465001e-01 3.36465001e-01 3.20363998e-01
      3.18663001e-01 3.36465001e-01 3.36465001e-01 3.36465001e-01
      3.27872008e-01 3.33386004e-01 3.33386004e-01 3.33386004e-01
      3.33386004e-01 3.33386004e-01 3.33386004e-01 3.33386004e-01
      3.33386004e-01 2.25564003e-01 3.59452993e-01 3.59452993e-01
      3.59452993e-01 3.59452993e-01 3.59452993e-01 3.59452993e-01
      3.59452993e-01 2.02692002e-01 3.20641011e-01 3.31254005e-01
      2.58590996e-01 3.62881005e-01 3.62881005e-01 3.62881005e-01
      2.41971999e-01 3.62881005e-01 3.62881005e-01 3.33808005e-01
      2.77561009e-01 2.28352994e-01 3.54927003e-01 3.54927003e-01
      3.54927003e-01 3.54927003e-01 3.54927003e-01 3.54927003e-01
      5.22457004e-01 5.22457004e-01 4.21647012e-01 9.45310965e-02
      1.78360000e-01 2.82909989e-01 3.27773988e-01 1.23961002e-01
      1.65785000e-01</_>
    <_>
      3.36107999e-01 3.04785013e-01 3.36107999e-01 3.36107999e-01
      3.36107999e-01 3.36107999e-01 3.36107999e-01 3.36107999e-01
      3.36107999e-01 3.42321008e-01 3.42321008e-01 2.43131995e-01
      3.42321008e-01 3.42321008e-01 3.42321008e-01 3.42321008e-01
      3.42321008e-01 3.42321008e-01 1.26604006e-01 1.65831000e-01
      4.61804003e-01 4.61804003e-01 3.39594990e-01 6.02172017e-02
      2.17543006e-01 4.61804003e-01 3.81832004e-01 3.35022986e-01
      3.45297992e-01 3.45297992e-01 3.45297992e-01 3.16094011e-01
      3.39154005e-01 3.45297992e-01 3.45297992e-01 2.70581990e-01
      3.32778990e-01 3.32778990e-01 3.32778990e-01 3.32778990e-01
      3.32778990e-01 3.32778990e-01 3.32778990e-01 3.32778990e-01
      3.32778990e-01 3.37462991e-01 3.37462991e-01 3.37462991e-01
      3.37462991e-01 2.92537004e-01 3.37462991e-01 3.37462991e-01
      3.37462991e-01 3.37462991e-01 2.83389002e-01 1.10854998e-01
      4.12945002e-01 4.56142008e-01 1.88721001e-01 6.78746998e-02
      2.60580987e-01 4.56142008e-01 4.56142008e-01 3.35900009e-01
      3.35900009e-01 3.35900009e-01 3.35900009e-01 3.35900009e-01
      3.35900009e-01 3.06618005e-01 3.35900009e-01 3.35900009e-01
      3.65601003e-01 3.65601003e-01 3.21851999e-01 2.02005997e-01
      3.15008014e-01 3.65601003e-01 3.65601003e-01 3.65601003e-01
      2.90518999e-01</_>
    <_>
      3.58431995e-01 3.69991004e-01 1.50840998e-01 1.28024995e-01
      4.57489997e-01 4.57489997e-01 4.57489997e-01 1.95577994e-01
      1.57408997e-01 3.45838010e-01 3.45838010e-01 3.00770015e-01
      3.13950002e-01 3.45838010e-01 3.45838010e-01 3.38086009e-01
      3.45838010e-01 3.08537006e-01 3.40588987e-01 3.40588987e-01
      3.40588987e-01 3.40588987e-01 3.31988990e-01 3.40588987e-01
      3.40588987e-01 3.28135997e-01 2.87580013e-01 3.34565014e-01
      3.34565014e-01 3.34565014e-01 3.34565014e-01 3.24499995e-01
      3.28364015e-01 3.34565014e-01 3.34565014e-01 3.34565014e-01
      3.24252993e-01 3.33826989e-01 3.33826989e-01 3.33826989e-01
      3.33826989e-01 3.33826989e-01 3.33826989e-01 3.33826989e-01
      3.33826989e-01 2.28876993e-01 3.55764002e-01 3.55764002e-01
      3.55764002e-01 3.55764002e-01 3.55764002e-01 3.55764002e-01
      3.55764002e-01 2.41012007e-01 3.13719988e-01 2.58287013e-01
      2.89177001e-01 3.73950988e-01 3.73950988e-01 3.73950988e-01
      2.19802007e-01 3.73950988e-01 3.73950988e-01 3.50398004e-01
      2.74194986e-01 2.48726994e-01 3.50398004e-01 3.50398004e-01
      3.50398004e-01 3.50398004e-01 3.50398004e-01 3.50398004e-01
      5.14477015e-01 5.14477015e-01 4.30269986e-01 1.21080004e-01
      1.92468002e-01 2.48862997e-01 2.95401990e-01 1.65996000e-01
      2.27822006e-01</_>
    <_>
      3.64284009e-01 3.64284009e-01 3.64284009e-01 3.64284009e-01
      3.64284009e-01 3.64284009e-01 3.64284009e-01 1.32802993e-01
      2.23169997e-01 3.73999000e-01 3.26965988e-01 7.76614025e-02
      2.09941000e-01 3.73999000e-01 3.73999000e-01 3.73999000e-01
      3.73999000e-01 3.73999000e-01 1.55641004e-01 1.24493003e-01
      4.97114986e-01 4.97114986e-01 4.97114986e-01 1.61189005e-01
      2.52265990e-01 2.36635000e-01 2.61391014e-01 3.47011000e-01
      3.48964989e-01 3.48964989e-01 3.48964989e-01 3.48964989e-01
      3.48964989e-01 3.48964989e-01 3.48964989e-01 1.53815001e-01
      3.32778990e-01 3.32778990e-01 3.32778990e-01 3.32778990e-01
      3.32778990e-01 3.32778990e-01 3.32778990e-01 3.32778990e-01
      3.32778990e-01 3.46311986e-01 3.46311986e-01 3.46311986e-01
      3.46311986e-01 1.92573994e-01 3.46311986e-01 3.46311986e-01
      3.46311986e-01 3.46311986e-01 1.56583995e-01 1.30099997e-01
      3.63920987e-01 4.38645005e-01 3.63669008e-01 1.03529997e-01
      3.18641990e-01 4.38645005e-01 4.38645005e-01 3.41179997e-01
      3.41179997e-01 3.41179997e-01 3.41179997e-01 3.41179997e-01
      3.41179997e-01 3.10622990e-01 2.92023987e-01 3.41179997e-01
      3.81226003e-01 3.81226003e-01 3.47045988e-01 8.66687968e-02
      2.97789991e-01 3.81226003e-01 3.81226003e-01 3.01153004e-01
      3.27924013e-01</_>
    <_>
      3.34037989e-01 3.34037989e-01 3.34037989e-01 3.34037989e-01
      3.34037989e-01 3.34037989e-01 3.34037989e-01 3.34037989e-01
      3.22510004e-01 3.51336986e-01 2.76838005e-01 2.36194998e-01
      3.51336986e-01 3.51336986e-01 3.51336986e-01 3.51336986e-01
      3.51336986e-01 3.51336986e-01 2.36672997e-01 1.93738997e-01
      4.34518993e-01 4.34518993e-01 4.34518993e-01 5.89378998e-02
      1.85383007e-01 4.34518993e-01 3.30219001e-01 3.29246014e-01
      3.50125998e-01 3.50125998e-01 3.50125998e-01 3.50125998e-01
      3.50125998e-01 3.50125998e-01 3.50125998e-01 1.73148006e-01
      3.32778990e-01 3.32778990e-01 3.32778990e-01 3.32778990e-01
      3.32778990e-01 3.32778990e-01 3.32778990e-01 3.32778990e-01
      3.32778990e-01 3.25017989e-01 3.39940995e-01 3.39940995e-01
      3.39940995e-01 2.86440998e-01 3.39940995e-01 3.39940995e-01
      3.39940995e-01 3.39940995e-01 2.19019994e-01 1.21822000e-01
      4.04805988e-01 4.04805988e-01 3.67585987e-01 1.73114002e-01
      3.35538000e-01 4.04805988e-01 4.04805988e-01 3.36107999e-01
      3.36107999e-01 3.36107999e-01 3.36107999e-01 3.36107999e-01
      3.36107999e-01 3.04787010e-01 3.36107999e-01 3.36107999e-01
      3.86909992e-01 3.86909992e-01 3.34827006e-01 8.18210021e-02
      3.37231994e-01 3.86909992e-01 3.86909992e-01 2.83318013e-01
      2.90755004e-01</_>
    <_>
      3.69136989e-01 2.83015996e-01 1.48623005e-01 2.23444000e-01
      4.57825989e-01 4.57825989e-01 4.57825989e-01 2.08939001e-01
      1.85965002e-01 3.32778990e-01 3.32778990e-01 3.32778990e-01
      3.32778990e-01 3.32778990e-01 3.32778990e-01 3.32778990e-01
      3.32778990e-01 3.32778990e-01 3.32778990e-01 3.32778990e-01
      3.32778990e-01 3.32778990e-01 3.32778990e-01 3.32778990e-01
      3.32778990e-01 3.32778990e-01 3.32778990e-01 3.32778990e-01
      3.32778990e-01 3.32778990e-01 3.32778990e-01 3.32778990e-01
      3.32778990e-01 3.32778990e-01 3.32778990e-01 3.32778990e-01
      3.18075001e-01 3.34567994e-01 3.34567994e-01 3.34567994e-01
      3.34567994e-01 3.34567994e-01 3.34567994e-01 3.34567994e-01
      3.34567994e-01 2.19836995e-01 3.52643013e-01 3.52643013e-01
      3.52643013e-01 3.52643013e-01 3.52643013e-01 3.52643013e-01
      3.52643013e-01 2.78652012e-01 2.73068994e-01 2.37703994e-01
      3.61359000e-01 3.61359000e-01 3.61359000e-01 3.61359000e-01
      2.86071002e-01 3.61359000e-01 3.61359000e-01 3.46318990e-01
      3.01609010e-01 2.56927997e-01 3.46318990e-01 3.46318990e-01
      3.46318990e-01 3.46318990e-01 3.46318990e-01 3.46318990e-01
      5.48412025e-01 5.48412025e-01 3.89423013e-01 8.99348035e-02
      1.65291995e-01 2.98610002e-01 2.71930009e-01 1.34356007e-01
      1.57437995e-01</_>
    <_>
      3.54400992e-01 2.97657013e-01 1.35511994e-01 1.72776997e-01
      4.73794997e-01 4.73794997e-01 4.73794997e-01 1.90788999e-01
      1.51679993e-01 3.32778990e-01 3.32778990e-01 3.32778990e-01
      3.32778990e-01 3.32778990e-01 3.32778990e-01 3.32778990e-01
      3.32778990e-01 3.32778990e-01 3.32778990e-01 3.32778990e-01
      3.32778990e-01 3.32778990e-01 3.32778990e-01 3.32778990e-01
      3.32778990e-01 3.32778990e-01 3.32778990e-01 3.32778990e-01
      3.32778990e-01 3.32778990e-01 3.32778990e-01 3.32778990e-01
      3.32778990e-01 3.32778990e-01 3.32778990e-01 3.32778990e-01
      3.32778990e-01 3.32778990e-01 3.32778990e-01 3.32778990e-01
      3.32778990e-01 3.32778990e-01 3.32778990e-01 3.32778990e-01
      3.32778990e-01 2.25210994e-01 3.51123989e-01 3.51123989e-01
      3.51123989e-01 3.51123989e-01 3.51123989e-01 3.51123989e-01
      3.51123989e-01 2.87671000e-01 2.83924013e-01 2.29708001e-01
      3.59710991e-01 3.59710991e-01 3.59710991e-01 3.59710991e-01
      2.94409990e-01 3.59710991e-01 3.59710991e-01 3.43059987e-01
      3.19615990e-01 2.65684009e-01 3.43059987e-01 3.43059987e-01
      3.43059987e-01 3.43059987e-01 3.43059987e-01 3.43059987e-01
      5.31359971e-01 5.31359971e-01 4.07512009e-01 9.15865973e-02
      2.23620996e-01 2.62315005e-01 2.93983996e-01 1.33607000e-01
      1.80161998e-01</_>
    <_>
      3.93846989e-01 2.62419999e-01 1.43601999e-01 1.56368002e-01
      4.54409003e-01 4.81763989e-01 4.81763989e-01 1.55746996e-01
      1.76633999e-01 3.42877001e-01 3.42877001e-01 3.07738006e-01
      3.42877001e-01 3.42877001e-01 3.42877001e-01 2.80921996e-01
      3.42877001e-01 3.42877001e-01 3.32778990e-01 3.32778990e-01
      3.32778990e-01 3.32778990e-01 3.32778990e-01 3.32778990e-01
      3.32778990e-01 3.32778990e-01 3.32778990e-01 3.42292994e-01
      3.42292994e-01 3.42292994e-01 3.42292994e-01 3.42292994e-01
      2.43447006e-01 3.42292994e-01 3.42292994e-01 3.42292994e-01
      3.39152008e-01 2.78771996e-01 3.39152008e-01 3.39152008e-01
      3.39152008e-01 3.37235987e-01 3.39152008e-01 3.39152008e-01
      3.39152008e-01 1.88641995e-01 3.55928004e-01 3.55928004e-01
      3.55928004e-01 3.55928004e-01 3.55928004e-01 3.55928004e-01
      3.55928004e-01 2.72152990e-01 2.78724015e-01 2.18634993e-01
      2.94476986e-01 3.79911989e-01 3.79911989e-01 3.79911989e-01
      2.49669999e-01 3.79911989e-01 3.79911989e-01 3.55910003e-01
      2.47025996e-01 2.20719993e-01 3.55910003e-01 3.55910003e-01
      3.55910003e-01 3.55910003e-01 3.55910003e-01 3.55910003e-01
      5.45822978e-01 5.45822978e-01 3.66248995e-01 1.09361000e-01
      2.39306003e-01 2.40189001e-01 3.10342014e-01 1.48518994e-01
      1.38843998e-01</_>
    <_>
      2.00599998e-01 4.13688987e-01 4.13688987e-01 2.08780006e-01
      2.88792998e-01 4.13688987e-01 4.13688987e-01 3.19692999e-01
      2.04642996e-01 3.32778990e-01 3.32778990e-01 3.32778990e-01
      3.32778990e-01 3.32778990e-01 3.32778990e-01 3.32778990e-01
      3.32778990e-01 3.32778990e-01 2.97733992e-01 2.41172001e-01
      3.55464995e-01 3.78793001e-01 2.38314003e-01 3.03840011e-01
      3.78793001e-01 3.78793001e-01 3.78793001e-01 3.19353014e-01
      3.55396986e-01 3.55396986e-01 3.55396986e-01 3.52948010e-01
      3.55396986e-01 3.55396986e-01 3.05826008e-01 2.11719006e-01
      3.34156007e-01 3.34156007e-01 3.34156007e-01 3.34156007e-01
      3.34156007e-01 3.34156007e-01 3.21523994e-01 3.34156007e-01
      3.34156007e-01 2.37032995e-01 3.71381015e-01 3.71381015e-01
      1.98755994e-01 3.31084996e-01 3.18378001e-01 3.71381015e-01
      3.71381015e-01 3.71381015e-01 3.90345991e-01 3.90345991e-01
      3.90345991e-01 3.90345991e-01 1.93452999e-01 1.14131004e-01
      1.77283004e-01 3.90345991e-01 3.90345991e-01 3.42283010e-01
      2.43551999e-01 3.42283010e-01 3.42283010e-01 3.42283010e-01
      3.42283010e-01 3.42283010e-01 3.42283010e-01 3.42283010e-01
      4.22877014e-01 4.22877014e-01 2.82128006e-01 1.42168999e-01
      2.35523000e-01 4.22877014e-01 4.22877014e-01 3.20443004e-01
      1.50037006e-01</_>
    <_>
      4.05882001e-01 3.64847988e-01 1.46257997e-01 2.11385995e-01
      3.81374002e-01 4.57150012e-01 4.57150012e-01 1.64144993e-01
      2.02834994e-01 3.33025008e-01 3.33025008e-01 3.30794990e-01
      3.33025008e-01 3.33025008e-01 3.33025008e-01 3.33025008e-01
      3.33025008e-01 3.33025008e-01 3.35774004e-01 3.35774004e-01
      3.35774004e-01 3.35774004e-01 3.27908993e-01 3.35774004e-01
      3.35774004e-01 3.35774004e-01 3.16092014e-01 3.37312013e-01
      3.37312013e-01 3.37312013e-01 3.37312013e-01 3.37312013e-01
      2.93931991e-01 3.37312013e-01 3.37312013e-01 3.37312013e-01
      3.03947002e-01 2.86377013e-01 3.42716008e-01 3.42716008e-01
      3.42716008e-01 3.42716008e-01 3.42716008e-01 3.42716008e-01
      3.42716008e-01 1.71782002e-01 2.21091002e-01 3.13398987e-01
      3.73212010e-01 3.73212010e-01 3.73212010e-01 3.73212010e-01
      3.73212010e-01 3.51036996e-01 2.44573995e-01 2.64414012e-01
      3.35229993e-01 3.78244996e-01 3.78244996e-01 3.78244996e-01
      1.96886003e-01 3.78244996e-01 3.78244996e-01 3.57526004e-01
      2.32167006e-01 2.18521997e-01 3.57526004e-01 3.57526004e-01
      3.57526004e-01 3.57526004e-01 3.57526004e-01 3.57526004e-01
      5.86531997e-01 5.86531997e-01 2.13056996e-01 8.65266025e-02
      1.65955007e-01 2.72978008e-01 3.22066993e-01 1.61035001e-01
      1.46652997e-01</_>
    <_>
      2.83955991e-01 4.50522006e-01 2.63996005e-01 1.51583001e-01
      4.50522006e-01 4.50522006e-01 4.50522006e-01 7.90501013e-02
      6.37890026e-02 3.41464996e-01 3.41464996e-01 3.41464996e-01
      3.41464996e-01 3.41464996e-01 3.41464996e-01 3.41464996e-01
      2.52588004e-01 3.41464996e-01 3.37852001e-01 3.22625995e-01
      3.37852001e-01 3.37852001e-01 3.37852001e-01 3.37852001e-01
      3.37852001e-01 3.05828005e-01 3.37852001e-01 3.36120993e-01
      3.36120993e-01 3.36120993e-01 3.36120993e-01 3.06138009e-01
      3.36120993e-01 3.36120993e-01 3.36120993e-01 3.34784001e-01
      3.34163010e-01 3.34163010e-01 3.21464986e-01 3.34163010e-01
      3.34163010e-01 3.34163010e-01 3.34163010e-01 3.34163010e-01
      3.34163010e-01 2.14326993e-01 3.49314988e-01 3.49314988e-01
      3.10523987e-01 3.49314988e-01 3.49314988e-01 3.49314988e-01
      3.49314988e-01 3.49314988e-01 3.32778990e-01 3.32778990e-01
      3.32778990e-01 3.32778990e-01 3.32778990e-01 3.32778990e-01
      3.32778990e-01 3.32778990e-01 3.32778990e-01 3.49395007e-01
      3.49395007e-01 2.34017000e-01 3.49395007e-01 3.49395007e-01
      3.49395007e-01 3.49395007e-01 2.95311987e-01 3.49395007e-01
      4.27915007e-01 4.27915007e-01 3.49323988e-01 4.77287993e-02
      1.86341003e-01 4.27915007e-01 4.27915007e-01 1.22106999e-01
      2.98900008e-01</_>
    <_>
      2.27099001e-01 4.63362008e-01 2.13007003e-01 1.11911997e-01
      4.63362008e-01 4.63362008e-01 4.63362008e-01 1.42248005e-01
      8.27692971e-02 2.98952997e-01 3.36760998e-01 3.36760998e-01
      3.36760998e-01 3.36760998e-01 3.36760998e-01 3.36760998e-01
      3.36760998e-01 3.36760998e-01 1.49862006e-01 3.68378013e-01
      3.68378013e-01 3.68378013e-01 3.68378013e-01 3.68378013e-01
      3.68378013e-01 3.68378013e-01 1.54734999e-01 3.47600996e-01
      3.47600996e-01 3.47600996e-01 3.47600996e-01 2.54920006e-01
      2.92845994e-01 3.47600996e-01 3.47600996e-01 3.47600996e-01
      2.33896002e-01 3.27780008e-01 3.47312003e-01 3.49931985e-01
      3.49931985e-01 3.18542004e-01 3.49931985e-01 3.49931985e-01
      3.49931985e-01 9.69811007e-02 3.27468991e-01 3.58783990e-01
      3.58783990e-01 3.58783990e-01 3.58783990e-01 3.58783990e-01
      3.58783990e-01 3.27749997e-01 1.50292993e-01 3.88116986e-01
      3.88116986e-01 3.88116986e-01 3.03339005e-01 2.23335996e-01
      2.80119985e-01 3.88116986e-01 3.88116986e-01 3.65646005e-01
      1.39897004e-01 2.02231005e-01 3.65646005e-01 3.65646005e-01
      3.65646005e-01 3.65646005e-01 3.65646005e-01 3.65646005e-01
      5.94726980e-01 5.94726980e-01 1.91346005e-01 6.15988001e-02
      1.07066996e-01 1.90452993e-01 2.97491997e-01 1.76462993e-01
      2.80849993e-01</_>
    <_>
      3.08266014e-01 3.32859993e-01 3.36115986e-01 3.36115986e-01
      3.36115986e-01 3.36115986e-01 3.36115986e-01 3.36115986e-01
      3.36115986e-01 3.48814994e-01 2.36295998e-01 2.98290998e-01
      3.48814994e-01 3.48814994e-01 3.48814994e-01 3.48814994e-01
      3.48814994e-01 3.48814994e-01 1.92403004e-01 2.46050000e-01
      4.83523995e-01 4.83523995e-01 4.83523995e-01 2.07322001e-01
      2.32277006e-01 1.74484998e-01 2.62383014e-01 3.33934993e-01
      3.33934993e-01 3.33934993e-01 3.33934993e-01 3.33934993e-01
      3.33934993e-01 3.33934993e-01 3.33934993e-01 3.23365003e-01
      3.32778990e-01 3.32778990e-01 3.32778990e-01 3.32778990e-01
      3.32778990e-01 3.32778990e-01 3.32778990e-01 3.32778990e-01
      3.32778990e-01 3.32778990e-01 3.32778990e-01 3.32778990e-01
      3.32778990e-01 3.32778990e-01 3.32778990e-01 3.32778990e-01
      3.32778990e-01 3.32778990e-01 3.15353990e-01 1.74702004e-01
      3.81267011e-01 3.03651989e-01 1.44366995e-01 1.77827001e-01
      4.38033998e-01 4.38033998e-01 4.38033998e-01 3.33480000e-01
      3.33480000e-01 3.33480000e-01 3.33480000e-01 3.33480000e-01
      3.33480000e-01 3.33480000e-01 3.27104986e-01 3.33480000e-01
      3.58446985e-01 3.58446985e-01 3.46520007e-01 1.08052999e-01
      3.06201994e-01 3.58446985e-01 3.58446985e-01 3.58446985e-01
      3.58446985e-01</_>
    <_>
      3.33689988e-01 3.25381011e-01 3.33689988e-01 3.33689988e-01
      3.33689988e-01 3.33689988e-01 3.33689988e-01 3.33689988e-01
      3.33689988e-01 3.46269995e-01 3.26709002e-01 2.24684000e-01
      3.46269995e-01 3.46269995e-01 3.46269995e-01 3.46269995e-01
      3.46269995e-01 3.46269995e-01 1.64444000e-01 1.66217998e-01
      5.07121980e-01 5.07121980e-01 5.07121980e-01 1.44556001e-01
      2.10399002e-01 1.99222997e-01 2.52768993e-01 3.32778990e-01
      3.32778990e-01 3.32778990e-01 3.32778990e-01 3.32778990e-01
      3.32778990e-01 3.32778990e-01 3.32778990e-01 3.32778990e-01
      3.32778990e-01 3.32778990e-01 3.32778990e-01 3.32778990e-01
      3.32778990e-01 3.32778990e-01 3.32778990e-01 3.32778990e-01
      3.32778990e-01 3.38528991e-01 3.38528991e-01 3.38528991e-01
      3.15378010e-01 3.08124006e-01 3.38528991e-01 3.38528991e-01
      3.38528991e-01 3.38528991e-01 3.22681993e-01 1.31964996e-01
      3.66088986e-01 3.29566002e-01 1.60564005e-01 1.01631001e-01
      4.45446014e-01 4.45446014e-01 4.45446014e-01 3.36163998e-01
      3.36163998e-01 3.36163998e-01 3.36163998e-01 3.36163998e-01
      3.36163998e-01 3.04289013e-01 3.36163998e-01 3.36163998e-01
      3.65422010e-01 3.65422010e-01 3.21491987e-01 1.37077004e-01
      2.99670994e-01 3.65422010e-01 3.65422010e-01 3.65422010e-01
      3.41659993e-01</_>
    <_>
      3.32778990e-01 3.32778990e-01 3.32778990e-01 3.32778990e-01
      3.32778990e-01 3.32778990e-01 3.32778990e-01 3.32778990e-01
      3.32778990e-01 3.46011013e-01 3.46011013e-01 1.96863994e-01
      3.46011013e-01 3.46011013e-01 3.46011013e-01 3.46011013e-01
      3.46011013e-01 3.46011013e-01 1.40984997e-01 2.12228999e-01
      5.06653011e-01 5.06653011e-01 5.06653011e-01 1.37247995e-01
      1.79676995e-01 1.83024004e-01 2.74428993e-01 3.36243987e-01
      3.36243987e-01 3.36243987e-01 3.36243987e-01 3.36243987e-01
      3.36243987e-01 3.36243987e-01 3.36243987e-01 3.03577989e-01
      3.33797008e-01 3.33797008e-01 3.24503988e-01 3.33797008e-01
      3.33797008e-01 3.33797008e-01 3.33797008e-01 3.33797008e-01
      3.33797008e-01 3.41176987e-01 3.41176987e-01 3.41176987e-01
      3.41176987e-01 2.55694002e-01 3.41176987e-01 3.41176987e-01
      3.41176987e-01 3.41176987e-01 3.52600008e-01 1.38631999e-01
      3.14691991e-01 3.39504987e-01 1.36657000e-01 1.31093994e-01
      4.47892994e-01 4.47892994e-01 4.47892994e-01 3.35193008e-01
      3.35193008e-01 3.35193008e-01 3.35193008e-01 3.35193008e-01
      3.35193008e-01 3.12759012e-01 3.35193008e-01 3.35193008e-01
      3.59833986e-01 3.59833986e-01 3.35229993e-01 1.65248007e-01
      3.11740011e-01 3.59833986e-01 3.59833986e-01 3.59833986e-01
      3.34865004e-01</_>
    <_>
      3.32778990e-01 3.32778990e-01 3.32778990e-01 3.32778990e-01
      3.32778990e-01 3.32778990e-01 3.32778990e-01 3.32778990e-01
      3.32778990e-01 3.59854996e-01 3.59854996e-01 1.08925000e-01
      2.79410005e-01 3.59854996e-01 3.59854996e-01 3.59854996e-01
      3.59854996e-01 3.59854996e-01 2.07809001e-01 1.05585001e-01
      5.27456999e-01 5.27456999e-01 4.91997004e-01 1.53292000e-01
      1.70899004e-01 1.58026993e-01 2.53454000e-01 3.40512991e-01
      3.40512991e-01 3.40512991e-01 3.40512991e-01 3.40512991e-01
      3.40512991e-01 3.40512991e-01 3.40512991e-01 2.62692004e-01
      3.32778990e-01 3.32778990e-01 3.32778990e-01 3.32778990e-01
      3.32778990e-01 3.32778990e-01 3.32778990e-01 3.32778990e-01
      3.32778990e-01 3.45860004e-01 3.45860004e-01 3.45860004e-01
      2.84480006e-01 2.79792011e-01 3.45860004e-01 3.45860004e-01
      3.45860004e-01 3.45860004e-01 2.25609004e-01 8.63187984e-02
      3.35274994e-01 4.05292004e-01 1.33451000e-01 7.79628009e-02
      3.61510992e-01 5.02682984e-01 5.02682984e-01 3.36492985e-01
      3.36492985e-01 3.36492985e-01 3.36492985e-01 3.36492985e-01
      3.36492985e-01 3.36492985e-01 3.01364005e-01 3.36492985e-01
      3.66097003e-01 3.66097003e-01 2.97861993e-01 2.17374995e-01
      3.16127002e-01 3.66097003e-01 3.66097003e-01 3.66097003e-01
      3.00493985e-01</_>
    <_>
      3.32778990e-01 3.32778990e-01 3.32778990e-01 3.32778990e-01
      3.32778990e-01 3.32778990e-01 3.32778990e-01 3.32778990e-01
      3.32778990e-01 3.64374995e-01 3.64374995e-01 1.10857002e-01
      2.33853996e-01 3.64374995e-01 3.64374995e-01 3.64374995e-01
      3.64374995e-01 3.64374995e-01 1.50836006e-01 8.77930000e-02
      5.41294992e-01 5.41294992e-01 4.64334011e-01 9.50725004e-02
      1.77626997e-01 2.24607006e-01 2.67376989e-01 3.40074986e-01
      3.40074986e-01 3.40074986e-01 3.40074986e-01 3.40074986e-01
      3.40074986e-01 3.40074986e-01 3.40074986e-01 2.67199010e-01
      3.34719002e-01 3.34719002e-01 3.16798002e-01 3.34719002e-01
      3.34719002e-01 3.34719002e-01 3.34719002e-01 3.34719002e-01
      3.34719002e-01 3.48091990e-01 3.48091990e-01 3.48091990e-01
      2.86253005e-01 2.57687986e-01 3.48091990e-01 3.48091990e-01
      3.48091990e-01 3.48091990e-01 2.86911011e-01 9.93700996e-02
      3.20969999e-01 3.65307987e-01 1.41237006e-01 1.18528001e-01
      3.00619990e-01 5.20466030e-01 5.20466030e-01 3.42896014e-01
      3.42896014e-01 3.42896014e-01 3.42896014e-01 3.42896014e-01
      3.42896014e-01 3.11969012e-01 2.76053995e-01 3.42896014e-01
      3.74877006e-01 3.74877006e-01 2.71418005e-01 2.38501996e-01
      2.98094004e-01 3.74877006e-01 3.74877006e-01 3.74877006e-01
      2.72359997e-01</_>
    <_>
      3.32778990e-01 3.32778990e-01 3.32778990e-01 3.32778990e-01
      3.32778990e-01 3.32778990e-01 3.32778990e-01 3.32778990e-01
      3.32778990e-01 3.64755988e-01 3.64755988e-01 1.23586997e-01
      2.23058999e-01 3.64755988e-01 3.64755988e-01 3.64755988e-01
      3.64755988e-01 3.64755988e-01 1.79029003e-01 1.13416001e-01
      5.39774001e-01 5.39774001e-01 4.32563990e-01 1.40424997e-01
      1.84377998e-01 2.34173998e-01 2.67058998e-01 3.37467015e-01
      3.37467015e-01 3.37467015e-01 3.37467015e-01 3.37467015e-01
      3.37467015e-01 3.37467015e-01 3.37467015e-01 2.92504996e-01
      3.35635006e-01 3.35635006e-01 3.08932006e-01 3.35635006e-01
      3.35635006e-01 3.35635006e-01 3.35635006e-01 3.35635006e-01
      3.35635006e-01 3.50080997e-01 3.50080997e-01 3.50080997e-01
      2.65776992e-01 2.60704994e-01 3.50080997e-01 3.50080997e-01
      3.50080997e-01 3.50080997e-01 2.59766012e-01 1.05792001e-01
      3.06906998e-01 3.79864007e-01 1.73293993e-01 1.18551001e-01
      2.19881997e-01 5.40835977e-01 5.40835977e-01 3.43015999e-01
      3.43015999e-01 3.43015999e-01 3.43015999e-01 3.43015999e-01
      3.43015999e-01 2.84195006e-01 3.03618997e-01 3.43015999e-01
      3.69199991e-01 3.69199991e-01 2.69836992e-01 2.32685998e-01
      3.51758987e-01 3.69199991e-01 3.69199991e-01 3.69199991e-01
      2.53138989e-01</_>
    <_>
      3.34417999e-01 3.19339007e-01 3.34417999e-01 3.34417999e-01
      3.34417999e-01 3.34417999e-01 3.34417999e-01 3.34417999e-01
      3.34417999e-01 3.55042994e-01 3.55042994e-01 1.70968994e-01
      2.91258991e-01 3.55042994e-01 3.55042994e-01 3.55042994e-01
      3.55042994e-01 3.55042994e-01 1.85635999e-01 1.53194994e-01
      4.87237990e-01 4.87237990e-01 4.87237990e-01 1.54949993e-01
      1.87864006e-01 2.09214002e-01 3.49184006e-01 3.37814987e-01
      3.37814987e-01 3.37814987e-01 3.37814987e-01 3.14458996e-01
      3.37814987e-01 3.37814987e-01 3.37814987e-01 3.14498007e-01
      3.32778990e-01 3.32778990e-01 3.32778990e-01 3.32778990e-01
      3.32778990e-01 3.32778990e-01 3.32778990e-01 3.32778990e-01
      3.32778990e-01 3.48426998e-01 3.48426998e-01 3.48426998e-01
      2.50532001e-01 2.89732009e-01 3.48426998e-01 3.48426998e-01
      3.48426998e-01 3.48426998e-01 2.89095998e-01 1.11004002e-01
      3.04648012e-01 3.56243014e-01 1.64335996e-01 1.47811994e-01
      3.75642985e-01 4.94711995e-01 4.94711995e-01 3.39444011e-01
      3.39444011e-01 3.39444011e-01 3.39444011e-01 3.39444011e-01
      3.39444011e-01 3.34264010e-01 2.79854000e-01 3.39444011e-01
      3.70375991e-01 3.70375991e-01 3.22961003e-01 2.53241003e-01
      2.79154003e-01 3.70375991e-01 3.70375991e-01 3.70375991e-01
      2.53077000e-01</_>
    <_>
      3.32778990e-01 3.32778990e-01 3.32778990e-01 3.32778990e-01
      3.32778990e-01 3.32778990e-01 3.32778990e-01 3.32778990e-01
      3.32778990e-01 3.52649987e-01 3.52649987e-01 1.71054006e-01
      3.10941994e-01 3.52649987e-01 3.52649987e-01 3.52649987e-01
      3.52649987e-01 3.52649987e-01 1.73531994e-01 1.45706996e-01
      4.91874009e-01 4.91874009e-01 4.91874009e-01 1.65291995e-01
      1.74090996e-01 2.69470990e-01 2.96106994e-01 3.39139998e-01
      3.39139998e-01 3.39139998e-01 3.39139998e-01 3.39139998e-01
      3.39139998e-01 3.39139998e-01 3.39139998e-01 2.76555985e-01
      3.32778990e-01 3.32778990e-01 3.32778990e-01 3.32778990e-01
      3.32778990e-01 3.32778990e-01 3.32778990e-01 3.32778990e-01
      3.32778990e-01 3.47570986e-01 3.47570986e-01 3.47570986e-01
      2.52099007e-01 2.95527011e-01 3.47570986e-01 3.47570986e-01
      3.47570986e-01 3.47570986e-01 2.80357987e-01 1.06665000e-01
      2.94638991e-01 3.46121013e-01 1.48918003e-01 1.79932997e-01
      4.07353014e-01 4.88896012e-01 4.88896012e-01 3.36979002e-01
      3.36979002e-01 3.36979002e-01 3.36979002e-01 3.36979002e-01
      3.36979002e-01 3.34670991e-01 2.99576998e-01 3.36979002e-01
      3.69996011e-01 3.69996011e-01 3.43647987e-01 2.10012004e-01
      3.07244003e-01 3.69996011e-01 3.69996011e-01 3.69996011e-01
      2.34992996e-01</_>
    <_>
      3.00909996e-01 4.60835010e-01 4.02723014e-01 1.36519998e-01
      2.80490011e-01 4.60835010e-01 4.60835010e-01 4.99729998e-02
      7.58235976e-02 3.37706000e-01 3.37706000e-01 3.37706000e-01
      3.37706000e-01 3.37706000e-01 3.37706000e-01 2.90279001e-01
      3.37706000e-01 3.37706000e-01 3.31945986e-01 3.32881987e-01
      3.32881987e-01 3.32881987e-01 3.32881987e-01 3.32881987e-01
      3.32881987e-01 3.32881987e-01 3.32881987e-01 3.35202992e-01
      3.35202992e-01 3.35202992e-01 3.35202992e-01 3.12671006e-01
      3.35202992e-01 3.35202992e-01 3.35202992e-01 3.35202992e-01
      3.32778990e-01 3.32778990e-01 3.32778990e-01 3.32778990e-01
      3.32778990e-01 3.32778990e-01 3.32778990e-01 3.32778990e-01
      3.32778990e-01 3.32199007e-01 2.97033995e-01 3.37648004e-01
      3.37648004e-01 3.37648004e-01 3.37648004e-01 3.37648004e-01
      3.37648004e-01 3.37648004e-01 3.40927988e-01 3.40927988e-01
      3.40927988e-01 3.40927988e-01 3.40927988e-01 3.40927988e-01
      2.58336991e-01 3.40927988e-01 3.40927988e-01 3.38858992e-01
      3.38858992e-01 2.79305995e-01 3.38858992e-01 3.38858992e-01
      3.38858992e-01 3.38858992e-01 3.38858992e-01 3.38858992e-01
      5.36087990e-01 5.36087990e-01 1.18362002e-01 7.50468969e-02
      1.43913999e-01 5.19833028e-01 2.58935988e-01 1.51774004e-01
      1.38573006e-01</_>
    <_>
      2.39960000e-01 4.47715014e-01 2.69728988e-01 1.52061000e-01
      4.47715014e-01 4.47715014e-01 4.47715014e-01 1.66939005e-01
      1.11380003e-01 3.32778990e-01 3.32778990e-01 3.32778990e-01
      3.32778990e-01 3.32778990e-01 3.32778990e-01 3.32778990e-01
      3.32778990e-01 3.32778990e-01 2.90468991e-01 3.37686002e-01
      3.37686002e-01 3.37686002e-01 3.37686002e-01 3.37686002e-01
      3.37686002e-01 3.37686002e-01 3.37686002e-01 3.34800988e-01
      3.34800988e-01 3.34800988e-01 3.34800988e-01 3.16103011e-01
      3.34800988e-01 3.34800988e-01 3.34800988e-01 3.34800988e-01
      3.32778990e-01 3.32778990e-01 3.32778990e-01 3.32778990e-01
      3.32778990e-01 3.32778990e-01 3.32778990e-01 3.32778990e-01
      3.32778990e-01 3.32778990e-01 3.32778990e-01 3.32778990e-01
      3.32778990e-01 3.32778990e-01 3.32778990e-01 3.32778990e-01
      3.32778990e-01 3.32778990e-01 3.32282007e-01 3.35146010e-01
      3.35146010e-01 3.35146010e-01 3.35146010e-01 3.35146010e-01
      3.16195011e-01 3.35146010e-01 3.35146010e-01 3.45216990e-01
      3.35824013e-01 2.22601995e-01 3.45216990e-01 3.45216990e-01
      3.45216990e-01 3.45216990e-01 3.45216990e-01 3.45216990e-01
      4.49772000e-01 4.49772000e-01 3.40923995e-01 5.37401997e-02
      2.11541995e-01 4.49772000e-01 4.17685986e-01 9.23791975e-02
      2.04356000e-01</_>
    <_>
      2.63810009e-01 4.51207012e-01 2.26010993e-01 1.53007001e-01
      4.51207012e-01 4.51207012e-01 4.51207012e-01 1.38014004e-01
      1.34182006e-01 3.32778990e-01 3.32778990e-01 3.32778990e-01
      3.32778990e-01 3.32778990e-01 3.32778990e-01 3.32778990e-01
      3.32778990e-01 3.32778990e-01 3.10797989e-01 3.35420012e-01
      3.35420012e-01 3.35420012e-01 3.35420012e-01 3.35420012e-01
      3.35420012e-01 3.35420012e-01 3.35420012e-01 3.32778990e-01
      3.32778990e-01 3.32778990e-01 3.32778990e-01 3.32778990e-01
      3.32778990e-01 3.32778990e-01 3.32778990e-01 3.32778990e-01
      3.32778990e-01 3.32778990e-01 3.32778990e-01 3.32778990e-01
      3.32778990e-01 3.32778990e-01 3.32778990e-01 3.32778990e-01
      3.32778990e-01 3.28687996e-01 3.33285987e-01 3.33285987e-01
      3.33285987e-01 3.33285987e-01 3.33285987e-01 3.33285987e-01
      3.33285987e-01 3.33285987e-01 3.37424010e-01 3.37424010e-01
      3.37424010e-01 3.37424010e-01 3.37424010e-01 3.37424010e-01
      2.92896986e-01 3.37424010e-01 3.37424010e-01 3.44680011e-01
      3.44680011e-01 2.45654002e-01 3.23386014e-01 3.44680011e-01
      3.44680011e-01 3.44680011e-01 3.44680011e-01 3.44680011e-01
      4.69574988e-01 4.69574988e-01 3.07390988e-01 8.21205974e-02
      2.24984005e-01 4.69574988e-01 3.60249013e-01 8.68522003e-02
      2.11269006e-01</_>
    <_>
      3.08155000e-01 3.91737998e-01 3.91737998e-01 2.25505993e-01
      3.91737998e-01 3.91737998e-01 3.91737998e-01 2.43150994e-01
      1.54459998e-01 3.32778990e-01 3.32778990e-01 3.32778990e-01
      3.32778990e-01 3.32778990e-01 3.32778990e-01 3.32778990e-01
      3.32778990e-01 3.32778990e-01 1.99176997e-01 3.50315005e-01
      3.50315005e-01 3.50315005e-01 3.50315005e-01 3.50315005e-01
      3.50315005e-01 3.50315005e-01 3.12703997e-01 3.34598005e-01
      3.34598005e-01 3.34598005e-01 3.34598005e-01 3.34598005e-01
      3.34598005e-01 3.34598005e-01 3.17822993e-01 3.34598005e-01
      3.32778990e-01 3.32778990e-01 3.32778990e-01 3.32778990e-01
      3.32778990e-01 3.32778990e-01 3.32778990e-01 3.32778990e-01
      3.32778990e-01 3.24939013e-01 3.42150003e-01 3.42150003e-01
      2.67446995e-01 3.42150003e-01 3.42150003e-01 3.42150003e-01
      3.42150003e-01 3.42150003e-01 3.32778990e-01 3.32778990e-01
      3.32778990e-01 3.32778990e-01 3.32778990e-01 3.32778990e-01
      3.32778990e-01 3.32778990e-01 3.32778990e-01 3.43308985e-01
      3.43308985e-01 2.31685996e-01 3.43308985e-01 3.43308985e-01
      3.43308985e-01 3.43308985e-01 3.43308985e-01 3.43308985e-01
      3.97309989e-01 3.97309989e-01 3.97309989e-01 5.35004996e-02
      3.61362010e-01 3.97309989e-01 3.97309989e-01 9.81763005e-02
      2.52335012e-01</_>
    <_>
      2.56568998e-01 4.04523998e-01 4.00703013e-01 1.83866993e-01
      4.04523998e-01 4.04523998e-01 4.04523998e-01 2.51791000e-01
      1.33433998e-01 3.32778990e-01 3.32778990e-01 3.32778990e-01
      3.32778990e-01 3.32778990e-01 3.32778990e-01 3.32778990e-01
      3.32778990e-01 3.32778990e-01 1.81539997e-01 3.47793996e-01
      3.47793996e-01 3.47793996e-01 3.47793996e-01 3.47793996e-01
      3.47793996e-01 3.47793996e-01 3.41825008e-01 3.32778990e-01
      3.32778990e-01 3.32778990e-01 3.32778990e-01 3.32778990e-01
      3.32778990e-01 3.32778990e-01 3.32778990e-01 3.32778990e-01
      3.39928001e-01 3.39928001e-01 2.68687993e-01 3.39928001e-01
      3.39928001e-01 3.39928001e-01 3.39928001e-01 3.39928001e-01
      3.39928001e-01 2.52857000e-01 3.50506991e-01 3.50506991e-01
      2.69396991e-01 3.50506991e-01 3.50506991e-01 3.50506991e-01
      3.50506991e-01 3.50506991e-01 3.32778990e-01 3.32778990e-01
      3.32778990e-01 3.32778990e-01 3.32778990e-01 3.32778990e-01
      3.32778990e-01 3.32778990e-01 3.32778990e-01 3.46130997e-01
      3.46130997e-01 1.95163995e-01 3.46130997e-01 3.46130997e-01
      3.46130997e-01 3.46130997e-01 3.46130997e-01 3.46130997e-01
      4.13953006e-01 4.13953006e-01 4.13953006e-01 4.83755991e-02
      2.34942004e-01 4.13953006e-01 4.13953006e-01 1.59327999e-01
      2.36968994e-01</_>
    <_>
      2.57925004e-01 4.05835986e-01 4.05835986e-01 2.09395006e-01
      4.00599003e-01 4.05835986e-01 4.05835986e-01 1.84683993e-01
      1.79373994e-01 3.32778990e-01 3.32778990e-01 3.32778990e-01
      3.32778990e-01 3.32778990e-01 3.32778990e-01 3.32778990e-01
      3.32778990e-01 3.32778990e-01 2.01056004e-01 2.67556995e-01
      3.57048988e-01 3.57048988e-01 3.57048988e-01 3.57048988e-01
      3.57048988e-01 3.57048988e-01 3.45717013e-01 3.37325990e-01
      3.37325990e-01 3.37325990e-01 3.37325990e-01 3.37325990e-01
      3.37325990e-01 3.37325990e-01 2.93801010e-01 3.37325990e-01
      3.38595003e-01 3.38595003e-01 2.81856000e-01 3.38595003e-01
      3.38595003e-01 3.38595003e-01 3.38595003e-01 3.38595003e-01
      3.38595003e-01 1.85305998e-01 3.62091005e-01 3.62091005e-01
      2.22613007e-01 3.54723006e-01 3.62091005e-01 3.62091005e-01
      3.62091005e-01 3.62091005e-01 3.41551006e-01 3.41551006e-01
      3.41551006e-01 3.41551006e-01 3.41551006e-01 2.51652002e-01
      3.41551006e-01 3.41551006e-01 3.41551006e-01 3.45086992e-01
      3.45086992e-01 2.09455997e-01 3.45086992e-01 3.45086992e-01
      3.45086992e-01 3.45086992e-01 3.45086992e-01 3.45086992e-01
      4.08288002e-01 4.08288002e-01 4.07678008e-01 7.99164027e-02
      2.60562003e-01 4.08288002e-01 4.08288002e-01 1.68924004e-01
      2.45168999e-01</_>
    <_>
      3.45836997e-01 3.45836997e-01 3.45836997e-01 2.41356999e-01
      3.45836997e-01 3.45836997e-01 3.45836997e-01 3.45836997e-01
      3.17910999e-01 3.50230992e-01 2.94295996e-01 2.41938993e-01
      3.50230992e-01 3.50230992e-01 3.50230992e-01 3.39686006e-01
      3.50230992e-01 3.50230992e-01 3.17732990e-01 3.46284002e-01
      3.46284002e-01 3.46284002e-01 3.21303993e-01 3.32668006e-01
      3.46284002e-01 3.46284002e-01 2.86563009e-01 3.40516001e-01
      3.40516001e-01 3.40516001e-01 3.40516001e-01 3.40516001e-01
      3.40516001e-01 3.40516001e-01 2.86403000e-01 3.20802987e-01
      3.44843000e-01 3.44843000e-01 2.78699994e-01 3.44843000e-01
      3.44843000e-01 3.44843000e-01 2.94052005e-01 3.44843000e-01
      3.44843000e-01 2.30182007e-01 3.65906000e-01 3.65906000e-01
      3.33261013e-01 2.65130997e-01 3.56361985e-01 3.65906000e-01
      3.65906000e-01 3.15373003e-01 3.55450004e-01 3.55450004e-01
      3.55450004e-01 3.55450004e-01 3.55450004e-01 2.56482005e-01
      2.15059996e-01 3.55450004e-01 3.55450004e-01 3.71183991e-01
      3.37859988e-01 2.66820997e-01 2.79347003e-01 3.71183991e-01
      3.71183991e-01 3.71183991e-01 2.09830001e-01 3.71183991e-01
      4.24010009e-01 4.24010009e-01 3.78147990e-01 1.58482999e-01
      3.06241989e-01 4.24010009e-01 4.01710004e-01 8.23585987e-02
      1.62358001e-01</_>
    <_>
      3.34024012e-01 3.34024012e-01 3.34024012e-01 3.33056986e-01
      3.34024012e-01 3.34024012e-01 3.34024012e-01 3.34024012e-01
      3.23621005e-01 3.37983996e-01 2.87676007e-01 3.37983996e-01
      3.37983996e-01 3.37983996e-01 3.37983996e-01 3.37983996e-01
      3.37983996e-01 3.37983996e-01 3.32917988e-01 2.83971995e-01
      3.71643990e-01 3.89999986e-01 2.87579000e-01 1.86611995e-01
      3.04439008e-01 3.89999986e-01 3.89999986e-01 3.46047997e-01
      3.46047997e-01 3.46047997e-01 3.46047997e-01 3.46047997e-01
      3.46047997e-01 3.46047997e-01 2.74884999e-01 2.87638992e-01
      3.36528987e-01 3.36528987e-01 3.36528987e-01 3.36528987e-01
      3.36528987e-01 3.36528987e-01 3.06133986e-01 3.31898987e-01
      3.36528987e-01 2.56662011e-01 3.99475008e-01 3.99475008e-01
      2.77745992e-01 1.73522994e-01 2.01882005e-01 3.99475008e-01
      3.99475008e-01 3.79213005e-01 3.63121986e-01 3.60857993e-01
      3.63121986e-01 3.63121986e-01 3.53830993e-01 1.79971993e-01
      2.21992999e-01 3.63121986e-01 3.63121986e-01 3.52147013e-01
      3.04338008e-01 3.32311004e-01 3.52147013e-01 3.52147013e-01
      3.52147013e-01 3.52147013e-01 2.22224995e-01 3.52147013e-01
      4.12993997e-01 4.12993997e-01 4.12993997e-01 1.40681997e-01
      2.41206005e-01 4.12993997e-01 4.12993997e-01 1.64865002e-01
      1.94689006e-01</_>
    <_>
      3.33191991e-01 3.33191991e-01 3.33191991e-01 3.33191991e-01
      3.33191991e-01 3.33191991e-01 3.33191991e-01 3.29447001e-01
      3.33191991e-01 3.45272005e-01 2.32687995e-01 3.45272005e-01
      3.45272005e-01 3.45272005e-01 3.45272005e-01 3.28509003e-01
      3.45272005e-01 3.45272005e-01 2.52967000e-01 3.56422007e-01
      3.80656004e-01 3.80656004e-01 3.10829997e-01 1.66767001e-01
      3.42422009e-01 3.80656004e-01 3.58875990e-01 3.36944997e-01
      3.36944997e-01 3.36944997e-01 3.36944997e-01 3.36944997e-01
      3.36944997e-01 3.36944997e-01 2.97286004e-01 3.36944997e-01
      3.41738999e-01 3.41738999e-01 3.12124997e-01 3.41738999e-01
      3.41738999e-01 3.41738999e-01 2.85766989e-01 3.41738999e-01
      3.41738999e-01 1.68204993e-01 3.92614990e-01 3.92614990e-01
      3.27315003e-01 1.77991003e-01 3.48601997e-01 3.92614990e-01
      3.92614990e-01 3.01432014e-01 3.87212008e-01 2.30166003e-01
      3.87212008e-01 3.87212008e-01 3.87212008e-01 1.41828001e-01
      1.53105006e-01 3.87212008e-01 3.87212008e-01 3.67545009e-01
      2.38325998e-01 2.94241011e-01 3.67545009e-01 3.67545009e-01
      3.67545009e-01 3.43057990e-01 2.44570002e-01 3.67545009e-01
      3.89923006e-01 3.89923006e-01 2.89232999e-01 2.90091991e-01
      3.89923006e-01 3.89923006e-01 3.89923006e-01 1.60084993e-01
      2.06082001e-01</_>
    <_>
      3.31497014e-01 3.32937986e-01 3.32937986e-01 3.32937986e-01
      3.32937986e-01 3.32937986e-01 3.32937986e-01 3.32937986e-01
      3.32937986e-01 3.45479012e-01 2.04205006e-01 3.45479012e-01
      3.45479012e-01 3.45479012e-01 3.45479012e-01 3.45479012e-01
      3.45479012e-01 3.45479012e-01 3.27688992e-01 2.92724013e-01
      3.25753987e-01 4.05346006e-01 3.61689001e-01 1.66578993e-01
      3.05821002e-01 4.05346006e-01 3.40678990e-01 3.32778990e-01
      3.32778990e-01 3.32778990e-01 3.32778990e-01 3.32778990e-01
      3.32778990e-01 3.32778990e-01 3.32778990e-01 3.32778990e-01
      3.43028992e-01 3.43028992e-01 2.85840005e-01 3.43028992e-01
      3.43028992e-01 3.43028992e-01 3.01968008e-01 3.43028992e-01
      3.43028992e-01 2.71894991e-01 3.80623996e-01 3.80623996e-01
      3.80623996e-01 1.77114993e-01 2.71596014e-01 3.80623996e-01
      3.80623996e-01 3.04569006e-01 3.77719015e-01 2.96878010e-01
      3.77719015e-01 3.77719015e-01 3.77719015e-01 1.47631004e-01
      1.73975006e-01 3.77719015e-01 3.77719015e-01 3.62742990e-01
      2.53143013e-01 3.02062005e-01 3.62742990e-01 3.62742990e-01
      3.62742990e-01 3.62742990e-01 2.27066994e-01 3.62742990e-01
      3.97857994e-01 3.97857994e-01 2.40097001e-01 3.08427989e-01
      3.97857994e-01 3.97857994e-01 3.94389004e-01 1.40328005e-01
      1.86686993e-01</_>
    <_>
      3.32778990e-01 3.32778990e-01 3.32778990e-01 3.32778990e-01
      3.32778990e-01 3.32778990e-01 3.32778990e-01 3.32778990e-01
      3.32778990e-01 3.43153000e-01 2.33537003e-01 3.43153000e-01
      3.43153000e-01 3.43153000e-01 3.43153000e-01 3.43153000e-01
      3.43153000e-01 3.43153000e-01 1.85297996e-01 3.77608001e-01
      3.77608001e-01 3.77608001e-01 3.69195014e-01 1.70935005e-01
      3.77608001e-01 3.77608001e-01 2.88843006e-01 3.38059992e-01
      3.38059992e-01 3.38059992e-01 3.38059992e-01 3.38059992e-01
      3.38059992e-01 3.38059992e-01 2.91235000e-01 3.34385008e-01
      3.42435986e-01 3.42435986e-01 3.02805007e-01 3.42435986e-01
      3.42435986e-01 3.42435986e-01 2.89916992e-01 3.42435986e-01
      3.42435986e-01 1.66582003e-01 4.08670008e-01 4.08670008e-01
      2.90648997e-01 1.91337004e-01 3.13484013e-01 4.08670008e-01
      4.08670008e-01 2.84193993e-01 3.84617001e-01 2.61337996e-01
      3.84617001e-01 3.84617001e-01 3.84617001e-01 1.10423997e-01
      1.67584002e-01 3.84617001e-01 3.84617001e-01 3.63025993e-01
      2.53544003e-01 2.94129014e-01 3.63025993e-01 3.63025993e-01
      3.63025993e-01 3.63025993e-01 2.34197006e-01 3.63025993e-01
      4.10836011e-01 4.10836011e-01 2.11212993e-01 2.66921014e-01
      3.95545989e-01 4.10836011e-01 4.10836011e-01 1.46284997e-01
      1.64434999e-01</_>
    <_>
      3.35090011e-01 3.35090011e-01 3.35090011e-01 3.35090011e-01
      3.21478009e-01 3.35090011e-01 3.35090011e-01 3.35090011e-01
      3.27578992e-01 3.37262988e-01 2.94378012e-01 3.37262988e-01
      3.37262988e-01 3.37262988e-01 3.37262988e-01 3.37262988e-01
      3.37262988e-01 3.37262988e-01 3.75366002e-01 1.74696997e-01
      3.75366002e-01 3.75366002e-01 3.75366002e-01 1.89290002e-01
      2.90688992e-01 3.75366002e-01 3.75366002e-01 3.33934009e-01
      3.33934009e-01 3.33934009e-01 3.33934009e-01 3.33934009e-01
      3.33934009e-01 3.33934009e-01 3.33934009e-01 3.23368013e-01
      3.32778990e-01 3.32778990e-01 3.32778990e-01 3.32778990e-01
      3.32778990e-01 3.32778990e-01 3.32778990e-01 3.32778990e-01
      3.32778990e-01 3.33357006e-01 3.33357006e-01 3.33357006e-01
      3.30152005e-01 3.31331015e-01 3.33357006e-01 3.33357006e-01
      3.33357006e-01 3.33357006e-01 3.68452996e-01 2.73557991e-01
      3.68452996e-01 3.68452996e-01 3.68452996e-01 2.11174995e-01
      2.49689996e-01 3.68452996e-01 3.68452996e-01 3.49644989e-01
      3.19357991e-01 3.15326989e-01 3.49644989e-01 3.49644989e-01
      3.49644989e-01 3.49644989e-01 2.48146996e-01 3.49644989e-01
      4.60678011e-01 4.60678011e-01 1.47967994e-01 1.12728000e-01
      2.64488012e-01 4.60678011e-01 4.60678011e-01 1.38741001e-01
      1.50655001e-01</_>
    <_>
      3.80174994e-01 3.93509001e-01 3.93509001e-01 1.34999007e-01
      1.93131000e-01 3.93509001e-01 3.93509001e-01 3.93509001e-01
      1.47527993e-01 3.33440989e-01 3.27419996e-01 3.33440989e-01
      3.33440989e-01 3.33440989e-01 3.33440989e-01 3.33440989e-01
      3.33440989e-01 3.33440989e-01 3.28940004e-01 3.33254993e-01
      3.33254993e-01 3.33254993e-01 3.33254993e-01 3.33254993e-01
      3.33254993e-01 3.33254993e-01 3.33254993e-01 3.54505986e-01
      3.54505986e-01 3.54505986e-01 3.01443994e-01 3.24784011e-01
      3.54505986e-01 3.54505986e-01 3.54505986e-01 2.14616001e-01
      3.39706004e-01 3.39706004e-01 3.39706004e-01 2.70931989e-01
      3.39706004e-01 3.39706004e-01 3.39706004e-01 3.39706004e-01
      3.39706004e-01 3.77584994e-01 3.80454987e-01 3.80454987e-01
      1.87303007e-01 1.67473003e-01 3.80454987e-01 3.80454987e-01
      3.80454987e-01 2.58397996e-01 3.32778990e-01 3.32778990e-01
      3.32778990e-01 3.32778990e-01 3.32778990e-01 3.32778990e-01
      3.32778990e-01 3.32778990e-01 3.32778990e-01 3.56768012e-01
      3.56768012e-01 3.56768012e-01 2.66315997e-01 3.56768012e-01
      3.56768012e-01 3.56768012e-01 1.85809001e-01 3.56768012e-01
      4.82291013e-01 4.82291013e-01 1.41591996e-01 9.67376009e-02
      1.43946007e-01 4.82291013e-01 4.82291013e-01 8.91150981e-02
      8.18317980e-02</_>
    <_>
      3.65559995e-01 3.90836000e-01 3.90836000e-01 1.47093996e-01
      2.07703993e-01 3.90836000e-01 3.90836000e-01 3.90836000e-01
      1.84175000e-01 3.34178001e-01 3.21341991e-01 3.34178001e-01
      3.34178001e-01 3.34178001e-01 3.34178001e-01 3.34178001e-01
      3.34178001e-01 3.34178001e-01 3.36396992e-01 3.09504002e-01
      3.36396992e-01 3.36396992e-01 3.36396992e-01 3.29708010e-01
      3.36396992e-01 3.36396992e-01 3.36396992e-01 3.58806998e-01
      3.58806998e-01 3.58806998e-01 2.81439990e-01 2.85939991e-01
      3.58806998e-01 3.58806998e-01 3.58806998e-01 2.50977010e-01
      3.39610010e-01 3.39610010e-01 3.39610010e-01 2.71894008e-01
      3.39610010e-01 3.39610010e-01 3.39610010e-01 3.39610010e-01
      3.39610010e-01 3.79844010e-01 3.83515000e-01 3.83515000e-01
      1.78829998e-01 1.49444997e-01 3.64609987e-01 3.83515000e-01
      3.83515000e-01 2.76219994e-01 3.32778990e-01 3.32778990e-01
      3.32778990e-01 3.32778990e-01 3.32778990e-01 3.32778990e-01
      3.32778990e-01 3.32778990e-01 3.32778990e-01 3.57639998e-01
      3.48405004e-01 3.57639998e-01 2.74435014e-01 3.57639998e-01
      3.57639998e-01 3.57639998e-01 1.79690003e-01 3.57639998e-01
      4.80152011e-01 4.80152011e-01 1.60998002e-01 1.02248996e-01
      1.35903999e-01 4.80152011e-01 4.80152011e-01 1.13039002e-01
      7.34718964e-02</_>
    <_>
      3.75230014e-01 3.93092990e-01 3.93092990e-01 1.62801996e-01
      2.05789000e-01 3.93092990e-01 3.93092990e-01 3.45234007e-01
      2.21692994e-01 3.32778990e-01 3.32778990e-01 3.32778990e-01
      3.32778990e-01 3.32778990e-01 3.32778990e-01 3.32778990e-01
      3.32778990e-01 3.32778990e-01 3.02702993e-01 2.99163997e-01
      3.41313004e-01 3.41313004e-01 3.41313004e-01 3.41313004e-01
      3.41313004e-01 3.41313004e-01 3.41313004e-01 3.50017011e-01
      3.50017011e-01 3.50017011e-01 2.79442012e-01 2.84384996e-01
      3.50017011e-01 3.50017011e-01 3.50017011e-01 3.20107996e-01
      3.36838990e-01 3.36838990e-01 3.36838990e-01 2.98249990e-01
      3.36838990e-01 3.36838990e-01 3.36838990e-01 3.36838990e-01
      3.36838990e-01 3.74850005e-01 3.75135988e-01 3.75135988e-01
      2.10045993e-01 1.75512001e-01 3.75135988e-01 3.75135988e-01
      3.75135988e-01 2.77812004e-01 3.32778990e-01 3.32778990e-01
      3.32778990e-01 3.32778990e-01 3.32778990e-01 3.32778990e-01
      3.32778990e-01 3.32778990e-01 3.32778990e-01 3.54896992e-01
      3.54896992e-01 3.54896992e-01 2.81684995e-01 3.54896992e-01
      3.54896992e-01 3.54896992e-01 1.88261002e-01 3.54896992e-01
      4.80702996e-01 4.80702996e-01 1.51577994e-01 7.87483007e-02
      1.44682005e-01 4.80702996e-01 4.80702996e-01 1.24941997e-01
      7.19593987e-02</_>
    <_>
      3.76082003e-01 4.07772005e-01 4.07772005e-01 1.52216002e-01
      2.09935993e-01 4.07772005e-01 4.07772005e-01 2.58983999e-01
      2.34653994e-01 3.32778990e-01 3.32778990e-01 3.32778990e-01
      3.32778990e-01 3.32778990e-01 3.32778990e-01 3.32778990e-01
      3.32778990e-01 3.32778990e-01 2.93049008e-01 3.17216992e-01
      3.40517014e-01 3.40517014e-01 3.40517014e-01 3.40517014e-01
      3.40517014e-01 3.40517014e-01 3.38207006e-01 3.47667992e-01
      3.47667992e-01 3.47667992e-01 2.77283013e-01 2.71164000e-01
      3.47667992e-01 3.47667992e-01 3.47667992e-01 3.47667992e-01
      3.33092004e-01 3.33092004e-01 3.33092004e-01 3.30253005e-01
      3.33092004e-01 3.33092004e-01 3.33092004e-01 3.33092004e-01
      3.33092004e-01 3.66717994e-01 3.76771003e-01 3.76771003e-01
      2.19019994e-01 1.68626994e-01 3.76771003e-01 3.76771003e-01
      3.76771003e-01 2.74897993e-01 3.36894989e-01 3.36894989e-01
      3.36894989e-01 3.36894989e-01 3.36894989e-01 3.36894989e-01
      2.97740012e-01 3.36894989e-01 3.36894989e-01 3.51680994e-01
      3.51680994e-01 3.51680994e-01 2.72013992e-01 3.51680994e-01
      3.51680994e-01 3.51680994e-01 2.38199994e-01 3.51680994e-01
      4.79039997e-01 4.79039997e-01 1.46667004e-01 5.51659018e-02
      1.51288003e-01 4.79039997e-01 4.79039997e-01 1.48805007e-01
      8.78112018e-02</_>
    <_>
      3.76612008e-01 4.05333996e-01 4.05333996e-01 1.44185007e-01
      2.61916995e-01 4.05333996e-01 4.05333996e-01 2.28241995e-01
      2.35474005e-01 3.32778990e-01 3.32778990e-01 3.32778990e-01
      3.32778990e-01 3.32778990e-01 3.32778990e-01 3.32778990e-01
      3.32778990e-01 3.32778990e-01 3.32778990e-01 3.32778990e-01
      3.32778990e-01 3.32778990e-01 3.32778990e-01 3.32778990e-01
      3.32778990e-01 3.32778990e-01 3.32778990e-01 3.42092991e-01
      3.42092991e-01 3.42092991e-01 3.42092991e-01 3.39132994e-01
      3.42092991e-01 3.42092991e-01 3.02457988e-01 2.96517998e-01
      3.32778990e-01 3.32778990e-01 3.32778990e-01 3.32778990e-01
      3.32778990e-01 3.32778990e-01 3.32778990e-01 3.32778990e-01
      3.32778990e-01 3.53478998e-01 3.53478998e-01 3.53478998e-01
      2.65552998e-01 2.28267998e-01 3.53478998e-01 3.53478998e-01
      3.53478998e-01 3.52360994e-01 3.60933006e-01 3.60933006e-01
      3.60933006e-01 3.60933006e-01 3.46973985e-01 2.15562999e-01
      2.18862996e-01 3.60933006e-01 3.60933006e-01 3.46240997e-01
      3.46240997e-01 3.46240997e-01 3.11574996e-01 3.46240997e-01
      3.46240997e-01 3.46240997e-01 2.45523006e-01 3.46240997e-01
      4.74907994e-01 4.74907994e-01 1.30851001e-01 5.78879006e-02
      2.18825996e-01 4.74907994e-01 4.44781005e-01 1.53771996e-01
      1.69738993e-01</_>
    <_>
      3.96831006e-01 3.96831006e-01 3.96831006e-01 1.68926999e-01
      2.91272014e-01 3.96831006e-01 3.96831006e-01 2.58785009e-01
      1.68271005e-01 3.32778990e-01 3.32778990e-01 3.32778990e-01
      3.32778990e-01 3.32778990e-01 3.32778990e-01 3.32778990e-01
      3.32778990e-01 3.32778990e-01 3.04466009e-01 3.25231999e-01
      3.37671012e-01 3.37671012e-01 3.37671012e-01 3.37671012e-01
      3.37671012e-01 3.37671012e-01 3.37671012e-01 3.47326994e-01
      3.47326994e-01 3.47326994e-01 3.47326994e-01 3.33231002e-01
      3.47326994e-01 3.47326994e-01 3.03799987e-01 2.63390005e-01
      3.32778990e-01 3.32778990e-01 3.32778990e-01 3.32778990e-01
      3.32778990e-01 3.32778990e-01 3.32778990e-01 3.32778990e-01
      3.32778990e-01 3.42552006e-01 3.53107989e-01 3.53107989e-01
      3.24276000e-01 1.99957997e-01 3.53107989e-01 3.53107989e-01
      3.53107989e-01 3.32516015e-01 3.67410004e-01 3.67410004e-01
      3.67410004e-01 3.67410004e-01 3.13665003e-01 1.82454005e-01
      2.33907998e-01 3.67410004e-01 3.67410004e-01 3.47508997e-01
      3.47508997e-01 3.47508997e-01 3.07586014e-01 3.47508997e-01
      3.47508997e-01 3.47508997e-01 2.37865999e-01 3.47508997e-01
      4.72840995e-01 4.72840995e-01 1.02916002e-01 3.61763015e-02
      1.81681007e-01 4.72840995e-01 4.68475014e-01 1.67955995e-01
      1.78758994e-01</_>
    <_>
      3.20232987e-01 3.86016995e-01 3.86016995e-01 1.84548005e-01
      2.38546997e-01 3.86016995e-01 3.86016995e-01 3.86016995e-01
      2.39975005e-01 3.35602999e-01 3.09208006e-01 3.35602999e-01
      3.35602999e-01 3.35602999e-01 3.35602999e-01 3.35602999e-01
      3.35602999e-01 3.35602999e-01 2.53448009e-01 1.85317993e-01
      3.75506997e-01 3.75506997e-01 3.54804993e-01 2.58368999e-01
      3.75506997e-01 3.75506997e-01 3.75506997e-01 3.02626014e-01
      3.69089007e-01 3.69089007e-01 3.69089007e-01 2.28251994e-01
      3.40306014e-01 3.69089007e-01 3.69089007e-01 2.35986993e-01
      3.32778990e-01 3.32778990e-01 3.32778990e-01 3.32778990e-01
      3.32778990e-01 3.32778990e-01 3.32778990e-01 3.32778990e-01
      3.32778990e-01 3.11659992e-01 3.70142996e-01 3.70142996e-01
      2.94324994e-01 2.25831002e-01 2.76614994e-01 3.70142996e-01
      3.70142996e-01 3.70142996e-01 2.55863011e-01 3.21960002e-01
      4.01903003e-01 4.01903003e-01 1.90558001e-01 1.70604005e-01
      3.39617014e-01 4.01903003e-01 4.01903003e-01 3.40548992e-01
      3.40548992e-01 3.40548992e-01 3.40548992e-01 3.40548992e-01
      3.40548992e-01 3.40548992e-01 2.62313008e-01 3.40548992e-01
      4.34278011e-01 4.34278011e-01 1.75705001e-01 5.59405982e-02
      2.62641013e-01 4.34278011e-01 4.34278011e-01 2.42397994e-01
      2.82018006e-01</_>
    <_>
      3.03828001e-01 4.06722009e-01 4.06722009e-01 1.94441006e-01
      2.39218995e-01 4.06722009e-01 4.06722009e-01 3.12965989e-01
      2.21256003e-01 3.32778990e-01 3.32778990e-01 3.32778990e-01
      3.32778990e-01 3.32778990e-01 3.32778990e-01 3.32778990e-01
      3.32778990e-01 3.32778990e-01 2.13828996e-01 3.27282012e-01
      3.66549999e-01 3.66549999e-01 2.99861014e-01 3.55928004e-01
      3.66549999e-01 3.66549999e-01 2.99104989e-01 3.58702004e-01
      3.58702004e-01 3.58702004e-01 3.58702004e-01 3.58702004e-01
      3.58702004e-01 3.58702004e-01 2.37357005e-01 1.98514000e-01
      3.32778990e-01 3.32778990e-01 3.32778990e-01 3.32778990e-01
      3.32778990e-01 3.32778990e-01 3.32778990e-01 3.32778990e-01
      3.32778990e-01 1.64011002e-01 3.48141998e-01 3.48141998e-01
      3.48141998e-01 3.48141998e-01 3.48141998e-01 3.48141998e-01
      3.48141998e-01 3.48141998e-01 3.30832005e-01 3.87531996e-01
      3.87531996e-01 3.87531996e-01 3.16980004e-01 9.30195004e-02
      1.63234994e-01 3.87531996e-01 3.87531996e-01 3.32783014e-01
      3.32783014e-01 3.32783014e-01 3.32783014e-01 3.32783014e-01
      3.32783014e-01 3.32783014e-01 3.32740009e-01 3.32783014e-01
      4.01746988e-01 4.01746988e-01 4.01746988e-01 1.14211001e-01
      2.15169996e-01 4.01746988e-01 4.01746988e-01 2.65166998e-01
      2.43575007e-01</_>
    <_>
      3.22519988e-01 4.08277005e-01 4.08277005e-01 1.89209998e-01
      2.02099994e-01 4.08277005e-01 4.08277005e-01 3.01898003e-01
      2.39484996e-01 3.34298015e-01 3.20340008e-01 3.34298015e-01
      3.34298015e-01 3.34298015e-01 3.34298015e-01 3.34298015e-01
      3.34298015e-01 3.34298015e-01 2.23591000e-01 3.01883996e-01
      3.67184013e-01 3.67184013e-01 3.22741002e-01 3.67184013e-01
      3.67184013e-01 3.67184013e-01 2.77348012e-01 3.32154006e-01
      3.62129986e-01 3.62129986e-01 3.62129986e-01 3.62129986e-01
      3.62129986e-01 3.62129986e-01 2.60152996e-01 1.77621007e-01
      3.33029002e-01 3.33029002e-01 3.30767989e-01 3.33029002e-01
      3.33029002e-01 3.33029002e-01 3.33029002e-01 3.33029002e-01
      3.33029002e-01 2.05860004e-01 3.45357001e-01 3.45357001e-01
      3.45357001e-01 3.45357001e-01 3.45357001e-01 3.45357001e-01
      3.45357001e-01 3.45357001e-01 3.02751988e-01 3.90363991e-01
      3.90363991e-01 3.90363991e-01 3.27515006e-01 1.14839002e-01
      1.48553997e-01 3.90363991e-01 3.90363991e-01 3.37738007e-01
      3.37738007e-01 3.37738007e-01 3.37738007e-01 3.37738007e-01
      3.37738007e-01 3.37738007e-01 2.89979011e-01 3.37738007e-01
      3.92545015e-01 3.92545015e-01 3.66403997e-01 9.84321982e-02
      2.30333000e-01 3.92545015e-01 3.92545015e-01 2.67776012e-01
      3.33186001e-01</_>
    <_>
      3.69300008e-01 3.69300008e-01 3.69300008e-01 2.76028007e-01
      2.45591998e-01 3.69300008e-01 3.69300008e-01 2.93437988e-01
      3.02960008e-01 3.32778990e-01 3.32778990e-01 3.32778990e-01
      3.32778990e-01 3.32778990e-01 3.32778990e-01 3.32778990e-01
      3.32778990e-01 3.32778990e-01 2.55681008e-01 2.84812987e-01
      3.66517991e-01 3.66517991e-01 2.73820996e-01 3.48405004e-01
      3.66517991e-01 3.66517991e-01 3.40795994e-01 3.33714992e-01
      3.40516001e-01 3.40516001e-01 3.40516001e-01 3.40516001e-01
      3.22957009e-01 3.40516001e-01 3.40516001e-01 2.91929990e-01
      3.34479004e-01 3.18825990e-01 3.34479004e-01 3.34479004e-01
      3.34479004e-01 3.34479004e-01 3.34479004e-01 3.34479004e-01
      3.34479004e-01 3.32778990e-01 3.32778990e-01 3.32778990e-01
      3.32778990e-01 3.32778990e-01 3.32778990e-01 3.32778990e-01
      3.32778990e-01 3.32778990e-01 2.35924006e-01 1.85132995e-01
      4.33353990e-01 4.33353990e-01 3.42893988e-01 1.22519001e-01
      1.48206994e-01 4.33353990e-01 4.33353990e-01 3.45788002e-01
      2.86354005e-01 3.45788002e-01 3.45788002e-01 3.45788002e-01
      3.45788002e-01 3.12801003e-01 3.15097004e-01 3.45788002e-01
      3.82735997e-01 3.82735997e-01 2.61554003e-01 1.48166001e-01
      3.82735997e-01 3.82735997e-01 3.82735997e-01 2.33306006e-01
      3.44886005e-01</_>
    <_>
      3.74217987e-01 3.74217987e-01 3.74217987e-01 2.57692993e-01
      2.47096002e-01 3.74217987e-01 3.74217987e-01 2.94346005e-01
      2.86293000e-01 3.34867001e-01 3.15544993e-01 3.34867001e-01
      3.34867001e-01 3.34867001e-01 3.34867001e-01 3.34867001e-01
      3.34867001e-01 3.34867001e-01 2.57950991e-01 2.76551008e-01
      3.70902985e-01 3.70902985e-01 2.73575008e-01 3.41717005e-01
      3.70902985e-01 3.70902985e-01 3.33743989e-01 3.40525001e-01
      3.40525001e-01 3.40525001e-01 3.40525001e-01 3.40525001e-01
      3.39955986e-01 3.40525001e-01 3.40525001e-01 2.63296008e-01
      3.36046010e-01 3.05332989e-01 3.36046010e-01 3.36046010e-01
      3.36046010e-01 3.36046010e-01 3.36046010e-01 3.36046010e-01
      3.36046010e-01 3.32778990e-01 3.32778990e-01 3.32778990e-01
      3.32778990e-01 3.32778990e-01 3.32778990e-01 3.32778990e-01
      3.32778990e-01 3.32778990e-01 1.84999004e-01 2.09178999e-01
      4.39561009e-01 4.39561009e-01 3.19483012e-01 1.29121006e-01
      1.61344007e-01 4.39561009e-01 4.39561009e-01 3.36118996e-01
      3.08728993e-01 3.36118996e-01 3.36118996e-01 3.36118996e-01
      3.36118996e-01 3.36118996e-01 3.32410008e-01 3.36118996e-01
      3.84487987e-01 3.84487987e-01 3.07193995e-01 1.65775001e-01
      3.67660999e-01 3.84487987e-01 3.84487987e-01 2.19935000e-01
      3.15340012e-01</_>
    <_>
      3.68732005e-01 3.68732005e-01 3.68732005e-01 2.90638000e-01
      2.21386999e-01 3.68732005e-01 3.68732005e-01 2.99912006e-01
      3.05072010e-01 3.33871990e-01 3.33871990e-01 3.33871990e-01
      3.33871990e-01 3.33871990e-01 3.23884994e-01 3.33871990e-01
      3.33871990e-01 3.33871990e-01 2.75471002e-01 3.07116002e-01
      3.64699990e-01 3.64699990e-01 2.93859005e-01 3.08726013e-01
      3.64699990e-01 3.64699990e-01 3.35355997e-01 3.12846005e-01
      3.43400002e-01 3.43400002e-01 3.43400002e-01 3.43400002e-01
      3.43400002e-01 3.43400002e-01 3.43400002e-01 2.70612001e-01
      3.32778990e-01 3.32778990e-01 3.32778990e-01 3.32778990e-01
      3.32778990e-01 3.32778990e-01 3.32778990e-01 3.32778990e-01
      3.32778990e-01 3.32778990e-01 3.32778990e-01 3.32778990e-01
      3.32778990e-01 3.32778990e-01 3.32778990e-01 3.32778990e-01
      3.32778990e-01 3.32778990e-01 2.03571007e-01 1.80179000e-01
      4.42184001e-01 4.42184001e-01 3.20980996e-01 1.07129000e-01
      1.58316001e-01 4.42184001e-01 4.42184001e-01 3.38072985e-01
      2.86837995e-01 3.38072985e-01 3.38072985e-01 3.38072985e-01
      3.38072985e-01 3.38072985e-01 3.38072985e-01 3.38072985e-01
      3.77968997e-01 3.77968997e-01 2.28685006e-01 1.46941006e-01
      3.77968997e-01 3.77968997e-01 3.77968997e-01 2.55284011e-01
      3.77968997e-01</_>
    <_>
      3.58633012e-01 3.58633012e-01 3.58633012e-01 2.01442003e-01
      2.77752995e-01 3.58633012e-01 3.58633012e-01 3.27084005e-01
      3.58633012e-01 3.32778990e-01 3.32778990e-01 3.32778990e-01
      3.32778990e-01 3.32778990e-01 3.32778990e-01 3.32778990e-01
      3.32778990e-01 3.32778990e-01 1.94445997e-01 2.86904007e-01
      3.69937986e-01 3.69937986e-01 3.69937986e-01 3.12905014e-01
      3.69937986e-01 3.69937986e-01 3.06596994e-01 3.37630987e-01
      3.37630987e-01 3.37630987e-01 3.37630987e-01 3.37630987e-01
      3.37630987e-01 3.37630987e-01 3.37630987e-01 2.90978014e-01
      3.36533993e-01 3.01241010e-01 3.36308002e-01 3.36533993e-01
      3.36533993e-01 3.36533993e-01 3.36533993e-01 3.36533993e-01
      3.36533993e-01 1.99958995e-01 3.52885991e-01 3.52885991e-01
      3.52885991e-01 3.52885991e-01 2.91186005e-01 3.52885991e-01
      3.52885991e-01 3.52885991e-01 3.14410001e-01 3.56426001e-01
      3.56426001e-01 3.56426001e-01 3.51767004e-01 2.01315001e-01
      3.13241988e-01 3.56426001e-01 3.56426001e-01 3.57906014e-01
      2.95695007e-01 2.62511998e-01 3.57906014e-01 3.57906014e-01
      3.57906014e-01 3.57906014e-01 2.67387003e-01 3.57906014e-01
      4.01363999e-01 4.01363999e-01 3.77804995e-01 2.62661010e-01
      3.16350013e-01 4.01363999e-01 3.86911988e-01 1.57398999e-01
      1.62575006e-01</_>
    <_>
      3.43167990e-01 3.55538011e-01 3.55538011e-01 1.76802993e-01
      2.98292994e-01 3.55538011e-01 3.55538011e-01 3.55538011e-01
      3.55538011e-01 3.35720986e-01 3.35720986e-01 3.35720986e-01
      3.35720986e-01 3.35720986e-01 3.08185011e-01 3.35720986e-01
      3.35720986e-01 3.35720986e-01 1.96385995e-01 3.00123990e-01
      3.77355009e-01 3.77355009e-01 3.17052007e-01 3.14060986e-01
      3.77355009e-01 3.77355009e-01 3.14393997e-01 3.36219996e-01
      3.36219996e-01 3.36219996e-01 3.36219996e-01 3.36219996e-01
      3.36219996e-01 3.36219996e-01 3.36219996e-01 3.03793013e-01
      3.38117987e-01 2.86413014e-01 3.38117987e-01 3.38117987e-01
      3.38117987e-01 3.38117987e-01 3.38117987e-01 3.38117987e-01
      3.38117987e-01 9.68839005e-02 3.77757013e-01 3.77757013e-01
      3.77757013e-01 3.27840000e-01 2.81847000e-01 3.77757013e-01
      3.77757013e-01 2.93976992e-01 2.82240987e-01 3.61056000e-01
      3.61056000e-01 3.61056000e-01 3.61056000e-01 1.94141999e-01
      3.11242998e-01 3.61056000e-01 3.61056000e-01 3.48686010e-01
      3.02873999e-01 2.55986989e-01 3.48686010e-01 3.48686010e-01
      3.48686010e-01 3.48686010e-01 3.31304997e-01 3.48686010e-01
      4.10122991e-01 4.10122991e-01 3.69913995e-01 2.40006000e-01
      2.92472988e-01 4.10122991e-01 4.10122991e-01 1.44249007e-01
      1.49375007e-01</_>
    <_>
      3.60092998e-01 3.60092998e-01 3.60092998e-01 2.12372005e-01
      3.60092998e-01 3.60092998e-01 3.60092998e-01 2.63700992e-01
      3.22115988e-01 3.68398994e-01 2.34474003e-01 2.71968007e-01
      3.15528989e-01 3.68398994e-01 3.68398994e-01 3.47954988e-01
      3.22290987e-01 3.68398994e-01 3.43910992e-01 3.01039994e-01
      3.02341998e-01 3.43910992e-01 3.43910992e-01 3.27814013e-01
      3.43910992e-01 3.43910992e-01 3.40135992e-01 3.53022009e-01
      3.53022009e-01 3.53022009e-01 3.53022009e-01 3.53022009e-01
      3.53022009e-01 3.53022009e-01 2.59030998e-01 2.38754004e-01
      3.50324005e-01 2.86395013e-01 2.78360993e-01 3.50324005e-01
      3.50324005e-01 3.50324005e-01 3.19402993e-01 3.48340988e-01
      3.50324005e-01 2.97239989e-01 3.42242002e-01 3.42242002e-01
      3.42242002e-01 2.97194004e-01 3.42242002e-01 3.42242002e-01
      3.42242002e-01 3.42242002e-01 3.67936999e-01 3.67936999e-01
      3.67936999e-01 3.67936999e-01 3.67936999e-01 1.66701004e-01
      1.44534007e-01 3.67936999e-01 3.67936999e-01 3.90601009e-01
      2.58040011e-01 1.98266998e-01 3.62167001e-01 3.90601009e-01
      3.90601009e-01 3.18459988e-01 2.17589006e-01 3.90601009e-01
      4.49304998e-01 4.49304998e-01 2.50063986e-01 2.28970006e-01
      3.29349011e-01 4.49304998e-01 3.22955012e-01 1.54779002e-01
      1.95448995e-01</_>
    <_>
      3.74190003e-01 3.74190003e-01 3.74190003e-01 2.66299009e-01
      3.74190003e-01 3.74190003e-01 3.74190003e-01 9.07258019e-02
      2.77498007e-01 3.84021997e-01 1.90455005e-01 2.38197997e-01
      3.76702011e-01 3.84021997e-01 3.84021997e-01 2.72422999e-01
      3.11673999e-01 3.84021997e-01 2.42984995e-01 8.73391032e-02
      2.41007999e-01 3.81103009e-01 3.81103009e-01 3.81103009e-01
      3.81103009e-01 3.81103009e-01 3.81103009e-01 3.64037991e-01
      3.64037991e-01 3.64037991e-01 3.64037991e-01 3.64037991e-01
      3.64037991e-01 3.64037991e-01 1.49847001e-01 2.15044007e-01
      3.49079013e-01 3.31676990e-01 2.43146002e-01 3.49079013e-01
      3.49079013e-01 3.49079013e-01 3.10232013e-01 3.49079013e-01
      3.49079013e-01 2.46261999e-01 3.62313986e-01 3.62313986e-01
      1.29747003e-01 3.62313986e-01 3.62313986e-01 3.62313986e-01
      3.62313986e-01 3.62313986e-01 3.73717993e-01 3.73717993e-01
      3.73717993e-01 3.73717993e-01 3.73717993e-01 9.78744030e-02
      9.50322002e-02 3.73717993e-01 3.73717993e-01 3.95567000e-01
      2.42624998e-01 1.91246003e-01 3.73822004e-01 3.95567000e-01
      3.95567000e-01 3.05420995e-01 2.04173997e-01 3.95567000e-01
      4.43161011e-01 4.43161011e-01 1.73047006e-01 6.47448972e-02
      3.58785003e-01 4.43161011e-01 3.38616997e-01 2.10979998e-01
      2.90448993e-01</_>
    <_>
      3.56013000e-01 3.90809000e-01 3.90809000e-01 1.81171000e-01
      3.48244995e-01 3.90809000e-01 3.90809000e-01 2.30384007e-01
      2.26381004e-01 3.33214015e-01 3.33214015e-01 3.33214015e-01
      3.29272002e-01 3.33214015e-01 3.33214015e-01 3.33214015e-01
      3.33214015e-01 3.33214015e-01 3.51630002e-01 2.27759004e-01
      3.51630002e-01 3.51630002e-01 2.84103990e-01 3.49337012e-01
      3.51630002e-01 3.51630002e-01 3.51630002e-01 3.55625987e-01
      3.55625987e-01 3.55625987e-01 3.55625987e-01 3.55625987e-01
      3.55625987e-01 3.55625987e-01 2.35680997e-01 2.35820994e-01
      3.32778990e-01 3.32778990e-01 3.32778990e-01 3.32778990e-01
      3.32778990e-01 3.32778990e-01 3.32778990e-01 3.32778990e-01
      3.32778990e-01 3.55316997e-01 3.55316997e-01 3.55316997e-01
      1.11860998e-01 3.16518009e-01 3.55316997e-01 3.55316997e-01
      3.55316997e-01 3.55316997e-01 3.55154008e-01 3.55154008e-01
      3.55154008e-01 3.55154008e-01 3.55154008e-01 1.89220995e-01
      2.78759986e-01 3.55154008e-01 3.55154008e-01 3.56734991e-01
      3.56734991e-01 2.76059002e-01 3.13199997e-01 3.56734991e-01
      3.56734991e-01 3.56734991e-01 2.42021993e-01 3.56734991e-01
      4.93501008e-01 4.93501008e-01 1.48638994e-01 5.58536984e-02
      2.05996007e-01 4.93501008e-01 4.19182986e-01 1.05213001e-01
      1.00043997e-01</_>
    <_>
      3.86150986e-01 4.08944011e-01 4.08944011e-01 7.53061026e-02
      1.88197002e-01 4.08944011e-01 4.08944011e-01 3.27919990e-01
      1.70998007e-01 3.36017013e-01 3.36017013e-01 3.36017013e-01
      3.05588007e-01 3.36017013e-01 3.36017013e-01 3.36017013e-01
      3.36017013e-01 3.36017013e-01 2.77805001e-01 2.57120013e-01
      3.49126011e-01 3.49126011e-01 3.49126011e-01 3.49126011e-01
      3.49126011e-01 3.49126011e-01 3.49126011e-01 3.41544986e-01
      3.41544986e-01 3.41544986e-01 3.41544986e-01 3.41544986e-01
      3.41544986e-01 3.41544986e-01 3.41544986e-01 2.51722008e-01
      3.32778990e-01 3.32778990e-01 3.32778990e-01 3.32778990e-01
      3.32778990e-01 3.32778990e-01 3.32778990e-01 3.32778990e-01
      3.32778990e-01 2.99340010e-01 3.66762012e-01 3.66762012e-01
      1.27024993e-01 2.88980007e-01 3.66762012e-01 3.66762012e-01
      3.66762012e-01 3.66762012e-01 3.43919009e-01 3.43919009e-01
      3.43919009e-01 3.43919009e-01 3.43919009e-01 2.24320993e-01
      3.43919009e-01 3.43919009e-01 3.43919009e-01 3.55163008e-01
      3.55163008e-01 2.80690014e-01 3.29281002e-01 3.55163008e-01
      3.55163008e-01 3.55163008e-01 2.28900999e-01 3.55163008e-01
      4.67200994e-01 4.67200994e-01 1.66295007e-01 8.12615007e-02
      2.34596997e-01 4.67200994e-01 4.67200994e-01 1.45852998e-01
      1.07974999e-01</_>
    <_>
      3.62978011e-01 4.22129005e-01 4.22129005e-01 1.25012994e-01
      1.71459004e-01 4.22129005e-01 4.22129005e-01 2.80943990e-01
      1.65228993e-01 3.32778990e-01 3.32778990e-01 3.32778990e-01
      3.32778990e-01 3.32778990e-01 3.32778990e-01 3.32778990e-01
      3.32778990e-01 3.32778990e-01 3.32778990e-01 3.32778990e-01
      3.32778990e-01 3.32778990e-01 3.32778990e-01 3.32778990e-01
      3.32778990e-01 3.32778990e-01 3.32778990e-01 3.48197013e-01
      3.48197013e-01 3.48197013e-01 3.48197013e-01 3.48197013e-01
      3.48197013e-01 3.48197013e-01 2.64950007e-01 2.78625995e-01
      3.38088006e-01 3.38088006e-01 3.19408000e-01 3.07370991e-01
      3.38088006e-01 3.38088006e-01 3.38088006e-01 3.38088006e-01
      3.38088006e-01 3.36181015e-01 3.74720007e-01 3.74720007e-01
      2.31196001e-01 3.02780002e-01 2.95381993e-01 3.74720007e-01
      3.74720007e-01 2.98667014e-01 3.48024994e-01 3.48024994e-01
      3.48024994e-01 3.48024994e-01 3.48024994e-01 2.09123999e-01
      3.23942006e-01 3.48024994e-01 3.48024994e-01 3.60356003e-01
      3.60356003e-01 2.72085011e-01 3.10773998e-01 3.60356003e-01
      3.60356003e-01 3.60356003e-01 2.15987995e-01 3.60356003e-01
      4.86831009e-01 4.86831009e-01 2.01027006e-01 1.66385993e-01
      1.95898995e-01 4.86831009e-01 3.91692013e-01 1.21986002e-01
      9.66902003e-02</_>
    <_>
      1.60139993e-01 3.34980011e-01 4.95806992e-01 1.39506996e-01
      3.01618010e-01 4.95806992e-01 4.95806992e-01 8.24759007e-02
      4.98116985e-02 4.17834014e-01 2.36570001e-01 3.38277996e-01
      3.16233009e-01 4.17834014e-01 4.17834014e-01 1.17637001e-01
      1.15092002e-01 4.17834014e-01 3.72631997e-01 6.80928975e-02
      2.51547992e-01 3.72631997e-01 3.72631997e-01 3.72631997e-01
      3.72631997e-01 3.08605999e-01 3.72631997e-01 3.49981993e-01
      3.92282993e-01 3.92282993e-01 3.32946986e-01 2.66043991e-01
      2.28395998e-01 3.92282993e-01 3.92282993e-01 1.55727997e-01
      4.61953014e-01 2.39493996e-01 2.31387004e-01 2.33897999e-01
      4.61953014e-01 4.11531001e-01 5.57214990e-02 1.30833998e-01
      4.61953014e-01 3.55904996e-01 1.33204997e-01 2.22028002e-01
      1.10942997e-01 3.97495002e-01 3.97495002e-01 3.97495002e-01
      3.97495002e-01 3.97495002e-01 3.94802988e-01 4.09942001e-01
      3.93029004e-01 3.11605990e-01 1.09605998e-01 3.07055991e-02
      2.30228007e-01 4.20917004e-01 4.20917004e-01 4.05005008e-01
      2.58006990e-01 2.16100007e-01 4.05005008e-01 4.05005008e-01
      4.05005008e-01 1.35854006e-01 2.09966004e-01 4.05005008e-01
      3.88148010e-01 3.88148010e-01 7.37432018e-02 2.42593009e-02
      3.88148010e-01 3.88148010e-01 3.88148010e-01 2.93498009e-01
      3.88148010e-01</_>
    <_>
      3.11724007e-01 3.49078000e-01 3.97619992e-01 2.02599004e-01
      1.53227001e-01 3.97619992e-01 3.97619992e-01 3.76583993e-01
      3.10411990e-01 3.55655015e-01 1.45685002e-01 3.10555011e-01
      3.55655015e-01 3.55655015e-01 3.55655015e-01 3.46172005e-01
      3.55655015e-01 3.55655015e-01 2.41696998e-01 1.63087994e-01
      3.66856992e-01 3.66856992e-01 3.35498005e-01 3.54739010e-01
      3.66856992e-01 3.66856992e-01 3.66856992e-01 3.43367010e-01
      3.43367010e-01 3.43367010e-01 3.09413999e-01 3.38744998e-01
      2.80501992e-01 3.43367010e-01 3.43367010e-01 3.43367010e-01
      4.47715014e-01 1.46481007e-01 1.61062002e-01 1.66840002e-01
      4.47715014e-01 4.47715014e-01 2.28905007e-01 2.57100999e-01
      4.47715014e-01 3.45640004e-01 2.61527002e-01 3.66374999e-01
      1.02136999e-01 3.66374999e-01 3.56218010e-01 3.66374999e-01
      3.66374999e-01 3.66374999e-01 2.56249994e-01 2.51920998e-01
      4.08482999e-01 4.08482999e-01 3.94598007e-01 1.07267998e-01
      1.79286003e-01 4.08482999e-01 4.08482999e-01 3.99679989e-01
      1.57605007e-01 2.19857007e-01 2.49020994e-01 3.99679989e-01
      3.99679989e-01 3.99679989e-01 2.49200001e-01 3.99679989e-01
      3.87360990e-01 3.87360990e-01 7.62946010e-02 1.14756003e-02
      3.51498008e-01 3.41152012e-01 3.87360990e-01 3.87360990e-01
      3.87360990e-01</_>
    <_>
      5.19411027e-01 5.19411027e-01 3.05768996e-01 4.04604003e-02
      1.35705993e-01 5.19411027e-01 2.53612995e-01 5.71089014e-02
      6.57358021e-02 3.43405992e-01 3.39592993e-01 3.43405992e-01
      3.43405992e-01 3.43405992e-01 3.43405992e-01 2.36112997e-01
      3.43405992e-01 3.43405992e-01 3.68028015e-01 1.26086995e-01
      2.79680014e-01 3.68028015e-01 3.68028015e-01 2.99223006e-01
      3.68028015e-01 3.68028015e-01 3.68028015e-01 2.04114005e-01
      4.25222009e-01 4.25222009e-01 2.49969006e-01 1.64560005e-01
      4.25222009e-01 4.25222009e-01 3.52685004e-01 1.29939005e-01
      4.17603999e-01 2.96012014e-01 3.08499992e-01 3.30197006e-01
      4.17603999e-01 3.20100993e-01 1.52789995e-01 2.34550998e-01
      4.17603999e-01 3.95857990e-01 9.11696032e-02 1.05365999e-01
      1.90818995e-01 3.95857990e-01 3.95857990e-01 3.95857990e-01
      3.95857990e-01 3.95857990e-01 1.79808006e-01 3.06300014e-01
      4.44478005e-01 4.44478005e-01 1.17619000e-01 5.50380014e-02
      2.49610007e-01 4.44478005e-01 4.44478005e-01 4.00889993e-01
      2.46849999e-01 2.81715006e-01 3.99910986e-01 4.00889993e-01
      4.00889993e-01 1.92287996e-01 1.26264006e-01 4.00889993e-01
      3.78313988e-01 3.78313988e-01 7.00253025e-02 5.64002991e-02
      3.78313988e-01 3.78313988e-01 3.78313988e-01 3.59728992e-01
      3.78313988e-01</_>
    <_>
      3.92297000e-01 3.92297000e-01 3.92297000e-01 2.52122015e-01
      3.11100990e-01 3.92297000e-01 2.72442997e-01 2.47134000e-01
      2.91278005e-01 3.63745004e-01 1.92877993e-01 3.63745004e-01
      3.63745004e-01 3.63745004e-01 3.18491012e-01 2.52716988e-01
      3.63745004e-01 3.63745004e-01 1.07123002e-01 5.93268014e-02
      3.25524002e-01 4.86719012e-01 1.55224994e-01 1.74226001e-01
      3.30213994e-01 4.86719012e-01 4.86719012e-01 3.50483000e-01
      3.50483000e-01 3.50483000e-01 3.29809994e-01 3.50483000e-01
      3.50483000e-01 3.50483000e-01 1.66899994e-01 3.50483000e-01
      4.83633012e-01 1.19332999e-01 1.15258999e-01 2.71486998e-01
      4.83633012e-01 2.94679999e-01 2.31147006e-01 2.27973998e-01
      4.83633012e-01 1.34414002e-01 3.96476001e-01 3.96476001e-01
      2.22340003e-01 3.21900010e-01 2.44432002e-01 3.96476001e-01
      3.96476001e-01 3.69318008e-01 3.65850002e-01 3.65850002e-01
      3.65850002e-01 3.65850002e-01 3.65850002e-01 1.69447005e-01
      1.75234005e-01 3.65850002e-01 3.65850002e-01 4.20836002e-01
      1.82677001e-01 1.48675993e-01 2.15755999e-01 4.20836002e-01
      4.20836002e-01 4.10717010e-01 1.29116997e-01 4.20836002e-01
      4.66605991e-01 4.66605991e-01 1.57013997e-01 3.21364999e-02
      2.42596999e-01 4.66605991e-01 4.66605991e-01 1.50603995e-01
      1.31282002e-01</_>
    <_>
      4.45704997e-01 4.45704997e-01 4.45704997e-01 1.00406997e-01
      1.83051005e-01 4.45704997e-01 3.28177989e-01 8.99256989e-02
      2.03863993e-01 3.38434011e-01 3.09529990e-01 3.38434011e-01
      3.38434011e-01 3.38434011e-01 3.38434011e-01 3.14714015e-01
      3.38434011e-01 3.38434011e-01 2.75837988e-01 9.46753994e-02
