<?xml version="1.0"?>
<opencv_storage>
<opencv_ml_svm>
  <format>3</format>
  <svmType>C_SVC</svmType>
  <kernel>
    <type>RBF</type>
    <gamma>5.0624999999999998e-01</gamma></kernel>
  <C>1.2500000000000000e+01</C>
  <term_criteria><epsilon>1.1920928955078125e-07</epsilon>
    <iterations>1000</iterations></term_criteria>
  <var_count>81</var_count>
  <class_count>11</class_count>
  <class_labels type_id="opencv-matrix">
    <rows>11</rows>
    <cols>1</cols>
    <dt>i</dt>
    <data>
      1 2 3 4 5 6 7 8 9 10 11</data></class_labels>
  <sv_total>2833</sv_total>
  <support_vectors>
    <_>
      3.41325015e-01 3.41325015e-01 3.41325015e-01 3.41325015e-01
      3.41325015e-01 3.41325015e-01 3.41325015e-01 3.41325015e-01
      2.54097015e-01 3.47308010e-01 1.77624002e-01 3.47308010e-01
      3.47308010e-01 3.47308010e-01 3.47308010e-01 3.47308010e-01
      3.47308010e-01 3.47308010e-01 2.34968007e-01 1.26482993e-01
      3.77050996e-01 3.77050996e-01 3.77050996e-01 2.68368006e-01
      3.77050996e-01 3.77050996e-01 3.77050996e-01 3.21684986e-01
      3.60985011e-01 3.60985011e-01 3.60985011e-01 3.60985011e-01
      3.60985011e-01 3.60985011e-01 2.93974996e-01 1.56937003e-01
      3.32778990e-01 3.32778990e-01 3.32778990e-01 3.32778990e-01
      3.32778990e-01 3.32778990e-01 3.32778990e-01 3.32778990e-01
      3.32778990e-01 3.02596986e-01 1.91863000e-01 3.75234991e-01
      2.95837998e-01 2.76311010e-01 3.75234991e-01 3.75234991e-01
      3.75234991e-01 3.75234991e-01 2.42253006e-01 3.42848003e-01
      3.94425988e-01 3.94425988e-01 3.03425014e-01 5.67073002e-02
      3.19779992e-01 3.94425988e-01 3.94425988e-01 3.32778990e-01
      3.32778990e-01 3.32778990e-01 3.32778990e-01 3.32778990e-01
      3.32778990e-01 3.32778990e-01 3.32778990e-01 3.32778990e-01
      3.99396002e-01 3.99396002e-01 2.44635999e-01 1.24279000e-01
      1.83469996e-01 3.99396002e-01 3.99396002e-01 3.99396002e-01
      2.99115002e-01</_>
    <_>
      3.93516004e-01 3.93516004e-01 3.53471994e-01 1.12207003e-01
      3.93516004e-01 3.93516004e-01 3.93516004e-01 1.09635003e-01
      2.68777996e-01 3.58132988e-01 3.58132988e-01 3.58132988e-01
      3.58132988e-01 3.58132988e-01 2.50833005e-01 2.51412988e-01
      3.17398995e-01 3.58132988e-01 3.29521000e-01 1.04082003e-01
      3.53967011e-01 3.53967011e-01 3.53967011e-01 3.53967011e-01
      3.53967011e-01 3.53967011e-01 3.53967011e-01 3.62892002e-01
      3.62892002e-01 3.62892002e-01 3.42341989e-01 3.11529994e-01
      1.67924002e-01 3.40577006e-01 3.33424002e-01 3.62892002e-01
      3.61297011e-01 2.71748990e-01 2.98536003e-01 3.61297011e-01
      3.61297011e-01 2.85952985e-01 3.14597994e-01 3.61297011e-01
      3.61297011e-01 2.04350993e-01 1.90158993e-01 3.14925998e-01
      3.69507015e-01 3.69507015e-01 3.69507015e-01 3.69507015e-01
      3.69507015e-01 3.69507015e-01 3.62390012e-01 3.62390012e-01
      3.62390012e-01 3.62390012e-01 3.62390012e-01 1.96199000e-01
      1.96466997e-01 3.62390012e-01 3.62390012e-01 3.10375005e-01
      1.59615993e-01 2.08188996e-01 3.61434013e-01 3.87728006e-01
      3.87728006e-01 3.14653009e-01 3.87728006e-01 3.87728006e-01
      3.74825001e-01 3.74825001e-01 3.39996994e-01 5.45119010e-02
      3.74825001e-01 3.74825001e-01 3.74825001e-01 2.36570999e-01
      3.45324993e-01</_>
    <_>
      4.16833013e-01 4.16833013e-01 2.72103995e-01 6.97001964e-02
      4.16833013e-01 4.16833013e-01 4.16833013e-01 1.04869999e-01
      1.92848995e-01 3.47384989e-01 3.47384989e-01 3.47384989e-01
      3.08656007e-01 3.20632994e-01 3.47384989e-01 3.47384989e-01
      2.72760987e-01 3.47384989e-01 3.12528998e-01 3.35218996e-01
      3.35218996e-01 3.35218996e-01 3.35218996e-01 3.35218996e-01
      3.35218996e-01 3.35218996e-01 3.35218996e-01 3.84371012e-01
      3.84371012e-01 3.84371012e-01 1.80819005e-01 3.05590004e-01
      1.68662995e-01 3.20820004e-01 3.84371012e-01 3.84371012e-01
      3.32778990e-01 3.32778990e-01 3.32778990e-01 3.32778990e-01
      3.32778990e-01 3.32778990e-01 3.32778990e-01 3.32778990e-01
      3.32778990e-01 1.21992998e-01 2.42180005e-01 3.63090008e-01
      3.63090008e-01 3.63090008e-01 3.63090008e-01 3.63090008e-01
      3.63090008e-01 3.63090008e-01 3.37909013e-01 3.37909013e-01
      3.37909013e-01 3.37909013e-01 3.37909013e-01 3.37909013e-01
      2.88379997e-01 3.37909013e-01 3.37909013e-01 3.20154995e-01
      1.60211995e-01 3.04331005e-01 1.93937004e-01 3.84126991e-01
      3.84126991e-01 3.84126991e-01 3.84126991e-01 3.84126991e-01
      4.52701986e-01 4.52701986e-01 2.34639004e-01 5.41829988e-02
      2.33779997e-01 4.52701986e-01 4.52701986e-01 1.30043000e-01
      2.14860007e-01</_>
    <_>
      3.95009995e-01 3.95009995e-01 3.95009995e-01 1.05843998e-01
      3.81523013e-01 3.95009995e-01 3.95009995e-01 1.63638994e-01
      1.79853007e-01 3.32778990e-01 3.32778990e-01 3.32778990e-01
      3.32778990e-01 3.32778990e-01 3.32778990e-01 3.32778990e-01
      3.32778990e-01 3.32778990e-01 1.75053000e-01 1.69219002e-01
      3.94827008e-01 3.94827008e-01 2.90376991e-01 2.70211995e-01
      3.94827008e-01 3.94827008e-01 3.94827008e-01 3.34959000e-01
      3.34959000e-01 3.34959000e-01 3.34959000e-01 3.14763010e-01
      3.34959000e-01 3.34959000e-01 3.34959000e-01 3.34959000e-01
      3.32778990e-01 3.32778990e-01 3.32778990e-01 3.32778990e-01
      3.32778990e-01 3.32778990e-01 3.32778990e-01 3.32778990e-01
      3.32778990e-01 8.22800025e-02 4.10214007e-01 4.10214007e-01
      3.30134004e-01 1.41286001e-01 3.42438012e-01 4.10214007e-01
      4.10214007e-01 2.64225990e-01 3.60455990e-01 3.14606994e-01
      3.60455990e-01 3.60455990e-01 3.60455990e-01 2.20502004e-01
      2.63112992e-01 3.60455990e-01 3.60455990e-01 3.45353007e-01
      2.76863992e-01 2.91572005e-01 3.45353007e-01 3.45353007e-01
      3.45353007e-01 3.45353007e-01 3.45353007e-01 3.45353007e-01
      4.05196995e-01 4.05196995e-01 2.90448010e-01 1.36077002e-01
      3.72646004e-01 4.05196995e-01 4.05196995e-01 2.41217002e-01
      1.98205993e-01</_>
    <_>
      4.47858006e-01 4.47858006e-01 2.30452001e-01 9.04197991e-02
      2.80993998e-01 4.47858006e-01 4.47858006e-01 1.59602001e-01
      1.65849999e-01 3.53514999e-01 3.53514999e-01 2.85102993e-01
      3.53514999e-01 2.98496991e-01 3.53514999e-01 3.42193991e-01
      3.29039007e-01 3.17535996e-01 3.37044001e-01 3.37044001e-01
      3.37044001e-01 3.37044001e-01 2.96384990e-01 3.37044001e-01
      3.37044001e-01 3.37044001e-01 3.37044001e-01 3.55571985e-01
      3.55571985e-01 3.55571985e-01 3.43282998e-01 2.74251997e-01
      2.75700986e-01 3.08582008e-01 3.55571985e-01 3.55571985e-01
      3.32778990e-01 3.32778990e-01 3.32778990e-01 3.32778990e-01
      3.32778990e-01 3.32778990e-01 3.32778990e-01 3.32778990e-01
      3.32778990e-01 1.26010001e-01 2.25015998e-01 3.64466012e-01
      3.64466012e-01 3.64466012e-01 3.64466012e-01 3.64466012e-01
      3.64466012e-01 3.64466012e-01 3.33505988e-01 3.33505988e-01
      3.33505988e-01 3.33505988e-01 3.33505988e-01 3.33505988e-01
      3.26891005e-01 3.33505988e-01 3.33505988e-01 3.40559989e-01
      2.67131001e-01 2.58794993e-01 3.51702988e-01 3.51702988e-01
      3.51702988e-01 3.51702988e-01 3.51702988e-01 3.51702988e-01
      4.71677989e-01 4.71677989e-01 1.35093004e-01 3.11906002e-02
      1.33642003e-01 4.71677989e-01 4.71677989e-01 1.63822994e-01
      2.03590006e-01</_>
    <_>
      4.45647001e-01 4.45647001e-01 2.66916990e-01 7.76292980e-02
      2.48723999e-01 4.45647001e-01 4.45647001e-01 1.36286005e-01
      2.08409995e-01 3.55197996e-01 3.55197996e-01 2.75438011e-01
      3.55197996e-01 2.69820988e-01 3.55197996e-01 3.25910985e-01
      3.32771987e-01 3.55197996e-01 3.34132999e-01 3.34132999e-01
      3.34132999e-01 3.34132999e-01 3.21714997e-01 3.34132999e-01
      3.34132999e-01 3.34132999e-01 3.34132999e-01 3.58080000e-01
      3.58080000e-01 3.58080000e-01 3.28058988e-01 2.82227010e-01
      2.51776993e-01 3.23495001e-01 3.58080000e-01 3.58080000e-01
      3.32778990e-01 3.32778990e-01 3.32778990e-01 3.32778990e-01
      3.32778990e-01 3.32778990e-01 3.32778990e-01 3.32778990e-01
      3.32778990e-01 1.06733002e-01 1.74944997e-01 3.28649998e-01
      3.75553012e-01 3.75553012e-01 3.75553012e-01 3.75553012e-01
      3.75553012e-01 3.75553012e-01 3.33018005e-01 3.33018005e-01
      3.33018005e-01 3.33018005e-01 3.33018005e-01 3.33018005e-01
      3.30859005e-01 3.33018005e-01 3.33018005e-01 3.03687990e-01
      2.46984005e-01 2.69639999e-01 3.58350009e-01 3.58350009e-01
      3.58350009e-01 3.58350009e-01 3.58350009e-01 3.58350009e-01
      4.67685997e-01 4.67685997e-01 1.47540003e-01 3.55865993e-02
      1.43441007e-01 4.67685997e-01 4.67685997e-01 1.82411000e-01
      2.08623007e-01</_>
    <_>
      4.67400998e-01 4.67400998e-01 2.02871993e-01 5.84499016e-02
      1.64051995e-01 4.67400998e-01 4.67400998e-01 1.36286005e-01
      1.77247003e-01 3.55277002e-01 3.55277002e-01 3.55277002e-01
      3.55277002e-01 2.29195997e-01 2.45700002e-01 3.55277002e-01
      3.55277002e-01 3.55277002e-01 3.42583001e-01 3.42583001e-01
      3.42583001e-01 3.42583001e-01 2.40150005e-01 3.42583001e-01
      3.42583001e-01 3.42583001e-01 3.42583001e-01 3.58889997e-01
      3.58889997e-01 3.58889997e-01 3.14099014e-01 2.94165999e-01
      3.01312000e-01 2.76445001e-01 3.58889997e-01 3.58889997e-01
      3.32778990e-01 3.32778990e-01 3.32778990e-01 3.32778990e-01
      3.32778990e-01 3.32778990e-01 3.32778990e-01 3.32778990e-01
      3.32778990e-01 1.24288999e-01 2.13799000e-01 3.66272002e-01
      3.71098995e-01 3.71098995e-01 3.71098995e-01 3.71098995e-01
      3.71098995e-01 3.35274011e-01 3.36335987e-01 3.42426002e-01
      3.42426002e-01 3.42426002e-01 3.42426002e-01 3.42426002e-01
      2.50335008e-01 3.42426002e-01 3.42426002e-01 3.20006996e-01
      2.30529994e-01 2.72502005e-01 3.57450008e-01 3.57450008e-01
      3.57450008e-01 3.57450008e-01 3.57450008e-01 3.57450008e-01
      4.69913989e-01 4.69913989e-01 1.36530995e-01 5.93530983e-02
      1.41072005e-01 4.69913989e-01 4.69913989e-01 2.08756000e-01
      1.62433997e-01</_>
    <_>
      3.89759988e-01 3.89759988e-01 3.89759988e-01 1.28463998e-01
      3.89759988e-01 3.89759988e-01 3.89759988e-01 1.31433994e-01
      2.25504994e-01 3.32778990e-01 3.32778990e-01 3.32778990e-01
      3.32778990e-01 3.32778990e-01 3.32778990e-01 3.32778990e-01
      3.32778990e-01 3.32778990e-01 2.87295014e-01 3.38023990e-01
      3.38023990e-01 3.38023990e-01 3.38023990e-01 3.38023990e-01
      3.38023990e-01 3.38023990e-01 3.38023990e-01 3.32778990e-01
      3.32778990e-01 3.32778990e-01 3.32778990e-01 3.32778990e-01
      3.32778990e-01 3.32778990e-01 3.32778990e-01 3.32778990e-01
      3.34672987e-01 3.34672987e-01 3.17187995e-01 3.34672987e-01
      3.34672987e-01 3.34672987e-01 3.34672987e-01 3.34672987e-01
      3.34672987e-01 2.46282995e-01 3.44590992e-01 3.23574990e-01
      3.44590992e-01 3.44590992e-01 3.44590992e-01 3.44590992e-01
      3.44590992e-01 3.44590992e-01 3.41318995e-01 3.41318995e-01
      3.41318995e-01 3.41318995e-01 3.41318995e-01 3.41318995e-01
      2.54162014e-01 3.41318995e-01 3.41318995e-01 3.48693013e-01
      2.71593004e-01 2.67664999e-01 3.48693013e-01 3.48693013e-01
      3.48693013e-01 3.48693013e-01 3.48693013e-01 3.48693013e-01
      4.21530008e-01 4.21530008e-01 2.02099994e-01 1.26049995e-01
      4.21530008e-01 4.21530008e-01 4.21530008e-01 1.65077999e-01
      1.52858004e-01</_>
    <_>
      4.60864991e-01 4.60864991e-01 2.19896004e-01 7.95734972e-02
      1.76898003e-01 4.60864991e-01 4.60864991e-01 1.31046996e-01
      2.06542000e-01 3.44853014e-01 3.44853014e-01 3.44853014e-01
      3.44853014e-01 2.66438007e-01 3.05124998e-01 3.44853014e-01
      3.44853014e-01 3.44853014e-01 3.38104993e-01 3.38104993e-01
      3.38104993e-01 3.38104993e-01 2.86538005e-01 3.38104993e-01
      3.38104993e-01 3.38104993e-01 3.38104993e-01 3.46044004e-01
      3.46044004e-01 3.46044004e-01 3.35994005e-01 3.19400012e-01
      2.51311988e-01 3.46044004e-01 3.46044004e-01 3.46044004e-01
      3.32778990e-01 3.32778990e-01 3.32778990e-01 3.32778990e-01
      3.32778990e-01 3.32778990e-01 3.32778990e-01 3.32778990e-01
      3.32778990e-01 1.42294005e-01 2.20596999e-01 3.64603013e-01
      3.64603013e-01 3.64603013e-01 3.64603013e-01 3.64603013e-01
      3.64603013e-01 3.60325992e-01 3.21585000e-01 3.41892987e-01
      3.41892987e-01 3.41892987e-01 3.41892987e-01 3.41892987e-01
      2.73732990e-01 3.41892987e-01 3.41892987e-01 2.93087989e-01
      2.93752015e-01 3.17925990e-01 3.47193986e-01 3.47193986e-01
      3.47193986e-01 3.47193986e-01 3.47193986e-01 3.47193986e-01
      4.70865995e-01 4.70865995e-01 1.24127001e-01 4.17976007e-02
      1.91943005e-01 4.70865995e-01 4.70865995e-01 1.97307006e-01
      1.24539003e-01</_>
    <_>
      3.94616008e-01 3.94616008e-01 3.51653010e-01 1.18156999e-01
      3.94616008e-01 3.94616008e-01 3.94616008e-01 1.09553002e-01
      2.60432005e-01 3.32778990e-01 3.32778990e-01 3.32778990e-01
      3.32778990e-01 3.32778990e-01 3.32778990e-01 3.32778990e-01
      3.32778990e-01 3.32778990e-01 3.24014008e-01 3.33855987e-01
      3.33855987e-01 3.33855987e-01 3.33855987e-01 3.33855987e-01
      3.33855987e-01 3.33855987e-01 3.33855987e-01 3.37745011e-01
      3.37745011e-01 3.37745011e-01 2.89920002e-01 3.37745011e-01
      3.37745011e-01 3.37745011e-01 3.37745011e-01 3.37745011e-01
      3.33108008e-01 3.33108008e-01 3.30123991e-01 3.33108008e-01
      3.33108008e-01 3.33108008e-01 3.33108008e-01 3.33108008e-01
      3.33108008e-01 1.93545997e-01 3.49599987e-01 3.21722001e-01
      3.49599987e-01 3.49599987e-01 3.49599987e-01 3.49599987e-01
      3.49599987e-01 3.49599987e-01 3.35633993e-01 3.35633993e-01
      3.35633993e-01 3.35633993e-01 3.35633993e-01 3.35633993e-01
      3.08941007e-01 3.35633993e-01 3.35633993e-01 3.46020997e-01
      2.92374015e-01 2.70081997e-01 3.46020997e-01 3.46020997e-01
      3.46020997e-01 3.46020997e-01 3.46020997e-01 3.46020997e-01
      4.25565988e-01 4.25565988e-01 1.89546004e-01 1.09249003e-01
      4.25565988e-01 4.25565988e-01 4.25565988e-01 1.62213996e-01
      1.26644000e-01</_>
    <_>
      3.96692991e-01 3.96692991e-01 3.66490990e-01 1.51002005e-01
      3.96692991e-01 3.96692991e-01 3.96692991e-01 1.16286002e-01
      1.96394995e-01 3.32778990e-01 3.32778990e-01 3.32778990e-01
      3.32778990e-01 3.32778990e-01 3.32778990e-01 3.32778990e-01
      3.32778990e-01 3.32778990e-01 3.03956985e-01 3.36201012e-01
      3.36201012e-01 3.36201012e-01 3.36201012e-01 3.36201012e-01
      3.36201012e-01 3.36201012e-01 3.36201012e-01 3.33573997e-01
      3.33573997e-01 3.33573997e-01 3.33573997e-01 3.26330990e-01
      3.33573997e-01 3.33573997e-01 3.33573997e-01 3.33573997e-01
      3.35069001e-01 3.35069001e-01 3.13816994e-01 3.35069001e-01
      3.35069001e-01 3.35069001e-01 3.35069001e-01 3.35069001e-01
      3.35069001e-01 2.21835002e-01 3.44197989e-01 3.43576998e-01
      3.44197989e-01 3.44197989e-01 3.44197989e-01 3.44197989e-01
      3.44197989e-01 3.44197989e-01 3.34145010e-01 3.34145010e-01
      3.34145010e-01 3.34145010e-01 3.34145010e-01 3.34145010e-01
      3.21621001e-01 3.34145010e-01 3.34145010e-01 3.44067991e-01
      3.30431014e-01 2.42273003e-01 3.44067991e-01 3.44067991e-01
      3.44067991e-01 3.44067991e-01 3.44067991e-01 3.44067991e-01
      4.19918001e-01 4.19918001e-01 2.29329005e-01 1.18795998e-01
      4.19918001e-01 4.19918001e-01 4.19918001e-01 1.57144994e-01
      1.50831997e-01</_>
    <_>
      3.94295007e-01 3.94295007e-01 3.76893997e-01 1.59886003e-01
      3.94295007e-01 3.94295007e-01 3.94295007e-01 1.11934997e-01
      1.96408004e-01 3.32778990e-01 3.32778990e-01 3.32778990e-01
      3.32778990e-01 3.32778990e-01 3.32778990e-01 3.32778990e-01
      3.32778990e-01 3.32778990e-01 3.09046000e-01 3.35622013e-01
      3.35622013e-01 3.35622013e-01 3.35622013e-01 3.35622013e-01
      3.35622013e-01 3.35622013e-01 3.35622013e-01 3.33029985e-01
      3.33029985e-01 3.33029985e-01 3.33029985e-01 3.30758989e-01
      3.33029985e-01 3.33029985e-01 3.33029985e-01 3.33029985e-01
      3.34803998e-01 3.34803998e-01 3.16078991e-01 3.34803998e-01
      3.34803998e-01 3.34803998e-01 3.34803998e-01 3.34803998e-01
      3.34803998e-01 2.26152003e-01 3.44092011e-01 3.41502011e-01
      3.44092011e-01 3.44092011e-01 3.44092011e-01 3.44092011e-01
      3.44092011e-01 3.44092011e-01 3.33793998e-01 3.33793998e-01
      3.33793998e-01 3.33793998e-01 3.33793998e-01 3.33793998e-01
      3.24523985e-01 3.33793998e-01 3.33793998e-01 3.43750000e-01
      3.29001009e-01 2.47332007e-01 3.43750000e-01 3.43750000e-01
      3.43750000e-01 3.43750000e-01 3.43750000e-01 3.43750000e-01
      4.17867005e-01 4.17867005e-01 2.39338994e-01 1.18831001e-01
      4.17867005e-01 4.17867005e-01 4.17867005e-01 1.60496995e-01
      1.59998998e-01</_>
    <_>
      3.93422008e-01 3.93422008e-01 3.34560990e-01 1.90357000e-01
      3.93422008e-01 3.93422008e-01 3.93422008e-01 1.38888001e-01
      2.33902007e-01 3.32778990e-01 3.32778990e-01 3.32778990e-01
      3.32778990e-01 3.32778990e-01 3.32778990e-01 3.32778990e-01
      3.32778990e-01 3.32778990e-01 2.51004994e-01 3.41610998e-01
      3.41610998e-01 3.41610998e-01 3.41610998e-01 3.41610998e-01
      3.41610998e-01 3.41610998e-01 3.41610998e-01 3.35153997e-01
      3.35153997e-01 3.35153997e-01 3.35153997e-01 3.31348985e-01
      3.35153997e-01 3.35153997e-01 3.17117006e-01 3.35153997e-01
      3.38321000e-01 3.38321000e-01 2.84480989e-01 3.38321000e-01
      3.38321000e-01 3.38321000e-01 3.38321000e-01 3.38321000e-01
      3.38321000e-01 2.36368001e-01 3.42911005e-01 3.42911005e-01
      3.42911005e-01 3.42911005e-01 3.42911005e-01 3.42911005e-01
      3.42911005e-01 3.42911005e-01 3.35395992e-01 3.35395992e-01
      3.35395992e-01 3.35395992e-01 3.35395992e-01 3.35395992e-01
      3.11006993e-01 3.35395992e-01 3.35395992e-01 3.48277003e-01
      3.34892005e-01 1.87852994e-01 3.48277003e-01 3.48277003e-01
      3.48277003e-01 3.48277003e-01 3.48277003e-01 3.48277003e-01
      4.29210007e-01 4.29210007e-01 1.95902005e-01 1.12158000e-01
      4.29210007e-01 4.29210007e-01 4.29210007e-01 8.96044970e-02
      1.24977998e-01</_>
    <_>
      3.91959012e-01 3.91959012e-01 3.40685993e-01 1.97013006e-01
      3.91959012e-01 3.91959012e-01 3.91959012e-01 1.41216993e-01
      2.30434999e-01 3.32778990e-01 3.32778990e-01 3.32778990e-01
      3.32778990e-01 3.32778990e-01 3.32778990e-01 3.32778990e-01
      3.32778990e-01 3.32778990e-01 2.41519004e-01 3.42462987e-01
      3.42462987e-01 3.42462987e-01 3.42462987e-01 3.42462987e-01
      3.42462987e-01 3.42462987e-01 3.42462987e-01 3.34183007e-01
      3.34183007e-01 3.34183007e-01 3.34183007e-01 3.21305007e-01
      3.34183007e-01 3.34183007e-01 3.34183007e-01 3.34183007e-01
      3.33393008e-01 3.33393008e-01 3.27816993e-01 3.33393008e-01
      3.33393008e-01 3.33393008e-01 3.33393008e-01 3.33393008e-01
      3.33393008e-01 2.26005003e-01 3.43782008e-01 3.43782008e-01
      3.43782008e-01 3.43782008e-01 3.43782008e-01 3.43782008e-01
      3.43782008e-01 3.43782008e-01 3.34239006e-01 3.34239006e-01
      3.34239006e-01 3.34239006e-01 3.34239006e-01 3.32170010e-01
      3.22979003e-01 3.34239006e-01 3.34239006e-01 3.49362999e-01
      3.09224010e-01 2.15659007e-01 3.49362999e-01 3.49362999e-01
      3.49362999e-01 3.49362999e-01 3.49362999e-01 3.49362999e-01
      4.26755995e-01 4.26755995e-01 1.74934998e-01 1.63080007e-01
      4.14896011e-01 4.26755995e-01 4.26755995e-01 1.24706998e-01
      1.49556994e-01</_>
    <_>
      2.85430014e-01 3.55150014e-01 3.55150014e-01 2.69699007e-01
      3.23951006e-01 3.55150014e-01 3.55150014e-01 3.55150014e-01
      3.26559007e-01 3.34737986e-01 3.16641986e-01 3.34737986e-01
      3.34737986e-01 3.34737986e-01 3.34737986e-01 3.34737986e-01
      3.34737986e-01 3.34737986e-01 2.58323997e-01 2.65706003e-01
      3.66259009e-01 3.84460002e-01 2.86045998e-01 3.01499993e-01
      3.84460002e-01 3.84460002e-01 3.29438001e-01 3.35186005e-01
      3.35186005e-01 3.35186005e-01 3.35186005e-01 3.35186005e-01
      3.35186005e-01 3.35186005e-01 3.35186005e-01 3.12812001e-01
      3.38322014e-01 3.11470002e-01 3.13647002e-01 3.38322014e-01
      3.38322014e-01 3.38322014e-01 3.38322014e-01 3.38322014e-01
      3.38322014e-01 3.02316993e-01 3.40730995e-01 3.40730995e-01
      3.04163992e-01 3.40730995e-01 3.40730995e-01 3.40730995e-01
      3.40730995e-01 3.40730995e-01 3.51208001e-01 2.54070997e-01
      3.51208001e-01 3.51208001e-01 3.51208001e-01 3.19458008e-01
      2.99672991e-01 3.51208001e-01 3.51208001e-01 3.58563006e-01
      2.23077998e-01 3.58563006e-01 3.58563006e-01 3.58563006e-01
      3.58563006e-01 3.58563006e-01 2.16061994e-01 3.58563006e-01
      4.23375010e-01 4.23375010e-01 1.97124004e-01 1.24977998e-01
      4.00712013e-01 4.23375010e-01 4.23375010e-01 1.82878003e-01
      1.74051002e-01</_>
    <_>
      4.01205987e-01 4.01205987e-01 2.70714015e-01 1.27114996e-01
      4.01205987e-01 4.01205987e-01 4.01205987e-01 1.30208999e-01
      2.91141987e-01 3.34223002e-01 3.34223002e-01 3.34223002e-01
      3.34223002e-01 3.34223002e-01 3.20966005e-01 3.34223002e-01
      3.34223002e-01 3.34223002e-01 2.60311991e-01 3.40741009e-01
      3.40741009e-01 3.40741009e-01 3.40741009e-01 3.40741009e-01
      3.40741009e-01 3.40741009e-01 3.40741009e-01 3.51372004e-01
      3.51372004e-01 3.51372004e-01 3.51372004e-01 2.52521992e-01
      3.51372004e-01 3.51372004e-01 2.61694998e-01 3.51372004e-01
      3.33835989e-01 3.33835989e-01 3.24178994e-01 3.33835989e-01
      3.33835989e-01 3.33835989e-01 3.33835989e-01 3.33835989e-01
      3.33835989e-01 2.09250003e-01 3.45102996e-01 3.45102996e-01
      3.45102996e-01 3.45102996e-01 3.45102996e-01 3.45102996e-01
      3.45102996e-01 3.45102996e-01 3.42752993e-01 3.42752993e-01
      3.42752993e-01 3.42752993e-01 3.42752993e-01 2.93810010e-01
      2.96467990e-01 3.42752993e-01 3.42752993e-01 3.57605994e-01
      2.54067987e-01 1.91582993e-01 3.57605994e-01 3.57605994e-01
      3.57605994e-01 3.57605994e-01 3.57605994e-01 3.57605994e-01
      4.12478000e-01 4.12478000e-01 2.57279009e-01 5.64883016e-02
      4.12478000e-01 4.12478000e-01 4.12478000e-01 1.72831997e-01
      2.14322999e-01</_>
    <_>
      3.90711993e-01 3.90711993e-01 3.78697991e-01 1.41958997e-01
      3.90711993e-01 3.90711993e-01 3.90711993e-01 1.03776000e-01
      2.41835997e-01 3.32778990e-01 3.32778990e-01 3.32778990e-01
      3.32778990e-01 3.32778990e-01 3.32778990e-01 3.32778990e-01
      3.32778990e-01 3.32778990e-01 3.32778990e-01 3.32778990e-01
      3.32778990e-01 3.32778990e-01 3.32778990e-01 3.32778990e-01
      3.32778990e-01 3.32778990e-01 3.32778990e-01 3.38153988e-01
      3.38153988e-01 3.38153988e-01 3.38153988e-01 2.86069006e-01
      3.38153988e-01 3.38153988e-01 3.38153988e-01 3.38153988e-01
      3.33196998e-01 3.33196998e-01 3.29407990e-01 3.33196998e-01
      3.33196998e-01 3.33196998e-01 3.33196998e-01 3.33196998e-01
      3.33196998e-01 2.12479994e-01 3.27223003e-01 3.41585010e-01
      3.48237991e-01 3.48237991e-01 3.48237991e-01 3.48237991e-01
      3.48237991e-01 3.48237991e-01 3.34787995e-01 3.34787995e-01
      3.34787995e-01 3.34787995e-01 3.34787995e-01 3.16215992e-01
      3.34787995e-01 3.34787995e-01 3.34787995e-01 3.50360990e-01
      2.69068986e-01 2.54617006e-01 3.50360990e-01 3.50360990e-01
      3.50360990e-01 3.50360990e-01 3.50360990e-01 3.50360990e-01
      4.20704991e-01 4.20704991e-01 1.89280003e-01 1.48447007e-01
      4.20704991e-01 4.20704991e-01 4.20704991e-01 1.48144007e-01
      1.76136002e-01</_>
    <_>
      3.97960991e-01 3.97960991e-01 3.97960991e-01 1.69967994e-01
      2.78943002e-01 3.97960991e-01 3.97960991e-01 2.03062996e-01
      2.37123996e-01 3.11334014e-01 3.35357994e-01 3.35357994e-01
      3.35357994e-01 3.35357994e-01 3.35357994e-01 3.35357994e-01
      3.35357994e-01 3.35357994e-01 2.86830992e-01 2.88304001e-01
      3.44583988e-01 3.44583988e-01 3.44583988e-01 3.44583988e-01
      3.44583988e-01 3.44583988e-01 3.44583988e-01 3.55883002e-01
      3.55883002e-01 3.55883002e-01 3.28162014e-01 3.55883002e-01
      3.55883002e-01 3.55883002e-01 2.41889000e-01 2.65190005e-01
      3.35617006e-01 3.35617006e-01 3.09091002e-01 3.35617006e-01
      3.35617006e-01 3.35617006e-01 3.35617006e-01 3.35617006e-01
      3.35617006e-01 3.03427011e-01 2.91296989e-01 3.42189997e-01
      3.42189997e-01 3.42189997e-01 3.42189997e-01 3.42189997e-01
      3.42189997e-01 3.42189997e-01 3.61034989e-01 3.61034989e-01
      3.61034989e-01 3.61034989e-01 2.59716988e-01 1.28507003e-01
      3.61034989e-01 3.61034989e-01 3.61034989e-01 3.38194013e-01
      2.99961001e-01 3.25601012e-01 3.38194013e-01 3.38194013e-01
      3.38194013e-01 3.38194013e-01 3.38194013e-01 3.38194013e-01
      3.69933993e-01 3.69933993e-01 3.69933993e-01 1.15982004e-01
      3.46390009e-01 3.69933993e-01 3.69933993e-01 3.25383991e-01
      2.69695014e-01</_>
    <_>
      3.47968996e-01 3.47968996e-01 3.47968996e-01 3.20244998e-01
      3.47968996e-01 3.47968996e-01 3.47968996e-01 3.04538012e-01
      2.73362011e-01 3.43176991e-01 2.33253002e-01 3.43176991e-01
      3.43176991e-01 3.43176991e-01 3.43176991e-01 3.43176991e-01
      3.43176991e-01 3.43176991e-01 8.15301016e-02 8.26191977e-02
      3.52171004e-01 4.53444988e-01 3.59077007e-01 1.42581001e-01
      3.03101987e-01 4.53444988e-01 4.53444988e-01 2.97399014e-01
      3.48347992e-01 3.48347992e-01 3.48347992e-01 3.12599987e-01
      3.48347992e-01 3.48347992e-01 3.48347992e-01 2.86835998e-01
      3.41939002e-01 2.79536009e-01 3.41939002e-01 3.41939002e-01
      3.41939002e-01 3.41939002e-01 3.16208988e-01 3.41939002e-01
      3.41939002e-01 2.86045015e-01 3.45286012e-01 3.56097013e-01
      3.56097013e-01 3.13237995e-01 2.51502007e-01 3.56097013e-01
      3.56097013e-01 3.56097013e-01 2.31563002e-01 2.68536001e-01
      4.17409003e-01 4.17409003e-01 1.83836997e-01 1.12001002e-01
      3.56139004e-01 4.17409003e-01 4.17409003e-01 3.33766013e-01
      3.27331990e-01 3.33766013e-01 3.33766013e-01 3.33766013e-01
      3.33766013e-01 3.31239998e-01 3.33766013e-01 3.33766013e-01
      3.83217007e-01 3.83217007e-01 1.82570994e-01 1.43517002e-01
      3.28945011e-01 3.83217007e-01 3.83217007e-01 3.83217007e-01
      3.15853000e-01</_>
    <_>
      3.58417988e-01 3.58417988e-01 3.58417988e-01 2.95257986e-01
      3.22037995e-01 3.58417988e-01 3.58417988e-01 2.64158994e-01
      3.05671006e-01 3.32778990e-01 3.32778990e-01 3.32778990e-01
      3.32778990e-01 3.32778990e-01 3.32778990e-01 3.32778990e-01
      3.32778990e-01 3.32778990e-01 2.39843994e-01 2.92234004e-01
      3.83466005e-01 3.83466005e-01 3.31580013e-01 2.30214998e-01
      3.83466005e-01 3.83466005e-01 3.19554001e-01 3.32778990e-01
      3.32778990e-01 3.32778990e-01 3.32778990e-01 3.32778990e-01
      3.32778990e-01 3.32778990e-01 3.32778990e-01 3.32778990e-01
      3.37370992e-01 3.37370992e-01 2.93388993e-01 3.37370992e-01
      3.37370992e-01 3.37370992e-01 3.37370992e-01 3.37370992e-01
      3.37370992e-01 1.81338996e-01 3.52261990e-01 3.52261990e-01
      3.08187008e-01 3.52261990e-01 3.52261990e-01 3.52261990e-01
      3.52261990e-01 3.52261990e-01 3.55565012e-01 2.97829002e-01
      3.55565012e-01 3.55565012e-01 3.55565012e-01 3.07837009e-01
      2.33288005e-01 3.55565012e-01 3.55565012e-01 3.49745005e-01
      2.89880991e-01 3.36827993e-01 3.49745005e-01 3.49745005e-01
      3.49745005e-01 3.49745005e-01 2.55129009e-01 3.49745005e-01
      4.34327006e-01 4.34327006e-01 1.96845993e-01 1.42003998e-01
      3.53698999e-01 4.34327006e-01 4.34327006e-01 1.52524993e-01
      1.83910996e-01</_>
    <_>
      3.86372000e-01 3.86372000e-01 3.86372000e-01 1.40992999e-01
      3.86372000e-01 3.86372000e-01 3.86372000e-01 1.43482998e-01
      2.44893998e-01 3.32778990e-01 3.32778990e-01 3.32778990e-01
      3.32778990e-01 3.32778990e-01 3.32778990e-01 3.32778990e-01
      3.32778990e-01 3.32778990e-01 2.46340007e-01 2.86859989e-01
      3.49191010e-01 3.49191010e-01 3.49191010e-01 3.49191010e-01
      3.49191010e-01 3.49191010e-01 3.49191010e-01 3.32778990e-01
      3.32778990e-01 3.32778990e-01 3.32778990e-01 3.32778990e-01
      3.32778990e-01 3.32778990e-01 3.32778990e-01 3.32778990e-01
      3.32778990e-01 3.32778990e-01 3.32778990e-01 3.32778990e-01
      3.32778990e-01 3.32778990e-01 3.32778990e-01 3.32778990e-01
      3.32778990e-01 2.51255989e-01 3.45551997e-01 3.45551997e-01
      3.45551997e-01 3.45551997e-01 3.12368006e-01 3.45551997e-01
      3.45551997e-01 3.45551997e-01 3.46698999e-01 3.46698999e-01
      3.46698999e-01 3.46698999e-01 3.46698999e-01 1.86911002e-01
      3.46698999e-01 3.46698999e-01 3.46698999e-01 3.42649996e-01
      3.21222007e-01 2.67450005e-01 3.42649996e-01 3.42649996e-01
      3.42649996e-01 3.42649996e-01 3.42649996e-01 3.42649996e-01
      4.02660012e-01 4.02660012e-01 3.33990008e-01 9.28530991e-02
      4.02660012e-01 4.02660012e-01 4.02660012e-01 1.71977997e-01
      1.88556999e-01</_>
    <_>
      3.76520991e-01 1.15324996e-01 2.78118014e-01 3.76520991e-01
      3.76520991e-01 3.59439999e-01 2.59905994e-01 3.76520991e-01
      3.76520991e-01 1.34823993e-01 1.14605002e-01 1.68883994e-01
      3.95015001e-01 3.95015001e-01 3.95015001e-01 3.95015001e-01
      3.95015001e-01 3.95015001e-01 1.49942994e-01 8.28666016e-02
      1.81532994e-01 4.75991011e-01 4.75991011e-01 1.01048999e-01
      1.28294006e-01 4.75991011e-01 4.75991011e-01 4.48345989e-01
      1.20522998e-01 7.55281970e-02 2.46233001e-01 4.48345989e-01
      2.91043997e-01 1.60922006e-01 4.48345989e-01 4.48345989e-01
      3.22620988e-01 1.39357999e-01 1.18084997e-01 1.02596000e-01
      4.11803991e-01 4.11803991e-01 4.11803991e-01 4.11803991e-01
      4.11803991e-01 3.85549009e-01 3.28725994e-01 3.85549009e-01
      2.54195005e-01 2.86570996e-01 2.30526000e-01 3.85549009e-01
      3.05967003e-01 3.85549009e-01 3.88094008e-01 1.82440996e-01
      9.44849029e-02 2.24076003e-01 3.88094008e-01 3.88094008e-01
      3.88094008e-01 3.88094008e-01 3.88094008e-01 3.70512009e-01
      3.70512009e-01 2.32005998e-01 7.99217001e-02 3.41509014e-01
      3.70512009e-01 3.70512009e-01 3.70512009e-01 3.64771992e-01
      4.95460004e-01 4.95460004e-01 4.06421013e-02 1.02260998e-02
      3.97278011e-01 4.95460004e-01 9.45189968e-02 8.12390000e-02
      2.88946003e-01</_>
    <_>
      3.99435014e-01 3.99435014e-01 3.99435014e-01 1.67338997e-01
      2.73752004e-01 3.99435014e-01 3.99435014e-01 2.44534001e-01
      1.88491002e-01 3.32778990e-01 3.32778990e-01 3.32778990e-01
      3.32778990e-01 3.32778990e-01 3.32778990e-01 3.32778990e-01
      3.32778990e-01 3.32778990e-01 3.42005998e-01 2.46657997e-01
      3.42005998e-01 3.42005998e-01 3.42005998e-01 3.42005998e-01
      3.42005998e-01 3.42005998e-01 3.42005998e-01 3.38138014e-01
      3.38138014e-01 3.38138014e-01 3.16496998e-01 3.38138014e-01
      3.38138014e-01 3.38138014e-01 3.38138014e-01 3.09982985e-01
      3.36944997e-01 3.36944997e-01 3.35193008e-01 3.00581992e-01
      3.36944997e-01 3.36944997e-01 3.35761994e-01 3.36944997e-01
      3.36944997e-01 3.44309986e-01 3.37377012e-01 3.44309986e-01
      2.29975998e-01 3.44309986e-01 3.44309986e-01 3.44309986e-01
      3.44309986e-01 3.44309986e-01 3.67044002e-01 3.67044002e-01
      3.67044002e-01 3.67044002e-01 3.56243998e-01 1.14983998e-01
      2.18798995e-01 3.67044002e-01 3.67044002e-01 3.39973986e-01
      3.28747004e-01 3.39973986e-01 3.39973986e-01 3.39973986e-01
      3.39973986e-01 3.39973986e-01 2.81875998e-01 3.39973986e-01
      4.02173996e-01 4.02173996e-01 2.56184995e-01 1.03031002e-01
      3.27387989e-01 4.02173996e-01 4.02173996e-01 2.60915995e-01
      3.12252998e-01</_>
    <_>
      3.95507008e-01 3.95507008e-01 3.95507008e-01 1.94031000e-01
      2.70404994e-01 3.95507008e-01 3.95507008e-01 2.40392998e-01
      2.12988004e-01 3.32778990e-01 3.32778990e-01 3.32778990e-01
      3.32778990e-01 3.32778990e-01 3.32778990e-01 3.32778990e-01
      3.32778990e-01 3.32778990e-01 3.40721011e-01 2.60518998e-01
      3.40721011e-01 3.40721011e-01 3.40721011e-01 3.40721011e-01
      3.40721011e-01 3.40721011e-01 3.40721011e-01 3.52391005e-01
      3.52391005e-01 3.52391005e-01 2.71966994e-01 3.52391005e-01
      3.52391005e-01 3.52391005e-01 2.89207995e-01 3.06263000e-01
      3.37152004e-01 3.37152004e-01 3.37152004e-01 2.95397013e-01
      3.37152004e-01 3.37152004e-01 3.37152004e-01 3.37152004e-01
      3.37152004e-01 3.45477015e-01 3.24119985e-01 3.45477015e-01
      2.36675993e-01 3.45477015e-01 3.45477015e-01 3.45477015e-01
      3.45477015e-01 3.45477015e-01 3.68629992e-01 3.68629992e-01
      3.68629992e-01 3.68629992e-01 3.42249006e-01 1.29394993e-01
      2.17053995e-01 3.68629992e-01 3.68629992e-01 3.44608992e-01
      3.24198991e-01 3.44608992e-01 3.44608992e-01 3.44608992e-01
      3.44608992e-01 3.44608992e-01 2.45289996e-01 3.44608992e-01
      4.11175996e-01 4.11175996e-01 2.38874003e-01 1.13729000e-01
      3.15182000e-01 4.11175996e-01 4.11175996e-01 2.47628003e-01
      2.98289001e-01</_>
    <_>
      3.50472003e-01 3.50472003e-01 3.50472003e-01 3.50472003e-01
      3.00972015e-01 3.50472003e-01 3.50472003e-01 3.15486014e-01
      2.63440996e-01 3.44148010e-01 2.21487001e-01 3.44148010e-01
      3.44148010e-01 3.44148010e-01 3.44148010e-01 3.44148010e-01
      3.44148010e-01 3.44148010e-01 6.69391006e-02 3.23913991e-01
      4.15493995e-01 4.15493995e-01 1.33734003e-01 7.65037984e-02
      4.15493995e-01 4.15493995e-01 4.14934009e-01 3.14235002e-01
      3.61164987e-01 3.61164987e-01 3.61164987e-01 2.78506011e-01
      1.93491995e-01 3.61164987e-01 3.61164987e-01 3.61164987e-01
      3.32778990e-01 3.32778990e-01 3.32778990e-01 3.32778990e-01
      3.32778990e-01 3.32778990e-01 3.32778990e-01 3.32778990e-01
      3.32778990e-01 2.88233995e-01 4.17589009e-01 4.17589009e-01
      1.15774997e-01 7.19806999e-02 4.17589009e-01 4.17589009e-01
      4.17589009e-01 1.49210006e-01 3.32599998e-01 1.58448994e-01
      4.03836012e-01 4.03836012e-01 4.03836012e-01 1.59839004e-01
      1.38817996e-01 4.03836012e-01 4.03836012e-01 3.81417006e-01
      3.21298987e-01 2.17993006e-01 3.31732988e-01 3.81417006e-01
      3.81417006e-01 3.33126992e-01 2.06155002e-01 3.81417006e-01
      3.70743006e-01 3.70743006e-01 3.18715006e-01 2.63832003e-01
      3.70743006e-01 3.70743006e-01 3.70743006e-01 2.58747011e-01
      2.66283005e-01</_>
    <_>
      3.32778990e-01 3.32778990e-01 3.32778990e-01 3.32778990e-01
      3.32778990e-01 3.32778990e-01 3.32778990e-01 3.32778990e-01
      3.32778990e-01 3.49518001e-01 1.38575003e-01 3.49518001e-01
      3.49518001e-01 3.49518001e-01 3.49518001e-01 3.49518001e-01
      3.49518001e-01 3.49518001e-01 6.00844994e-02 2.46111006e-01
      4.19880003e-01 4.19880003e-01 2.06937999e-01 8.54704976e-02
      4.19880003e-01 4.19880003e-01 4.19880003e-01 3.32778990e-01
      3.32778990e-01 3.32778990e-01 3.32778990e-01 3.32778990e-01
      3.32778990e-01 3.32778990e-01 3.32778990e-01 3.32778990e-01
      3.37698013e-01 3.37698013e-01 2.90356010e-01 3.37698013e-01
      3.37698013e-01 3.37698013e-01 3.37698013e-01 3.37698013e-01
      3.37698013e-01 3.75667006e-01 4.03537989e-01 4.03537989e-01
      1.27101004e-01 9.13657025e-02 4.03537989e-01 4.03537989e-01
      4.03537989e-01 1.26991004e-01 3.84333014e-01 1.71397001e-01
      3.84333014e-01 3.84333014e-01 3.84333014e-01 2.39225999e-01
      1.52594000e-01 3.84333014e-01 3.84333014e-01 3.90893996e-01
      3.15595001e-01 1.63741007e-01 3.20995986e-01 3.90893996e-01
      3.90893996e-01 3.22486013e-01 2.26835996e-01 3.90893996e-01
      3.41839999e-01 3.41839999e-01 3.41839999e-01 3.41839999e-01
      3.41839999e-01 3.41839999e-01 3.41839999e-01 3.39745998e-01
      2.51347989e-01</_>
    <_>
      3.98396999e-01 3.98396999e-01 3.98396999e-01 1.64073005e-01
      1.62567005e-01 3.98396999e-01 3.98396999e-01 3.53143007e-01
      1.56079993e-01 3.25693011e-01 3.52025986e-01 3.52025986e-01
      2.88073987e-01 3.26766014e-01 3.52025986e-01 3.52025986e-01
      3.52025986e-01 2.84658998e-01 3.46074998e-01 1.95951000e-01
      3.46074998e-01 3.46074998e-01 3.46074998e-01 3.46074998e-01
      3.46074998e-01 3.46074998e-01 3.46074998e-01 1.79706007e-01
      4.35853004e-01 4.35853004e-01 2.37268001e-01 1.66284993e-01
      2.95722008e-01 4.35853004e-01 4.35853004e-01 1.79112002e-01
      3.53709012e-01 3.53709012e-01 3.53709012e-01 3.53709012e-01
      2.39190996e-01 3.51920992e-01 3.53709012e-01 3.53709012e-01
      2.54453987e-01 3.32778990e-01 3.32778990e-01 3.32778990e-01
      3.32778990e-01 3.32778990e-01 3.32778990e-01 3.32778990e-01
      3.32778990e-01 3.32778990e-01 1.87220007e-01 3.46655995e-01
      3.48917007e-01 3.48917007e-01 3.32917988e-01 3.48917007e-01
      3.48917007e-01 3.48917007e-01 3.48917007e-01 3.64181012e-01
      2.58484006e-01 3.64181012e-01 3.64181012e-01 3.64181012e-01
      1.98375002e-01 3.07292998e-01 3.64181012e-01 3.64181012e-01
      3.58108997e-01 3.58108997e-01 2.44437993e-01 3.07402998e-01
      3.58108997e-01 3.58108997e-01 3.58108997e-01 2.69672990e-01
      3.58108997e-01</_>
    <_>
      3.79705012e-01 3.79705012e-01 3.79705012e-01 2.92055994e-01
      2.97284007e-01 3.79705012e-01 3.46484989e-01 2.75752008e-01
      2.23017007e-01 3.38514000e-01 3.38514000e-01 3.38514000e-01
      2.82638997e-01 3.38514000e-01 3.38514000e-01 3.38514000e-01
      3.38514000e-01 3.38514000e-01 3.35339010e-01 3.11502993e-01
      3.35339010e-01 3.35339010e-01 3.35339010e-01 3.35339010e-01
      3.35339010e-01 3.35339010e-01 3.35339010e-01 3.88081998e-01
      3.88081998e-01 3.88081998e-01 3.38494986e-01 2.57515013e-01
      3.88081998e-01 3.88081998e-01 1.67724997e-01 1.84551999e-01
      3.37772995e-01 3.37772995e-01 3.37772995e-01 3.19660991e-01
      3.37772995e-01 3.37772995e-01 3.37772995e-01 3.09529006e-01
      3.37772995e-01 3.47375005e-01 3.47375005e-01 3.47375005e-01
      2.31606007e-01 3.13374996e-01 3.47375005e-01 3.47375005e-01
      3.47375005e-01 3.47375005e-01 3.54317009e-01 3.54317009e-01
      3.54317009e-01 3.54317009e-01 3.54317009e-01 1.75863996e-01
      2.94532001e-01 3.54317009e-01 3.54317009e-01 3.41854006e-01
      3.41854006e-01 3.41854006e-01 3.41854006e-01 3.41854006e-01
      3.41854006e-01 3.41854006e-01 2.48337999e-01 3.41854006e-01
      3.95857006e-01 3.95857006e-01 1.99113995e-01 6.80233985e-02
      3.87421012e-01 3.95857006e-01 3.95857006e-01 3.08461994e-01
      2.82343000e-01</_>
    <_>
      3.86664003e-01 3.86664003e-01 3.86664003e-01 1.91658005e-01
      2.10225999e-01 3.86664003e-01 3.86664003e-01 3.06286991e-01
      2.71755010e-01 3.43656003e-01 3.43656003e-01 3.43656003e-01
      2.87326008e-01 3.43656003e-01 3.43656003e-01 3.43656003e-01
      2.95488000e-01 3.43656003e-01 3.47725004e-01 2.22286001e-01
      3.47725004e-01 3.47725004e-01 3.47725004e-01 3.17375004e-01
      3.47725004e-01 3.47725004e-01 3.47725004e-01 2.48118997e-01
      4.12342012e-01 4.12342012e-01 2.05906004e-01 1.16562001e-01
      4.12342012e-01 4.12342012e-01 4.12342012e-01 1.67937994e-01
      3.39816004e-01 3.39816004e-01 3.39816004e-01 2.69823015e-01
      3.39816004e-01 3.39816004e-01 3.39816004e-01 3.39816004e-01
      3.39816004e-01 3.34486991e-01 3.34486991e-01 3.34486991e-01
      3.18760008e-01 3.34486991e-01 3.34486991e-01 3.34486991e-01
      3.34486991e-01 3.34486991e-01 1.65859997e-01 3.77422005e-01
      3.77422005e-01 3.77422005e-01 2.40243003e-01 2.81706005e-01
      3.77422005e-01 3.77422005e-01 3.45555007e-01 3.49137992e-01
      3.49137992e-01 3.49137992e-01 3.49137992e-01 2.58504987e-01
      2.76412010e-01 3.49137992e-01 3.49137992e-01 3.49137992e-01
      3.44399005e-01 3.44399005e-01 3.07700992e-01 2.71057010e-01
      3.44399005e-01 3.44399005e-01 3.44399005e-01 3.41674000e-01
      3.44399005e-01</_>
    <_>
      4.04067010e-01 4.04067010e-01 3.93467009e-01 2.57077008e-01
      4.04067010e-01 4.04067010e-01 2.63806999e-01 1.72645003e-01
      1.50261000e-01 3.65108997e-01 3.65108997e-01 2.23465994e-01
      2.49152005e-01 3.65108997e-01 3.65108997e-01 3.65108997e-01
      3.65108997e-01 2.90704995e-01 2.61525989e-01 2.83702999e-01
      3.47981989e-01 3.47981989e-01 3.47981989e-01 3.47981989e-01
      3.47981989e-01 3.47981989e-01 3.47981989e-01 4.06188011e-01
      4.06188011e-01 4.06188011e-01 2.91119993e-01 2.26179004e-01
      4.06188011e-01 4.06188011e-01 1.38778999e-01 1.25817001e-01
      3.51714998e-01 3.51714998e-01 3.51714998e-01 1.73979998e-01
      3.51714998e-01 3.51714998e-01 3.51714998e-01 3.16691011e-01
      3.51714998e-01 3.66825998e-01 3.66825998e-01 3.40445012e-01
      9.66269970e-02 2.52445012e-01 3.66825998e-01 3.66825998e-01
      3.66825998e-01 3.66825998e-01 3.65025014e-01 3.65242004e-01
      3.65242004e-01 3.65242004e-01 3.04120004e-01 1.95534006e-01
      2.55690008e-01 3.65242004e-01 3.65242004e-01 3.43129992e-01
      3.43129992e-01 3.43129992e-01 3.43129992e-01 3.43129992e-01
      3.43129992e-01 3.43129992e-01 2.33808994e-01 3.43129992e-01
      4.08239990e-01 4.08239990e-01 2.12255001e-01 4.53906991e-02
      2.89595991e-01 4.08239990e-01 4.08239990e-01 3.22522998e-01
      3.07054996e-01</_>
    <_>
      3.86956990e-01 3.86956990e-01 3.55172992e-01 3.40593994e-01
      3.86956990e-01 3.86956990e-01 2.58940995e-01 1.63507998e-01
      2.47499004e-01 3.56720001e-01 3.56720001e-01 2.48431996e-01
      2.66909003e-01 3.56720001e-01 3.56720001e-01 3.56720001e-01
      3.38892996e-01 3.35233003e-01 3.34820986e-01 3.15937012e-01
      3.34820986e-01 3.34820986e-01 3.34820986e-01 3.34820986e-01
      3.34820986e-01 3.34820986e-01 3.34820986e-01 4.10369009e-01
      4.10369009e-01 4.10369009e-01 2.86996007e-01 1.79704994e-01
      4.10369009e-01 4.10369009e-01 1.43625006e-01 1.36371002e-01
      3.42469990e-01 3.42469990e-01 3.42469990e-01 2.61857986e-01
      3.42469990e-01 3.42469990e-01 3.42469990e-01 3.27125013e-01
      3.42469990e-01 3.71814013e-01 3.71814013e-01 2.28815004e-01
      1.46411002e-01 3.04993004e-01 3.71814013e-01 3.71814013e-01
      3.71814013e-01 3.71814013e-01 3.48345995e-01 3.48345995e-01
      3.48345995e-01 3.48345995e-01 3.48345995e-01 1.84396997e-01
      3.36308986e-01 3.48345995e-01 3.48345995e-01 3.42622995e-01
      3.42622995e-01 3.42622995e-01 3.42622995e-01 3.42622995e-01
      3.42622995e-01 3.42622995e-01 2.39694998e-01 3.42622995e-01
      3.94490004e-01 3.94490004e-01 2.53441006e-01 9.91984010e-02
      3.94490004e-01 3.94490004e-01 3.94490004e-01 2.46730000e-01
      2.88098991e-01</_>
    <_>
      3.80187005e-01 3.80187005e-01 3.22735012e-01 3.80187005e-01
      3.80187005e-01 3.80187005e-01 2.79832989e-01 2.27807000e-01
      1.97813004e-01 3.78760010e-01 3.78760010e-01 1.74217001e-01
      2.61115015e-01 3.67282003e-01 3.78760010e-01 3.78760010e-01
      3.24739009e-01 2.88955986e-01 3.32778990e-01 3.32778990e-01
      3.32778990e-01 3.32778990e-01 3.32778990e-01 3.32778990e-01
      3.32778990e-01 3.32778990e-01 3.32778990e-01 4.00308996e-01
      4.00308996e-01 4.00308996e-01 3.35727006e-01 1.97163001e-01
      4.00308996e-01 4.00308996e-01 1.66970998e-01 1.23692997e-01
      3.48836005e-01 3.48836005e-01 3.43057007e-01 2.24757001e-01
      3.48836005e-01 3.48836005e-01 3.48836005e-01 3.48836005e-01
      3.13354999e-01 3.60206008e-01 3.60206008e-01 2.74574995e-01
      1.13017999e-01 3.60206008e-01 3.60206008e-01 3.60206008e-01
      3.60206008e-01 3.60206008e-01 3.54925007e-01 3.54925007e-01
      3.54925007e-01 3.54925007e-01 3.54925007e-01 1.65687993e-01
      2.95291990e-01 3.54925007e-01 3.54925007e-01 3.47021997e-01
      3.47021997e-01 3.47021997e-01 3.46592009e-01 3.47021997e-01
      3.47021997e-01 3.47021997e-01 2.41212994e-01 3.09320986e-01
      3.96878004e-01 3.96878004e-01 2.40898997e-01 1.01681001e-01
      3.96878004e-01 3.96878004e-01 3.96878004e-01 2.54043013e-01
      2.74893999e-01</_>
    <_>
      3.76832992e-01 3.76832992e-01 3.47211003e-01 3.76832992e-01
      3.76832992e-01 3.76832992e-01 2.74506003e-01 2.50625998e-01
      1.65829003e-01 3.65877986e-01 3.65877986e-01 2.05611005e-01
      2.67064005e-01 3.65877986e-01 3.65877986e-01 3.65877986e-01
      3.65877986e-01 2.82034993e-01 3.34775001e-01 3.34775001e-01
      3.34775001e-01 3.34775001e-01 3.16320002e-01 3.34775001e-01
      3.34775001e-01 3.34775001e-01 3.34775001e-01 3.99719000e-01
      3.99719000e-01 3.99719000e-01 3.45660001e-01 1.79291993e-01
      3.99719000e-01 3.99719000e-01 1.77313998e-01 1.18591003e-01
      3.44671011e-01 3.44671011e-01 3.44671011e-01 2.46942997e-01
      3.44671011e-01 3.44671011e-01 3.44671011e-01 3.44671011e-01
      3.22474986e-01 3.56952012e-01 3.56952012e-01 3.07514012e-01
      1.48644999e-01 3.39536995e-01 3.56952012e-01 3.56952012e-01
      3.56952012e-01 3.56952012e-01 3.49399000e-01 3.49399000e-01
      3.49399000e-01 3.49399000e-01 3.19328994e-01 1.99945003e-01
      3.49399000e-01 3.49399000e-01 3.49399000e-01 3.48331004e-01
      3.48331004e-01 3.48331004e-01 3.48331004e-01 3.48331004e-01
      3.48331004e-01 3.48331004e-01 2.44709000e-01 2.95455009e-01
      3.89167994e-01 3.89167994e-01 2.49901995e-01 9.23497006e-02
      3.89167994e-01 3.89167994e-01 3.89167994e-01 3.06475013e-01
      2.71932989e-01</_>
    <_>
      3.78313005e-01 3.78313005e-01 3.76673013e-01 3.74803007e-01
      3.78313005e-01 3.78313005e-01 2.24720001e-01 1.90699995e-01
      2.33474001e-01 3.61319989e-01 3.61319989e-01 1.70644999e-01
      2.75157988e-01 3.59109998e-01 3.61319989e-01 3.61319989e-01
      3.56157005e-01 3.36962014e-01 3.32778990e-01 3.32778990e-01
      3.32778990e-01 3.32778990e-01 3.32778990e-01 3.32778990e-01
      3.32778990e-01 3.32778990e-01 3.32778990e-01 3.95640999e-01
      3.95640999e-01 3.95640999e-01 3.61451000e-01 1.78849995e-01
      3.95640999e-01 3.95640999e-01 1.77469999e-01 1.38776004e-01
      3.46269011e-01 3.46269011e-01 3.46269011e-01 2.25650996e-01
      3.46269011e-01 3.46269011e-01 3.46269011e-01 3.26047987e-01
      3.46269011e-01 3.62540990e-01 3.62540990e-01 3.29475999e-01
      1.00548998e-01 2.98489004e-01 3.62540990e-01 3.62540990e-01
      3.62540990e-01 3.62540990e-01 3.51110995e-01 3.51110995e-01
      3.51110995e-01 3.51110995e-01 2.97060996e-01 2.12823004e-01
      3.51110995e-01 3.51110995e-01 3.51110995e-01 3.50686014e-01
      3.50686014e-01 3.50686014e-01 3.50686014e-01 3.50686014e-01
      3.50686014e-01 3.50686014e-01 2.03996003e-01 3.06623012e-01
      3.96571010e-01 3.96571010e-01 2.57090986e-01 8.07821006e-02
      3.96571010e-01 3.96571010e-01 3.96571010e-01 2.97601998e-01
      2.20247000e-01</_>
    <_>
      3.54732007e-01 3.54732007e-01 3.54732007e-01 3.54732007e-01
      2.95311987e-01 3.54732007e-01 3.54732007e-01 3.07866007e-01
      2.43842006e-01 3.43672007e-01 2.27339000e-01 3.43672007e-01
      3.43672007e-01 3.43672007e-01 3.43672007e-01 3.43672007e-01
      3.43672007e-01 3.43672007e-01 2.56792992e-01 1.20765001e-01
      3.91961992e-01 3.91961992e-01 3.09913993e-01 2.26579994e-01
      3.91961992e-01 3.91961992e-01 3.91961992e-01 3.55616003e-01
      3.55616003e-01 3.55616003e-01 3.55616003e-01 2.59860992e-01
      3.35052997e-01 3.55616003e-01 3.55616003e-01 2.40588993e-01
      3.32778990e-01 3.32778990e-01 3.32778990e-01 3.32778990e-01
      3.32778990e-01 3.32778990e-01 3.32778990e-01 3.32778990e-01
      3.32778990e-01 3.04046988e-01 3.09006989e-01 3.71681988e-01
      2.66252995e-01 3.45016003e-01 2.56592989e-01 3.71681988e-01
      3.71681988e-01 3.71681988e-01 1.30328998e-01 2.39361003e-01
      4.24876004e-01 4.24876004e-01 3.02515000e-01 1.11876003e-01
      3.08815002e-01 4.24876004e-01 4.24876004e-01 3.33375007e-01
      3.33375007e-01 3.33375007e-01 3.33375007e-01 3.33375007e-01
      3.33375007e-01 3.33375007e-01 3.27955991e-01 3.33375007e-01
      3.65370005e-01 3.65370005e-01 2.16048002e-01 1.23305999e-01
      3.65370005e-01 3.65370005e-01 3.65370005e-01 3.65370005e-01
      3.65370005e-01</_>
    <_>
      3.74594003e-01 3.74594003e-01 3.74594003e-01 3.74594003e-01
      3.18226010e-01 3.74594003e-01 2.96712011e-01 2.47969002e-01
      2.09427997e-01 3.52032989e-01 3.52032989e-01 2.00103998e-01
      3.00329000e-01 3.52032989e-01 3.52032989e-01 3.52032989e-01
      3.52032989e-01 3.50259990e-01 2.87721008e-01 3.19261014e-01
      3.56685013e-01 3.56685013e-01 2.42188007e-01 3.56685013e-01
      3.56685013e-01 3.56685013e-01 3.41980994e-01 3.88976991e-01
      3.88976991e-01 3.88976991e-01 3.47858012e-01 2.21468002e-01
      3.88976991e-01 3.88976991e-01 1.99065000e-01 1.72964007e-01
      3.42321992e-01 3.42321992e-01 3.42321992e-01 2.44344994e-01
      3.42321992e-01 3.42321992e-01 3.42321992e-01 3.41443002e-01
      3.42321992e-01 3.61122996e-01 3.61122996e-01 3.61122996e-01
      1.32429004e-01 2.56873995e-01 3.61122996e-01 3.61122996e-01
      3.61122996e-01 3.61122996e-01 3.49209011e-01 3.49209011e-01
      3.49209011e-01 3.49209011e-01 3.49209011e-01 1.44692004e-01
      3.49209011e-01 3.49209011e-01 3.49209011e-01 3.51680994e-01
      3.51680994e-01 3.51680994e-01 3.51680994e-01 3.51680994e-01
      3.51680994e-01 3.51680994e-01 2.19302997e-01 2.87461013e-01
      3.86976004e-01 3.86976004e-01 2.84990013e-01 7.47741014e-02
      3.86976004e-01 3.86976004e-01 3.86976004e-01 3.26418996e-01
      2.32427999e-01</_>
    <_>
      3.76002997e-01 3.76002997e-01 3.76002997e-01 3.18022996e-01
      3.36282015e-01 3.76002997e-01 2.88219988e-01 2.84018993e-01
      2.29717001e-01 3.40593010e-01 3.40593010e-01 2.80809999e-01
      3.25139999e-01 3.40593010e-01 3.40593010e-01 3.40593010e-01
      3.40593010e-01 3.40593010e-01 2.67491013e-01 2.83731014e-01
      3.61391008e-01 3.61391008e-01 3.32278997e-01 2.84440994e-01
      3.61391008e-01 3.61391008e-01 3.61391008e-01 3.79299015e-01
      3.79299015e-01 3.79299015e-01 3.77285004e-01 2.30340004e-01
      3.79299015e-01 3.79299015e-01 2.31937006e-01 1.66363999e-01
      3.38465989e-01 3.38465989e-01 3.38465989e-01 2.83095986e-01
      3.38465989e-01 3.38465989e-01 3.38465989e-01 3.38465989e-01
      3.38465989e-01 3.58300000e-01 3.58300000e-01 3.58300000e-01
      1.71333998e-01 2.61554986e-01 3.58300000e-01 3.58300000e-01
      3.58300000e-01 3.58300000e-01 3.46554995e-01 3.49539012e-01
      3.49539012e-01 3.49539012e-01 3.49539012e-01 1.45484000e-01
      3.49539012e-01 3.49539012e-01 3.49539012e-01 3.41890007e-01
      3.41890007e-01 3.41890007e-01 3.41890007e-01 3.41890007e-01
      3.41890007e-01 3.41890007e-01 2.79769003e-01 3.16372991e-01
      3.82050991e-01 3.82050991e-01 2.25365996e-01 9.18442011e-02
      3.82050991e-01 3.82050991e-01 3.82050991e-01 3.82050991e-01
      2.47345999e-01</_>
    <_>
      3.59425008e-01 3.99293005e-01 3.99293005e-01 1.64794996e-01
      2.28112996e-01 3.99293005e-01 3.99293005e-01 2.84260988e-01
      2.62849003e-01 3.32778990e-01 3.32778990e-01 3.32778990e-01
      3.32778990e-01 3.32778990e-01 3.32778990e-01 3.32778990e-01
      3.32778990e-01 3.32778990e-01 3.56765002e-01 2.71515995e-01
      3.56765002e-01 3.56765002e-01 2.37214997e-01 3.20553988e-01
      3.56765002e-01 3.56765002e-01 3.56765002e-01 3.33995998e-01
      3.33995998e-01 3.33995998e-01 3.33995998e-01 3.33995998e-01
      3.33995998e-01 3.33995998e-01 3.33995998e-01 3.22852999e-01
      3.33559006e-01 3.33559006e-01 3.26453000e-01 3.33559006e-01
      3.33559006e-01 3.33559006e-01 3.33559006e-01 3.33559006e-01
      3.33559006e-01 3.65078986e-01 3.65078986e-01 3.65078986e-01
      2.38518000e-01 2.51845002e-01 3.23038012e-01 3.65078986e-01
      3.65078986e-01 3.24452013e-01 3.53329003e-01 3.53329003e-01
      3.53329003e-01 3.53329003e-01 3.53329003e-01 2.83136010e-01
      2.05946997e-01 3.53329003e-01 3.53329003e-01 3.45699012e-01
      3.00803006e-01 3.35763007e-01 3.45699012e-01 3.45699012e-01
      3.45699012e-01 3.45699012e-01 2.76190996e-01 3.45699012e-01
      4.30101007e-01 4.30101007e-01 2.74944007e-01 1.86320007e-01
      3.57623011e-01 4.30101007e-01 4.08473015e-01 1.38135999e-01
      1.28874004e-01</_>
    <_>
      3.82694006e-01 1.28742993e-01 1.36979997e-01 2.86547989e-01
      3.82694006e-01 3.82694006e-01 3.82694006e-01 3.82694006e-01
      3.82694006e-01 2.47829005e-01 1.17625996e-01 1.81567997e-01
      4.35779005e-01 4.35779005e-01 2.30912998e-01 3.27850997e-01
      3.96113992e-01 4.35779005e-01 2.06276000e-01 6.17938004e-02
      4.56640005e-01 4.56640005e-01 4.56640005e-01 1.40521005e-01
      9.25389007e-02 2.94414997e-01 4.56640005e-01 3.14410001e-01
      1.72498003e-01 1.42506003e-01 2.08822995e-01 4.12892997e-01
      3.48466009e-01 4.12892997e-01 4.12892997e-01 4.12892997e-01
      1.95182994e-01 1.13201000e-01 1.39096007e-01 7.40877986e-02
      2.29558006e-01 4.90417004e-01 4.90417004e-01 4.90417004e-01
      3.80959004e-01 3.54997993e-01 3.87769014e-01 3.87769014e-01
      3.87769014e-01 3.61113995e-01 2.38885000e-01 3.31252009e-01
      3.05379987e-01 1.68981999e-01 4.03696001e-01 1.14239998e-01
      5.20441011e-02 4.88287993e-02 4.03696001e-01 4.03696001e-01
      4.03696001e-01 4.03696001e-01 4.03696001e-01 4.00283992e-01
      4.00283992e-01 1.56306997e-01 6.49449006e-02 2.27480993e-01
      3.38330001e-01 4.00283992e-01 4.00283992e-01 4.00283992e-01
      4.82266009e-01 4.82266009e-01 5.15005998e-02 5.41379005e-02
      4.82266009e-01 4.82266009e-01 1.35968000e-01 1.02473997e-01
      1.74042001e-01</_>
    <_>
      3.59425008e-01 3.99293005e-01 3.99293005e-01 1.64794996e-01
      2.28112996e-01 3.99293005e-01 3.99293005e-01 2.84260988e-01
      2.62849003e-01 3.32778990e-01 3.32778990e-01 3.32778990e-01
      3.32778990e-01 3.32778990e-01 3.32778990e-01 3.32778990e-01
      3.32778990e-01 3.32778990e-01 3.56633991e-01 2.75509000e-01
      3.56633991e-01 3.56633991e-01 2.34828994e-01 3.19783986e-01
      3.56633991e-01 3.56633991e-01 3.56633991e-01 3.34026992e-01
      3.34026992e-01 3.34026992e-01 3.34026992e-01 3.34026992e-01
      3.34026992e-01 3.34026992e-01 3.34026992e-01 3.22602004e-01
      3.33480000e-01 3.33480000e-01 3.27104986e-01 3.33480000e-01
      3.33480000e-01 3.33480000e-01 3.33480000e-01 3.33480000e-01
      3.33480000e-01 3.64363998e-01 3.64363998e-01 3.64363998e-01
      2.44158000e-01 2.48887002e-01 3.15367997e-01 3.64363998e-01
      3.64363998e-01 3.33977997e-01 3.53224009e-01 3.53224009e-01
      3.53224009e-01 3.53224009e-01 3.53224009e-01 2.85420001e-01
      2.04045996e-01 3.53224009e-01 3.53224009e-01 3.46154988e-01
      2.98675001e-01 3.35301012e-01 3.46154988e-01 3.46154988e-01
      3.46154988e-01 3.46154988e-01 2.75620997e-01 3.46154988e-01
      4.29210007e-01 4.29210007e-01 2.92668015e-01 1.90320000e-01
      3.54856014e-01 4.29210007e-01 3.98092985e-01 1.41075000e-01
      1.29880995e-01</_>
    <_>
      4.06832993e-01 8.25314969e-02 1.44630000e-01 1.09343998e-01
      3.58727008e-01 4.06832993e-01 4.06832993e-01 4.06832993e-01
      4.06832993e-01 1.39199004e-01 6.98556975e-02 1.33275002e-01
      6.32147014e-01 6.32147014e-01 4.83119003e-02 2.32978001e-01
      1.96919993e-01 2.38872007e-01 1.45603999e-01 1.04878001e-01
      5.15736997e-01 5.15736997e-01 5.15736997e-01 1.06996998e-01
      2.06219003e-01 1.64271995e-01 2.89371014e-01 4.16734010e-01
      8.42626989e-02 5.64019009e-02 1.02932997e-01 3.26536000e-01
      4.16734010e-01 4.16734010e-01 4.16734010e-01 4.16734010e-01
      3.35083008e-01 1.00459002e-01 1.52814999e-01 9.83253028e-03
      5.37126996e-02 1.35958999e-01 5.25218010e-01 5.25218010e-01
      5.25218010e-01 4.02144015e-01 4.02144015e-01 4.02144015e-01
      3.88114005e-01 2.35478997e-01 8.27986002e-02 3.53446990e-01
      2.33481005e-01 3.44161987e-01 4.04531986e-01 7.90721998e-02
      5.45367002e-02 6.96811005e-02 4.04531986e-01 4.04531986e-01
      4.04531986e-01 4.04531986e-01 4.04531986e-01 3.93694013e-01
      3.93694013e-01 2.02343002e-01 1.16517000e-01 2.05469996e-01
      3.52638006e-01 3.93694013e-01 3.93694013e-01 3.93694013e-01
      4.90186006e-01 4.90186006e-01 5.64408004e-02 1.00576002e-02
      3.55913997e-01 4.90186006e-01 2.78104007e-01 1.05173998e-01
      2.36415997e-01</_>
    <_>
      3.43234003e-01 3.60349000e-01 3.60349000e-01 2.03849003e-01
      2.43331000e-01 3.60349000e-01 3.60349000e-01 3.60349000e-01
      3.58565003e-01 3.32778990e-01 3.32778990e-01 3.32778990e-01
      3.32778990e-01 3.32778990e-01 3.32778990e-01 3.32778990e-01
      3.32778990e-01 3.32778990e-01 3.74024004e-01 1.85445994e-01
      3.74024004e-01 3.74024004e-01 2.01736003e-01 2.86029994e-01
      3.74024004e-01 3.74024004e-01 3.74024004e-01 3.32778990e-01
      3.32778990e-01 3.32778990e-01 3.32778990e-01 3.32778990e-01
      3.32778990e-01 3.32778990e-01 3.32778990e-01 3.32778990e-01
      3.32778990e-01 3.32778990e-01 3.32778990e-01 3.32778990e-01
      3.32778990e-01 3.32778990e-01 3.32778990e-01 3.32778990e-01
      3.32778990e-01 3.32778990e-01 3.32778990e-01 3.32778990e-01
      3.32778990e-01 3.32778990e-01 3.32778990e-01 3.32778990e-01
      3.32778990e-01 3.32778990e-01 3.49828988e-01 3.45620006e-01
      3.49828988e-01 3.49828988e-01 3.26023012e-01 3.15394998e-01
      2.43692994e-01 3.49828988e-01 3.49828988e-01 3.46455991e-01
      3.02377999e-01 3.46455991e-01 3.46455991e-01 3.46455991e-01
      3.46455991e-01 3.46455991e-01 2.54718989e-01 3.46455991e-01
      4.44752991e-01 4.44752991e-01 2.97468007e-01 1.56678006e-01
      3.52286994e-01 4.44752991e-01 3.62704992e-01 1.12329997e-01
      1.44321993e-01</_>
    <_>
      3.77440989e-01 3.77440989e-01 3.77440989e-01 2.86298990e-01
      2.65545994e-01 3.77440989e-01 3.77440989e-01 2.97219008e-01
      2.07607999e-01 3.32778990e-01 3.32778990e-01 3.32778990e-01
      3.32778990e-01 3.32778990e-01 3.32778990e-01 3.32778990e-01
      3.32778990e-01 3.32778990e-01 3.22894990e-01 1.84128001e-01
      3.50712001e-01 3.50712001e-01 3.50712001e-01 3.46901000e-01
      3.50712001e-01 3.50712001e-01 3.50712001e-01 3.41766000e-01
      3.41766000e-01 3.41766000e-01 3.41766000e-01 3.38694006e-01
      3.41766000e-01 3.41766000e-01 3.28047991e-01 2.70983011e-01
      3.42265010e-01 3.42265010e-01 3.07680011e-01 3.02516997e-01
      3.42265010e-01 3.42265010e-01 3.27910990e-01 3.42265010e-01
      3.42265010e-01 3.46718997e-01 3.46718997e-01 3.46718997e-01
      1.86609998e-01 3.46718997e-01 3.46718997e-01 3.46718997e-01
      3.46718997e-01 3.46718997e-01 3.11946988e-01 3.65395993e-01
      3.65395993e-01 3.65395993e-01 3.65395993e-01 1.27470002e-01
      2.85843998e-01 3.65395993e-01 3.65395993e-01 3.42496008e-01
      3.10424000e-01 3.42496008e-01 3.42496008e-01 3.42496008e-01
      3.42496008e-01 3.42496008e-01 2.81230986e-01 3.42496008e-01
      4.16574001e-01 4.16574001e-01 1.52566001e-01 8.79558027e-02
      2.59902000e-01 4.16574001e-01 4.16574001e-01 3.37274998e-01
      2.98976988e-01</_>
    <_>
      4.16729003e-01 4.16729003e-01 2.63722986e-01 1.62749007e-01
      4.16729003e-01 4.16729003e-01 2.43019000e-01 1.93296000e-01
      3.29735994e-01 3.60000014e-01 3.50847006e-01 3.40404987e-01
      2.68371999e-01 3.60000014e-01 3.47222000e-01 2.61267006e-01
      3.28307986e-01 3.60000014e-01 3.67909014e-01 2.16766998e-01
      2.40815997e-01 3.67909014e-01 3.67909014e-01 2.81428009e-01
      3.67909014e-01 3.67909014e-01 3.67909014e-01 3.92751992e-01
      3.92751992e-01 3.92751992e-01 1.60203993e-01 3.92751992e-01
      3.92751992e-01 3.92751992e-01 1.70906007e-01 1.25211999e-01
      3.37154001e-01 3.37154001e-01 3.37154001e-01 2.95378000e-01
      3.37154001e-01 3.37154001e-01 3.37154001e-01 3.37154001e-01
      3.37154001e-01 3.22279990e-01 1.63515002e-01 3.51707011e-01
      3.51707011e-01 3.51707011e-01 3.51707011e-01 3.51707011e-01
      3.51707011e-01 3.51707011e-01 3.61115992e-01 3.61115992e-01
      3.61115992e-01 3.61115992e-01 3.61115992e-01 1.66027993e-01
      2.36629993e-01 3.61115992e-01 3.61115992e-01 3.47180992e-01
      3.47180992e-01 3.26178014e-01 3.35323989e-01 3.47180992e-01
      3.47180992e-01 3.47180992e-01 2.33430997e-01 3.47180992e-01
      4.42043990e-01 4.42043990e-01 1.27458006e-01 7.30236992e-02
      3.44161987e-01 4.42043990e-01 4.42043990e-01 1.99159995e-01
      1.85159996e-01</_>
    <_>
      3.60875994e-01 3.60875994e-01 3.60875994e-01 2.69156009e-01
      2.29951993e-01 3.60875994e-01 3.60875994e-01 3.60875994e-01
      2.99470991e-01 3.33090991e-01 3.30267012e-01 3.33090991e-01
      3.33090991e-01 3.33090991e-01 3.33090991e-01 3.33090991e-01
      3.33090991e-01 3.33090991e-01 3.79622996e-01 1.89091995e-01
      3.79622996e-01 3.79622996e-01 1.98734999e-01 2.54763007e-01
      3.68079990e-01 3.79622996e-01 3.79622996e-01 3.43396008e-01
      3.43396008e-01 3.43396008e-01 3.43396008e-01 3.43396008e-01
      3.43396008e-01 3.43396008e-01 3.43396008e-01 2.30656996e-01
      3.32778990e-01 3.32778990e-01 3.32778990e-01 3.32778990e-01
      3.32778990e-01 3.32778990e-01 3.32778990e-01 3.32778990e-01
      3.32778990e-01 3.41463000e-01 3.41463000e-01 3.41463000e-01
      2.52613991e-01 3.41463000e-01 3.41463000e-01 3.41463000e-01
      3.41463000e-01 3.41463000e-01 3.34509999e-01 3.65765005e-01
      3.65765005e-01 3.65765005e-01 3.31728011e-01 2.33144000e-01
      2.26119995e-01 3.65765005e-01 3.65765005e-01 3.41416001e-01
      3.41416001e-01 3.41416001e-01 3.41416001e-01 3.41416001e-01
      3.41416001e-01 3.41416001e-01 2.53120005e-01 3.41416001e-01
      4.42211986e-01 4.42211986e-01 1.72325999e-01 9.66901034e-02
      2.86994010e-01 4.42211986e-01 4.42211986e-01 1.97944999e-01
      2.29744002e-01</_>
    <_>
      2.55838990e-01 3.84213001e-01 3.84213001e-01 3.03400010e-01
      2.20835000e-01 3.84213001e-01 3.84213001e-01 3.84213001e-01
      2.27577999e-01 3.37608993e-01 2.94620007e-01 3.37608993e-01
      3.37608993e-01 3.37608993e-01 3.34612012e-01 3.37608993e-01
      3.37608993e-01 3.37608993e-01 1.82841003e-01 2.42467001e-01
      3.65242988e-01 4.17259008e-01 2.26180002e-01 1.94152996e-01
      4.17259008e-01 4.17259008e-01 3.98797005e-01 3.32212001e-01
      3.58778000e-01 3.58778000e-01 3.58778000e-01 2.92461008e-01
      3.29654992e-01 3.58778000e-01 3.58778000e-01 2.19631001e-01
      3.32778990e-01 3.32778990e-01 3.32778990e-01 3.32778990e-01
      3.32778990e-01 3.32778990e-01 3.32778990e-01 3.32778990e-01
      3.32778990e-01 1.45722002e-01 3.83011013e-01 3.83011013e-01
      2.79018015e-01 2.79733002e-01 3.83011013e-01 3.83011013e-01
      3.83011013e-01 2.92145997e-01 2.80752003e-01 3.11199993e-01
      3.79478991e-01 3.79478991e-01 2.23692998e-01 2.54956007e-01
      3.59836012e-01 3.79478991e-01 3.79478991e-01 3.39064986e-01
      2.77294993e-01 3.39064986e-01 3.39064986e-01 3.39064986e-01
      3.39064986e-01 3.39064986e-01 3.39064986e-01 3.39064986e-01
      4.03977990e-01 4.03977990e-01 2.36772999e-01 1.72719002e-01
      4.03977990e-01 4.03977990e-01 4.03977990e-01 2.62704998e-01
      1.58328995e-01</_>
    <_>
      3.71017009e-01 3.71017009e-01 3.71017009e-01 3.03790003e-01
      2.19116002e-01 3.71017009e-01 3.71017009e-01 3.43122989e-01
      2.23584995e-01 3.33631992e-01 3.25861990e-01 3.33631992e-01
      3.33631992e-01 3.33631992e-01 3.33631992e-01 3.33631992e-01
      3.33631992e-01 3.33631992e-01 2.27094993e-01 1.44783005e-01
      3.87827992e-01 3.87827992e-01 2.48095006e-01 3.31642002e-01
      3.87827992e-01 3.87827992e-01 3.87827992e-01 3.59634012e-01
      3.82766008e-01 3.82766008e-01 2.25848004e-01 3.82766008e-01
      3.32408011e-01 3.82766008e-01 2.69037992e-01 2.16598004e-01
      3.37810993e-01 3.37810993e-01 3.37810993e-01 2.89297014e-01
      3.37810993e-01 3.37810993e-01 3.37810993e-01 3.37810993e-01
      3.37810993e-01 3.49864006e-01 2.30367005e-01 3.49864006e-01
      3.27349007e-01 3.49864006e-01 3.19135994e-01 3.49864006e-01
      3.49864006e-01 3.49864006e-01 3.55590999e-01 3.55590999e-01
      3.55590999e-01 3.55590999e-01 2.88004994e-01 1.68482006e-01
      3.55590999e-01 3.55590999e-01 3.55590999e-01 3.32778990e-01
      3.32778990e-01 3.32778990e-01 3.32778990e-01 3.32778990e-01
      3.32778990e-01 3.32778990e-01 3.32778990e-01 3.32778990e-01
      3.79157007e-01 3.79157007e-01 2.41476998e-01 1.37225002e-01
      2.39991993e-01 3.79157007e-01 3.79157007e-01 3.79157007e-01
      3.77719998e-01</_>
    <_>
      3.53062987e-01 3.55758995e-01 3.55758995e-01 3.55758995e-01
      2.21902996e-01 3.55758995e-01 3.55758995e-01 3.55758995e-01
      2.51325995e-01 3.33983988e-01 3.22955012e-01 3.33983988e-01
      3.33983988e-01 3.33983988e-01 3.33983988e-01 3.33983988e-01
      3.33983988e-01 3.33983988e-01 2.13799998e-01 1.74844995e-01
      3.83309007e-01 3.83309007e-01 3.59937012e-01 2.36019000e-01
      3.83309007e-01 3.83309007e-01 3.83309007e-01 3.47048998e-01
      3.47048998e-01 3.47048998e-01 3.47048998e-01 3.47048998e-01
      2.98545986e-01 3.47048998e-01 3.22122991e-01 2.84572005e-01
      3.33140999e-01 3.29865009e-01 3.33140999e-01 3.33140999e-01
      3.33140999e-01 3.33140999e-01 3.33140999e-01 3.33140999e-01
      3.33140999e-01 3.48001003e-01 3.48001003e-01 3.48001003e-01
      2.80052006e-01 3.48001003e-01 2.65258014e-01 3.48001003e-01
      3.48001003e-01 3.48001003e-01 3.61274987e-01 3.61274987e-01
      3.61274987e-01 3.61274987e-01 2.32338995e-01 1.69615999e-01
      3.61274987e-01 3.61274987e-01 3.61274987e-01 3.32778990e-01
      3.32778990e-01 3.32778990e-01 3.32778990e-01 3.32778990e-01
      3.32778990e-01 3.32778990e-01 3.32778990e-01 3.32778990e-01
      3.90325010e-01 3.90325010e-01 2.45750993e-01 9.45736989e-02
      3.08391988e-01 3.90325010e-01 3.90325010e-01 3.17021996e-01
      3.48910004e-01</_>
    <_>
      5.55288017e-01 2.35675007e-01 6.57021999e-02 5.53985015e-02
      5.55288017e-01 5.55288017e-01 3.68098989e-02 2.49536000e-02
      6.71802014e-02 2.21636996e-01 1.19116999e-01 8.46752003e-02
      7.63506964e-02 6.52620018e-01 6.52620018e-01 1.46520004e-01
      1.23911999e-01 1.68891996e-01 8.17146972e-02 4.60355014e-01
      5.02514005e-01 4.40553010e-01 2.22491995e-01 1.70402005e-01
      3.99376988e-01 2.84054995e-01 1.05076998e-01 3.49895000e-01
      3.45968992e-01 3.49895000e-01 1.72003001e-01 3.49895000e-01
      3.49895000e-01 3.49895000e-01 3.49895000e-01 3.35658997e-01
      4.20188993e-01 4.18321013e-01 2.77669013e-01 3.96663994e-01
      4.20188993e-01 1.43496007e-01 8.95339996e-02 1.67584002e-01
      4.20188993e-01 1.83895007e-01 4.76251990e-01 4.91209000e-01
      4.37981993e-01 7.58491009e-02 3.79686989e-02 3.47020000e-01
      3.94722998e-01 1.33873001e-01 5.23012996e-01 8.27423036e-02
      8.28408971e-02 2.05504999e-01 3.29519987e-01 5.53572997e-02
      1.52422994e-01 4.97848988e-01 5.31482995e-01 5.94334006e-01
      1.23074003e-01 3.86606008e-02 4.46115993e-02 6.76508024e-02
      1.73739996e-02 1.13303997e-01 5.01250029e-01 5.94334006e-01
      3.81439000e-01 3.81439000e-01 3.81439000e-01 3.72747004e-01
      2.02281997e-01 3.04793008e-02 2.96517015e-01 3.81439000e-01
      3.81439000e-01</_>
    <_>
      3.14974993e-01 3.35922003e-01 3.35922003e-01 3.35922003e-01
      3.35922003e-01 3.35922003e-01 3.35922003e-01 3.35922003e-01
      3.27915013e-01 3.42453986e-01 2.41625994e-01 3.42453986e-01
      3.42453986e-01 3.42453986e-01 3.42453986e-01 3.42453986e-01
      3.42453986e-01 3.42453986e-01 2.82743007e-01 2.38775000e-01
      3.17856014e-01 3.80205005e-01 3.44859987e-01 2.47103006e-01
      3.80205005e-01 3.80205005e-01 3.80205005e-01 3.36282015e-01
      3.36282015e-01 3.36282015e-01 3.36282015e-01 3.36282015e-01
      3.36282015e-01 3.36282015e-01 3.36282015e-01 3.03238004e-01
      3.48423988e-01 3.09132993e-01 3.08207989e-01 3.48423988e-01
      3.48423988e-01 3.48423988e-01 3.06405991e-01 3.24162990e-01
      3.48423988e-01 2.17117995e-01 3.59889001e-01 3.59889001e-01
      2.06452996e-01 3.59889001e-01 3.59889001e-01 3.59889001e-01
      3.59889001e-01 3.59889001e-01 3.60096991e-01 2.81091005e-01
      3.60096991e-01 3.60096991e-01 3.60096991e-01 2.48365998e-01
      2.78719991e-01 3.60096991e-01 3.60096991e-01 3.70880008e-01
      2.56552994e-01 2.65385985e-01 3.70880008e-01 3.70880008e-01
      3.70880008e-01 3.51718009e-01 2.20412001e-01 3.70880008e-01
      4.09384996e-01 4.09384996e-01 1.53099000e-01 1.24296002e-01
      4.09384996e-01 4.09384996e-01 4.09384996e-01 2.15752006e-01
      2.69246012e-01</_>
    <_>
      5.44995010e-01 3.01914006e-01 6.31754026e-02 4.13318984e-02
      5.44995010e-01 5.44995010e-01 5.91854006e-02 2.86864992e-02
      4.81977016e-02 1.67407006e-01 1.00369997e-01 1.19883999e-01
      1.12502001e-01 6.65835023e-01 6.65835023e-01 1.64129004e-01
      9.48795974e-02 7.49095976e-02 8.70947018e-02 4.30886000e-01
      4.33761001e-01 4.33761001e-01 2.15343997e-01 8.09134021e-02
      4.33761001e-01 4.12993014e-01 1.20373003e-01 3.58480006e-01
      2.72166014e-01 3.58480006e-01 1.50952995e-01 3.58480006e-01
      3.58480006e-01 3.58480006e-01 3.58480006e-01 3.58480006e-01
      5.27970016e-01 3.72364998e-01 1.04588002e-01 3.96387987e-02
      5.27970016e-01 3.08430009e-02 3.66821997e-02 7.07613006e-02
      5.27970016e-01 2.56976008e-01 4.62141991e-01 4.62141991e-01
      4.62141991e-01 2.15189993e-01 1.32663995e-01 3.55015993e-01
      2.43486002e-01 1.98479995e-01 4.55067992e-01 8.65323022e-02
      9.31383967e-02 4.24598992e-01 4.55067992e-01 3.17189991e-02
      8.69247019e-02 4.11321014e-01 4.55067992e-01 6.33219004e-01
      1.32745996e-01 4.23416011e-02 4.62661013e-02 5.66025004e-02
      2.51541007e-02 5.60395010e-02 4.03995991e-01 6.33219004e-01
      4.09859002e-01 4.09859002e-01 4.09859002e-01 4.09859002e-01
      2.11584002e-01 4.58815992e-02 2.28527993e-01 2.38506004e-01
      4.09859002e-01</_>
    <_>
      4.52960014e-01 4.52960014e-01 3.13241005e-01 8.90239030e-02
      2.49054998e-01 4.52960014e-01 4.52960014e-01 7.28359967e-02
      3.74938995e-02 3.70252997e-01 3.70252997e-01 3.70252997e-01
      3.17324013e-01 3.70252997e-01 3.70252997e-01 2.34000996e-01
      1.35381997e-01 3.70252997e-01 1.79181993e-01 1.22059003e-01
      3.68261993e-01 3.68261993e-01 3.68261993e-01 3.68261993e-01
      3.68261993e-01 3.68261993e-01 3.68261993e-01 2.98678011e-01
      4.29035991e-01 4.29035991e-01 1.65802002e-01 2.20324993e-01
      2.73653001e-01 4.29035991e-01 4.29035991e-01 1.38917997e-01
      3.69832993e-01 3.69832993e-01 3.28597993e-01 1.78930998e-01
      3.69832993e-01 3.69832993e-01 3.32861006e-01 2.48263001e-01
      3.69832993e-01 2.22202003e-01 3.87116998e-01 3.87116998e-01
      1.16962001e-01 2.44534001e-01 3.87116998e-01 3.87116998e-01
      3.87116998e-01 3.52113008e-01 3.88543010e-01 3.88543010e-01
      3.88543010e-01 3.88543010e-01 9.12640020e-02 6.87443018e-02
      2.77976990e-01 3.88543010e-01 3.88543010e-01 3.73650998e-01
      3.73650998e-01 2.91606009e-01 1.91763997e-01 3.73650998e-01
      3.73650998e-01 3.73650998e-01 1.91755995e-01 3.73650998e-01
      4.51153010e-01 4.51153010e-01 2.27852002e-01 3.72992009e-02
      1.73015997e-01 4.51153010e-01 4.51153010e-01 1.81362003e-01
      2.55349994e-01</_>
    <_>
      4.26117003e-01 4.34103012e-01 4.34103012e-01 1.38823003e-01
      1.10500000e-01 4.34103012e-01 4.34103012e-01 1.54416993e-01
      7.05713034e-02 2.73508996e-01 3.65173995e-01 3.65173995e-01
      3.65173995e-01 2.74076998e-01 3.09608996e-01 3.65173995e-01
      3.65173995e-01 2.89498001e-01 1.65369004e-01 2.10716993e-01
      4.02927011e-01 4.02927011e-01 1.66564003e-01 3.97118002e-01
      4.02927011e-01 4.02927011e-01 2.98963010e-01 2.28826001e-01
      4.20901000e-01 4.20901000e-01 2.31184006e-01 3.35538000e-01
      3.66225988e-01 4.20901000e-01 2.92477012e-01 1.62065998e-01
      3.54335010e-01 3.54335010e-01 3.54335010e-01 1.76089004e-01
      3.54335010e-01 3.03498000e-01 3.54335010e-01 3.46444011e-01
      3.54335010e-01 3.36964995e-01 5.92258014e-02 1.46925002e-01
      1.82444006e-01 4.05959994e-01 4.05959994e-01 4.05959994e-01
      4.05959994e-01 4.05959994e-01 2.51767993e-01 4.06186998e-01
      4.06186998e-01 2.95087993e-01 2.64705986e-01 4.06186998e-01
      4.06186998e-01 3.03672999e-01 1.52450994e-01 3.35828006e-01
      3.35828006e-01 3.35828006e-01 3.07244986e-01 3.35828006e-01
      3.35828006e-01 3.35828006e-01 3.35828006e-01 3.35828006e-01
      1.32347003e-01 4.21602994e-01 4.21602994e-01 2.15307996e-01
      2.33921006e-01 3.39938998e-01 4.21602994e-01 4.21602994e-01
      2.25034997e-01</_>
    <_>
      4.25388992e-01 4.32271004e-01 4.32271004e-01 1.27184004e-01
      1.38890997e-01 4.32271004e-01 4.32271004e-01 1.63384005e-01
      7.16454983e-02 2.72774011e-01 3.62742990e-01 3.62742990e-01
      3.62742990e-01 2.81414002e-01 3.16278011e-01 3.62742990e-01
      3.62742990e-01 2.91260004e-01 1.72132999e-01 2.03421995e-01
      4.00554001e-01 4.00554001e-01 1.75652996e-01 4.00554001e-01
      4.00554001e-01 4.00554001e-01 3.03175002e-01 2.39608005e-01
      4.13881987e-01 4.13881987e-01 2.11569995e-01 3.67801011e-01
      3.54676992e-01 4.13881987e-01 2.93336004e-01 1.80772007e-01
      3.54640007e-01 3.54640007e-01 3.54640007e-01 1.85842007e-01
      3.54640007e-01 3.05642009e-01 3.54640007e-01 3.37467015e-01
      3.54640007e-01 3.26750010e-01 7.06332996e-02 1.66243002e-01
      1.88381001e-01 4.05234009e-01 4.05234009e-01 4.05234009e-01
      4.05234009e-01 4.05234009e-01 2.68727988e-01 4.03593004e-01
      4.03593004e-01 2.95392990e-01 2.68317997e-01 4.03593004e-01
      4.03593004e-01 2.99299002e-01 1.52884007e-01 3.35321009e-01
      3.35321009e-01 3.35321009e-01 3.11654001e-01 3.35321009e-01
      3.35321009e-01 3.35321009e-01 3.35321009e-01 3.35321009e-01
      1.34755000e-01 4.18042988e-01 4.18042988e-01 2.12567002e-01
      2.32177004e-01 3.52234989e-01 4.18042988e-01 4.18042988e-01
      2.35508993e-01</_>
    <_>
      3.48484010e-01 3.48484010e-01 3.48484010e-01 3.14437002e-01
      3.48484010e-01 3.48484010e-01 3.23751986e-01 2.53347993e-01
      3.48484010e-01 3.70575011e-01 1.85424000e-01 1.67625993e-01
      3.70575011e-01 3.70575011e-01 3.70575011e-01 3.31454009e-01
      3.70575011e-01 3.70575011e-01 2.05238998e-01 7.72472993e-02
      4.23658013e-01 4.23658013e-01 4.23658013e-01 9.95177031e-02
      2.00859994e-01 4.23658013e-01 4.23658013e-01 3.42224985e-01
      3.42224985e-01 3.42224985e-01 3.42224985e-01 3.42224985e-01
      3.42224985e-01 3.42224985e-01 3.42224985e-01 2.44206995e-01
      3.35509986e-01 3.35509986e-01 3.10021013e-01 3.35509986e-01
      3.35509986e-01 3.35509986e-01 3.35509986e-01 3.35509986e-01
      3.35509986e-01 1.57721996e-01 4.09043014e-01 4.09043014e-01
      4.09043014e-01 8.52480009e-02 1.97312996e-01 4.09043014e-01
      4.09043014e-01 2.97078997e-01 1.90062001e-01 1.62453994e-01
      3.96207005e-01 3.96207005e-01 3.73903006e-01 1.18738003e-01
      3.89494002e-01 3.96207005e-01 3.96207005e-01 3.32778990e-01
      3.32778990e-01 3.32778990e-01 3.32778990e-01 3.32778990e-01
      3.32778990e-01 3.32778990e-01 3.32778990e-01 3.32778990e-01
      4.01185989e-01 4.01185989e-01 3.65161985e-01 1.23485997e-01
      2.68317997e-01 4.01185989e-01 4.01185989e-01 2.77402014e-01
      2.33776003e-01</_>
    <_>
      3.38743001e-01 3.38743001e-01 3.38743001e-01 3.38743001e-01
      3.38743001e-01 3.38743001e-01 3.05792987e-01 3.16035986e-01
      3.38743001e-01 3.61366004e-01 2.41095006e-01 1.55452996e-01
      3.61366004e-01 3.61366004e-01 3.61366004e-01 3.61366004e-01
      3.61366004e-01 3.61366004e-01 2.40426004e-01 9.53034014e-02
      3.99345011e-01 4.24677014e-01 4.24677014e-01 8.90116021e-02
      2.00172007e-01 4.24677014e-01 4.24677014e-01 3.37862998e-01
      3.37862998e-01 3.37862998e-01 3.37862998e-01 3.37862998e-01
      3.37862998e-01 3.37862998e-01 3.37862998e-01 2.88812011e-01
      3.39753002e-01 3.39753002e-01 2.70458996e-01 3.39753002e-01
      3.39753002e-01 3.39753002e-01 3.39753002e-01 3.39753002e-01
      3.39753002e-01 3.40236008e-01 3.40236008e-01 3.40236008e-01
      3.40236008e-01 2.65545011e-01 3.40236008e-01 3.40236008e-01
      3.40236008e-01 3.40236008e-01 2.09869996e-01 1.38237000e-01
      4.12925988e-01 4.12925988e-01 3.20802987e-01 1.09987997e-01
      3.68342996e-01 4.12925988e-01 4.12925988e-01 3.36486995e-01
      3.36486995e-01 3.36486995e-01 3.36486995e-01 3.36486995e-01
      3.36486995e-01 3.01416993e-01 3.36486995e-01 3.36486995e-01
      3.75230998e-01 3.75230998e-01 2.49613002e-01 1.92159995e-01
      3.75230998e-01 3.75230998e-01 3.75230998e-01 3.75230998e-01
      2.28534997e-01</_>
    <_>
      3.51830989e-01 4.56863999e-01 4.56863999e-01 1.61364004e-01
      2.90805995e-01 4.56863999e-01 3.32260996e-01 1.35337994e-01
      7.84690976e-02 2.60331005e-01 3.48744005e-01 3.48744005e-01
      3.48744005e-01 2.78183013e-01 3.48744005e-01 3.48744005e-01
      3.48744005e-01 3.48744005e-01 5.73294982e-02 8.30508992e-02
      3.52997988e-01 4.34100986e-01 2.46517003e-01 2.15237007e-01
      4.34100986e-01 4.34100986e-01 4.34100986e-01 2.24069998e-01
      4.26526994e-01 4.26526994e-01 3.59281987e-01 6.66896030e-02
      1.76138997e-01 4.26526994e-01 4.26526994e-01 2.30811000e-01
      1.62619993e-01 3.81590992e-01 3.81590992e-01 3.81590992e-01
      2.75308013e-01 2.68898010e-01 3.81590992e-01 3.81590992e-01
      3.05916995e-01 1.91259995e-01 4.22886014e-01 4.22886014e-01
      2.92120993e-01 2.21713006e-01 2.60376990e-01 4.22886014e-01
      4.22886014e-01 2.03908995e-01 3.28794986e-01 3.65204006e-01
      4.18163002e-01 4.18163002e-01 2.09702998e-01 3.30176018e-02
      9.91801023e-02 4.18163002e-01 4.18163002e-01 3.46713006e-01
      3.37116987e-01 3.46713006e-01 2.03514993e-01 3.46713006e-01
      3.46713006e-01 3.46713006e-01 3.46713006e-01 3.46713006e-01
      4.19384003e-01 4.19384003e-01 2.05320001e-01 5.15361018e-02
      2.34427005e-01 4.19384003e-01 4.19384003e-01 3.58803988e-01
      2.52525002e-01</_>
    <_>
      3.41172010e-01 3.28615010e-01 9.74130034e-02 3.72601002e-02
      4.59634006e-01 6.37404978e-01 3.61185014e-01 6.35334998e-02
      7.95746967e-02 3.14460993e-01 3.98943007e-01 4.09983009e-01
      4.09983009e-01 2.57182002e-01 3.19036007e-01 1.74466997e-01
      3.37170988e-01 2.99400985e-01 3.86202991e-01 1.29971996e-01
      3.86202991e-01 3.86202991e-01 3.86202991e-01 2.34524995e-01
      1.71265006e-01 3.86202991e-01 3.86202991e-01 4.09819990e-01
      1.63766995e-01 1.85776994e-01 1.90212995e-01 3.40817988e-01
      3.32304001e-01 4.09819990e-01 4.09819990e-01 4.09819990e-01
      4.05885994e-01 3.59219998e-01 4.05885994e-01 4.05885994e-01
      4.05885994e-01 8.50682035e-02 5.50909005e-02 1.81428000e-01
      4.05885994e-01 3.67060006e-01 3.67060006e-01 3.67060006e-01
      3.67060006e-01 3.67060006e-01 3.37442011e-01 2.12620005e-01
      1.69875994e-01 3.67060006e-01 3.92850012e-01 4.47187982e-02
      8.56402963e-02 4.30283993e-01 4.30283993e-01 1.21615998e-01
      2.76890993e-01 4.30283993e-01 4.30283993e-01 4.66129988e-01
      1.61217004e-01 1.95960999e-01 3.67249995e-01 4.66129988e-01
      2.68258005e-02 5.35454005e-02 3.75050008e-01 4.66129988e-01
      4.02373999e-01 3.93646985e-01 4.02373999e-01 4.02373999e-01
      4.02373999e-01 9.52187032e-02 8.31001028e-02 1.24601997e-01
      4.02373999e-01</_>
    <_>
      3.13207000e-01 3.38061988e-01 3.38061988e-01 3.38061988e-01
      3.38061988e-01 3.38061988e-01 3.38061988e-01 3.38061988e-01
      3.13885987e-01 3.41686994e-01 2.50174999e-01 3.41686994e-01
      3.41686994e-01 3.41686994e-01 3.41686994e-01 3.41686994e-01
      3.41686994e-01 3.41686994e-01 2.00784996e-01 1.65922001e-01
      3.83273989e-01 3.83273989e-01 3.83273989e-01 2.16634005e-01
      3.83273989e-01 3.83273989e-01 3.83273989e-01 3.33752006e-01
      3.49961996e-01 3.49961996e-01 3.49961996e-01 3.17433000e-01
      3.35720986e-01 3.49961996e-01 3.49961996e-01 2.43458003e-01
      3.32778990e-01 3.32778990e-01 3.32778990e-01 3.32778990e-01
      3.32778990e-01 3.32778990e-01 3.32778990e-01 3.32778990e-01
      3.32778990e-01 3.38106006e-01 3.38106006e-01 3.38106006e-01
      2.86527991e-01 3.38106006e-01 3.38106006e-01 3.38106006e-01
      3.38106006e-01 3.38106006e-01 3.00439000e-01 1.55285001e-01
      3.88072014e-01 3.88072014e-01 3.88072014e-01 7.58202970e-02
      3.50712001e-01 3.88072014e-01 3.88072014e-01 3.42162997e-01
      3.42162997e-01 3.42162997e-01 3.42162997e-01 3.42162997e-01
      3.42162997e-01 3.14447999e-01 2.79594988e-01 3.42162997e-01
      3.90982985e-01 3.90982985e-01 2.04092994e-01 1.55885994e-01
      3.90982985e-01 3.90982985e-01 3.90982985e-01 3.12687010e-01
      2.60825008e-01</_>
    <_>
      3.32778990e-01 3.32778990e-01 3.32778990e-01 3.32778990e-01
      3.32778990e-01 3.32778990e-01 3.32778990e-01 3.32778990e-01
      3.32778990e-01 3.39509994e-01 3.39509994e-01 2.72897989e-01
      3.39509994e-01 3.39509994e-01 3.39509994e-01 3.39509994e-01
      3.39509994e-01 3.39509994e-01 3.18019986e-01 1.08204998e-01
      4.03008997e-01 4.03008997e-01 4.03008997e-01 1.47018999e-01
      2.22340003e-01 4.03008997e-01 4.03008997e-01 3.46356004e-01
      3.46356004e-01 3.46356004e-01 3.46356004e-01 3.46356004e-01
      3.46356004e-01 3.46356004e-01 3.46356004e-01 1.91943005e-01
      3.32778990e-01 3.32778990e-01 3.32778990e-01 3.32778990e-01
      3.32778990e-01 3.32778990e-01 3.32778990e-01 3.32778990e-01
      3.32778990e-01 3.42783988e-01 3.42783988e-01 3.37969005e-01
      2.85034001e-01 3.10007006e-01 3.42783988e-01 3.42783988e-01
      3.42783988e-01 3.42783988e-01 1.93599999e-01 1.53216004e-01
      4.38623995e-01 4.38623995e-01 3.17716002e-01 1.84522998e-02
      2.52615988e-01 4.38623995e-01 4.38623995e-01 3.34964007e-01
      3.34964007e-01 3.34964007e-01 3.34964007e-01 3.34964007e-01
      3.34964007e-01 3.34964007e-01 3.14711988e-01 3.34964007e-01
      3.81166995e-01 3.81166995e-01 2.65765995e-01 1.43861994e-01
      3.81166995e-01 3.81166995e-01 3.81166995e-01 3.80787998e-01
      1.82817996e-01</_>
    <_>
      3.34434986e-01 3.34434986e-01 3.34434986e-01 3.34434986e-01
      3.34434986e-01 3.34434986e-01 3.19195986e-01 3.34434986e-01
      3.34434986e-01 3.78098011e-01 3.78098011e-01 1.11677997e-01
      1.47552997e-01 3.22849005e-01 3.78098011e-01 3.78098011e-01
      3.78098011e-01 3.78098011e-01 3.43003988e-01 1.17233001e-01
      4.34421986e-01 4.34421986e-01 2.68453002e-01 8.26378986e-02
      1.74582005e-01 4.34421986e-01 4.34421986e-01 3.61360997e-01
      3.61360997e-01 3.61360997e-01 3.61360997e-01 3.61360997e-01
      3.61360997e-01 2.88608998e-01 2.21018001e-01 2.84171999e-01
      3.32778990e-01 3.32778990e-01 3.32778990e-01 3.32778990e-01
      3.32778990e-01 3.32778990e-01 3.32778990e-01 3.32778990e-01
      3.32778990e-01 3.62527996e-01 3.62527996e-01 3.62527996e-01
      1.77872002e-01 2.11553007e-01 3.62527996e-01 3.62527996e-01
      3.62527996e-01 3.62527996e-01 1.44665003e-01 1.73117995e-01
      4.64504987e-01 4.64504987e-01 2.23168999e-01 8.72241035e-02
      1.54884994e-01 4.64504987e-01 4.64504987e-01 3.69116992e-01
      3.69116992e-01 3.69116992e-01 3.69116992e-01 3.69116992e-01
      3.69116992e-01 2.62421995e-01 1.98198006e-01 2.65855998e-01
      3.88359994e-01 3.88359994e-01 2.50580996e-01 2.48288006e-01
      3.03277999e-01 3.88359994e-01 3.88359994e-01 3.86911988e-01
      1.63433999e-01</_>
    <_>
      3.32778990e-01 3.32778990e-01 3.32778990e-01 3.32778990e-01
      3.32778990e-01 3.32778990e-01 3.32778990e-01 3.32778990e-01
      3.32778990e-01 3.82903993e-01 3.82903993e-01 1.24522001e-01
      1.16773002e-01 2.95531005e-01 3.82903993e-01 3.82903993e-01
      3.82903993e-01 3.82903993e-01 3.40617001e-01 1.76894993e-01
      4.14526999e-01 4.16137993e-01 3.07482988e-01 5.25263995e-02
      2.44705006e-01 4.16137993e-01 4.16137993e-01 2.74046987e-01
      3.39394003e-01 3.39394003e-01 3.39394003e-01 3.39394003e-01
      3.39394003e-01 3.39394003e-01 3.39394003e-01 3.39394003e-01
      3.32778990e-01 3.32778990e-01 3.32778990e-01 3.32778990e-01
      3.32778990e-01 3.32778990e-01 3.32778990e-01 3.32778990e-01
      3.32778990e-01 3.58227998e-01 3.58227998e-01 2.89314985e-01
      1.84349000e-01 3.29798996e-01 3.58227998e-01 3.58227998e-01
      3.58227998e-01 3.58227998e-01 1.49570003e-01 1.28958002e-01
      3.64421010e-01 4.80814010e-01 2.71577001e-01 9.51080993e-02
      2.16904998e-01 4.80814010e-01 4.80814010e-01 3.48055989e-01
      3.48055989e-01 3.48055989e-01 3.48055989e-01 3.48055989e-01
      3.48055989e-01 3.21092993e-01 2.31471002e-01 3.36131990e-01
      3.48129988e-01 3.48129988e-01 3.33617985e-01 3.48129988e-01
      3.48129988e-01 3.48129988e-01 3.48129988e-01 3.42227995e-01
      2.02316999e-01</_>
    <_>
      3.32778990e-01 3.32778990e-01 3.32778990e-01 3.32778990e-01
      3.32778990e-01 3.32778990e-01 3.32778990e-01 3.32778990e-01
      3.32778990e-01 3.76410991e-01 3.76410991e-01 1.52143002e-01
      1.07130997e-01 3.33921999e-01 3.76410991e-01 3.76410991e-01
      3.76410991e-01 3.76410991e-01 3.49485010e-01 2.26432994e-01
      3.57692003e-01 4.11092013e-01 3.63821000e-01 9.23836976e-02
      2.15984002e-01 4.11092013e-01 4.11092013e-01 3.29070002e-01
      3.38833004e-01 3.38833004e-01 3.38833004e-01 3.38833004e-01
      3.38833004e-01 3.12103987e-01 3.38833004e-01 3.19485009e-01
      3.34560007e-01 3.34560007e-01 3.34560007e-01 3.34560007e-01
      3.34560007e-01 3.34560007e-01 3.34560007e-01 3.34560007e-01
      3.18140000e-01 3.57199013e-01 3.57199013e-01 3.31553012e-01
      1.60511002e-01 3.08532000e-01 3.57199013e-01 3.57199013e-01
      3.57199013e-01 3.57199013e-01 1.44804001e-01 1.29460007e-01
      4.40443009e-01 4.40443009e-01 3.67666990e-01 9.82296988e-02
      1.92570999e-01 4.40443009e-01 4.40443009e-01 3.49142998e-01
      3.49142998e-01 3.49142998e-01 3.49142998e-01 3.49142998e-01
      3.49142998e-01 3.46435010e-01 1.92405000e-01 3.28736991e-01
      3.55251998e-01 3.55251998e-01 2.99706995e-01 3.55251998e-01
      3.55251998e-01 3.55251998e-01 3.55251998e-01 3.32035005e-01
      1.97878003e-01</_>
    <_>
      1.26564994e-01 1.00218996e-01 5.33263028e-01 5.33263028e-01
      4.76283014e-01 7.41591007e-02 1.27179995e-01 2.57174999e-01
      2.91913003e-01 2.89409995e-01 3.62598985e-01 3.78654003e-01
      3.78654003e-01 2.68808007e-01 3.78654003e-01 3.78654003e-01
      2.86157995e-01 2.30912998e-01 3.49743009e-01 3.49743009e-01
      3.49743009e-01 1.72904998e-01 3.32213998e-01 3.49743009e-01
      3.49743009e-01 3.49743009e-01 3.49743009e-01 2.97571003e-01
      2.27891997e-01 3.82162005e-01 3.82162005e-01 3.21056992e-01
      1.49605006e-01 3.82162005e-01 3.82162005e-01 3.82162005e-01
      1.32118002e-01 2.47134000e-01 4.68145013e-01 4.68145013e-01
      3.88828993e-01 2.07314998e-01 4.68145013e-01 2.21277997e-01
      1.27215996e-01 3.56036991e-01 3.33153993e-01 3.56036991e-01
      3.56036991e-01 3.56036991e-01 2.14953005e-01 3.15905005e-01
      3.33885014e-01 3.47739011e-01 1.18401997e-01 8.67329016e-02
      3.66010010e-01 4.90770996e-01 2.92980999e-01 5.19178994e-02
      1.68791994e-01 4.90770996e-01 4.90770996e-01 3.90143007e-01
      2.38142997e-01 3.90143007e-01 3.90143007e-01 2.99712002e-01
      1.38569996e-01 2.63255000e-01 3.90143007e-01 3.90143007e-01
      4.15903002e-01 1.89998001e-01 4.82661992e-01 4.82661992e-01
      4.82661992e-01 6.06192015e-02 3.50642018e-02 4.86547016e-02
      2.82747000e-01</_>
    <_>
      1.09436996e-01 1.24486998e-01 5.16752005e-01 5.16752005e-01
      4.34917986e-01 1.03765003e-01 1.87842995e-01 3.50051999e-01
      2.74875998e-01 3.35559011e-01 3.40351999e-01 3.41093987e-01
      3.41093987e-01 2.64732003e-01 3.41093987e-01 3.41093987e-01
      3.41093987e-01 3.41093987e-01 3.82014990e-01 2.96218991e-01
      3.53201985e-01 1.03924997e-01 2.32223004e-01 3.67716998e-01
      3.82014990e-01 3.82014990e-01 3.82014990e-01 3.16891015e-01
      2.39279002e-01 3.80623996e-01 3.80623996e-01 3.80623996e-01
      1.57143995e-01 3.44626993e-01 3.80623996e-01 3.39946002e-01
      1.34094000e-01 2.52656013e-01 4.37373012e-01 4.37373012e-01
      4.37227011e-01 3.02080989e-01 4.37373012e-01 2.08384007e-01
      1.18675999e-01 3.37233007e-01 3.37233007e-01 3.37233007e-01
      3.37233007e-01 3.37233007e-01 3.37233007e-01 3.37233007e-01
      2.94652998e-01 3.37233007e-01 1.79699004e-01 9.86481979e-02
      3.24546009e-01 5.07037997e-01 2.08241999e-01 9.70866978e-02
      1.53398007e-01 5.07037997e-01 5.07037997e-01 3.85991007e-01
      2.06922993e-01 3.85991007e-01 3.85991007e-01 3.85991007e-01
      8.08115005e-02 2.29920998e-01 3.85991007e-01 3.85991007e-01
      3.07112008e-01 1.75310001e-01 5.11241019e-01 5.11241019e-01
      5.11241019e-01 7.41377026e-02 6.21901006e-02 5.43626994e-02
      2.70960987e-01</_>
    <_>
      2.02775002e-01 3.50102991e-01 3.59059989e-01 3.59059989e-01
      3.59059989e-01 3.36569011e-01 3.59059989e-01 3.59059989e-01
      2.73541003e-01 3.76253009e-01 2.80443996e-01 2.39010006e-01
      2.41258994e-01 3.07296008e-01 3.76253009e-01 3.76253009e-01
      3.76253009e-01 3.76253009e-01 1.43040001e-01 8.21091011e-02
      4.28552002e-01 4.28552002e-01 3.62738013e-01 1.00831002e-01
      3.03550988e-01 4.28552002e-01 4.28552002e-01 1.84695005e-01
      3.94935012e-01 4.16889012e-01 4.16889012e-01 1.84312001e-01
      3.34708989e-01 4.16889012e-01 3.19958001e-01 1.89702004e-01
      3.32778990e-01 3.32778990e-01 3.32778990e-01 3.32778990e-01
      3.32778990e-01 3.32778990e-01 3.32778990e-01 3.32778990e-01
      3.32778990e-01 3.99836987e-01 3.77564013e-01 3.79947007e-01
      1.47136003e-01 2.06092000e-01 7.40943030e-02 3.99836987e-01
      3.99836987e-01 3.99836987e-01 2.59976000e-01 1.43590003e-01
      4.52369004e-01 4.52369004e-01 1.03735000e-01 2.42503006e-02
      2.78167009e-01 4.52369004e-01 4.52369004e-01 2.90170014e-01
      3.61007005e-01 4.46969986e-01 4.46969986e-01 3.85773003e-01
      1.18121997e-01 2.67147005e-01 1.35967001e-01 3.58911991e-01
      3.76893014e-01 3.76893014e-01 3.76893014e-01 1.40053004e-01
      1.25918999e-01 3.76893014e-01 3.76893014e-01 3.76893014e-01
      3.29356015e-01</_>
    <_>
      3.69958997e-01 3.69958997e-01 3.69958997e-01 3.69958997e-01
      3.69958997e-01 3.69958997e-01 2.92946994e-01 1.45300001e-01
      2.61065006e-01 3.86119008e-01 2.69470990e-01 6.27678037e-02
      1.67689994e-01 3.86119008e-01 3.86119008e-01 3.86119008e-01
      3.82135004e-01 3.86119008e-01 3.65898997e-01 9.99720022e-02
      3.96699995e-01 3.96699995e-01 3.96699995e-01 2.10939005e-01
      2.78117001e-01 3.17543000e-01 3.96699995e-01 3.75836015e-01
      3.75836015e-01 3.75836015e-01 3.75836015e-01 3.75836015e-01
      3.75836015e-01 2.58439004e-01 2.26175994e-01 1.75448999e-01
      3.48143995e-01 3.48143995e-01 2.92890012e-01 2.89920986e-01
      3.48143995e-01 3.48143995e-01 3.48143995e-01 3.15369993e-01
      3.48143995e-01 3.72193009e-01 3.06793988e-01 3.33635002e-01
      2.28811994e-01 2.14131996e-01 3.72193009e-01 3.72193009e-01
      3.72193009e-01 3.72193009e-01 1.88918993e-01 1.95594996e-01
      4.00525987e-01 4.00525987e-01 3.39563996e-01 6.81402981e-02
      4.00525987e-01 4.00525987e-01 4.00525987e-01 3.67119014e-01
      3.67119014e-01 3.67119014e-01 3.67119014e-01 3.67119014e-01
      3.67119014e-01 1.52726993e-01 1.75234005e-01 3.65570992e-01
      3.84131014e-01 3.84131014e-01 1.81492999e-01 8.89284015e-02
      3.60736012e-01 3.84131014e-01 3.84131014e-01 3.84131014e-01
      2.95639008e-01</_>
    <_>
      3.78540993e-01 3.78540993e-01 3.78540993e-01 2.18493000e-01
      3.73144001e-01 3.78540993e-01 3.78540993e-01 1.93569005e-01
      2.35175997e-01 3.36959004e-01 2.97154009e-01 3.36959004e-01
      3.36959004e-01 3.36959004e-01 3.36959004e-01 3.36959004e-01
      3.36959004e-01 3.36959004e-01 2.51729012e-01 1.23778999e-01
      3.94751996e-01 3.94751996e-01 3.10057998e-01 2.29743004e-01
      3.80962998e-01 3.94751996e-01 3.94751996e-01 2.41393998e-01
      3.84875000e-01 3.84875000e-01 3.57863992e-01 1.99228004e-01
      3.84875000e-01 3.84875000e-01 3.84875000e-01 1.71698004e-01
      3.32778990e-01 3.32778990e-01 3.32778990e-01 3.32778990e-01
      3.32778990e-01 3.32778990e-01 3.32778990e-01 3.32778990e-01
      3.32778990e-01 2.03329995e-01 3.59279990e-01 3.59279990e-01
      3.59279990e-01 2.52546996e-01 3.41749996e-01 3.59279990e-01
      3.59279990e-01 3.59279990e-01 1.93587005e-01 1.86661005e-01
      4.15780008e-01 4.15780008e-01 2.29899004e-01 9.43425968e-02
      4.12654012e-01 4.15780008e-01 4.15780008e-01 3.33261013e-01
      3.28886986e-01 3.33261013e-01 3.33261013e-01 3.33261013e-01
      3.33261013e-01 3.33261013e-01 3.33261013e-01 3.33261013e-01
      3.86792988e-01 3.86792988e-01 2.38571003e-01 1.45329997e-01
      3.09388995e-01 3.86792988e-01 3.86792988e-01 3.15580994e-01
      3.52632999e-01</_>
    <_>
      3.59782994e-01 3.59782994e-01 3.59782994e-01 2.53681988e-01
      3.59782994e-01 3.59782994e-01 3.51296008e-01 2.23403007e-01
      3.33936006e-01 3.45501989e-01 2.14241996e-01 3.45501989e-01
      3.45501989e-01 3.45501989e-01 3.45501989e-01 3.39184999e-01
      3.45501989e-01 3.45501989e-01 2.85600007e-01 1.21774003e-01
      3.28442007e-01 4.08668011e-01 4.08668011e-01 2.05577999e-01
      2.85216004e-01 4.08668011e-01 4.08668011e-01 3.35610986e-01
      3.35610986e-01 3.35610986e-01 3.35610986e-01 3.35610986e-01
      3.35610986e-01 3.35610986e-01 3.35610986e-01 3.09145987e-01
      3.41823012e-01 3.01238000e-01 3.12445015e-01 3.41823012e-01
      3.41823012e-01 3.41823012e-01 3.27354014e-01 3.41823012e-01
      3.41823012e-01 3.32778990e-01 3.32778990e-01 3.32778990e-01
      3.32778990e-01 3.32778990e-01 3.32778990e-01 3.32778990e-01
      3.32778990e-01 3.32778990e-01 3.27306002e-01 1.98070005e-01
      3.88911009e-01 3.88911009e-01 3.88911009e-01 1.57357007e-01
      2.62167007e-01 3.88911009e-01 3.88911009e-01 3.39356005e-01
      3.12797993e-01 3.34232002e-01 3.39356005e-01 3.39356005e-01
      3.39356005e-01 3.39356005e-01 3.09971988e-01 3.39356005e-01
      3.88361007e-01 3.88361007e-01 1.45466000e-01 1.74964994e-01
      3.88361007e-01 3.88361007e-01 3.88361007e-01 2.27002993e-01
      3.72420013e-01</_>
    <_>
      3.32778990e-01 3.32778990e-01 3.32778990e-01 3.32778990e-01
      3.32778990e-01 3.32778990e-01 3.32778990e-01 3.32778990e-01
      3.32778990e-01 3.44157994e-01 2.21367002e-01 3.44157994e-01
      3.44157994e-01 3.44157994e-01 3.44157994e-01 3.44157994e-01
      3.44157994e-01 3.44157994e-01 1.47110999e-01 2.09004000e-01
      4.07656997e-01 4.07656997e-01 2.72879988e-01 1.58801004e-01
      4.07656997e-01 4.07656997e-01 4.07656997e-01 3.32778990e-01
      3.32778990e-01 3.32778990e-01 3.32778990e-01 3.32778990e-01
      3.32778990e-01 3.32778990e-01 3.32778990e-01 3.32778990e-01
      3.38194013e-01 2.99221009e-01 3.38194013e-01 3.26283008e-01
      3.38194013e-01 3.38194013e-01 3.38194013e-01 3.38194013e-01
      3.38194013e-01 1.25795007e-01 4.57053006e-01 4.57053006e-01
      2.92138010e-01 7.76320025e-02 2.10760996e-01 4.57053006e-01
      4.57053006e-01 9.07116979e-02 3.67862999e-01 2.91987002e-01
      3.67862999e-01 3.67862999e-01 3.67862999e-01 1.88841000e-01
      2.51933008e-01 3.67862999e-01 3.67862999e-01 3.37817013e-01
      3.37817013e-01 2.89245009e-01 3.37817013e-01 3.37817013e-01
      3.37817013e-01 3.37817013e-01 3.37817013e-01 3.37817013e-01
      3.72415990e-01 3.72415990e-01 3.66176009e-01 2.18345001e-01
      2.58017987e-01 3.72415990e-01 3.72415990e-01 3.06385010e-01
      3.15120012e-01</_>
    <_>
      3.32778990e-01 3.32778990e-01 3.32778990e-01 3.32778990e-01
      3.32778990e-01 3.32778990e-01 3.32778990e-01 3.32778990e-01
      3.32778990e-01 3.45335007e-01 2.06161007e-01 3.45335007e-01
      3.45335007e-01 3.45335007e-01 3.45335007e-01 3.45335007e-01
      3.45335007e-01 3.45335007e-01 1.33076996e-01 1.86610997e-01
      4.17441010e-01 4.17441010e-01 1.90035999e-01 1.89466998e-01
      4.17441010e-01 4.17441010e-01 4.17441010e-01 3.32778990e-01
      3.32778990e-01 3.32778990e-01 3.32778990e-01 3.32778990e-01
      3.32778990e-01 3.32778990e-01 3.32778990e-01 3.32778990e-01
      3.32913995e-01 3.31692994e-01 3.32913995e-01 3.32913995e-01
      3.32913995e-01 3.32913995e-01 3.32913995e-01 3.32913995e-01
      3.32913995e-01 1.51788995e-01 4.53139991e-01 4.53139991e-01
      1.84963003e-01 7.76764005e-02 3.08977008e-01 4.53139991e-01
      4.53139991e-01 1.24003999e-01 3.60534012e-01 3.01784992e-01
      3.60534012e-01 3.60534012e-01 3.60534012e-01 2.56202012e-01
      2.44490996e-01 3.60534012e-01 3.60534012e-01 3.50302011e-01
      3.50302011e-01 2.94068009e-01 3.27257007e-01 3.50302011e-01
      3.50302011e-01 3.50302011e-01 2.58183002e-01 3.50302011e-01
      3.83581996e-01 3.83581996e-01 3.68705988e-01 1.87871993e-01
      2.43428007e-01 3.83581996e-01 3.83581996e-01 2.84240991e-01
      3.10384989e-01</_>
    <_>
      3.37155998e-01 3.37155998e-01 3.37155998e-01 3.37155998e-01
      2.95358002e-01 3.37155998e-01 3.37155998e-01 3.37155998e-01
      3.37155998e-01 3.36703986e-01 2.99461991e-01 3.36703986e-01
      3.36703986e-01 3.36703986e-01 3.36703986e-01 3.36703986e-01
      3.36703986e-01 3.36703986e-01 2.69531995e-01 1.57210007e-01
      3.80569011e-01 3.80569011e-01 3.80569011e-01 2.26480007e-01
      3.51255000e-01 3.80569011e-01 3.80569011e-01 3.41064006e-01
      3.41064006e-01 3.41064006e-01 3.41064006e-01 3.41064006e-01
      3.41064006e-01 3.41064006e-01 3.30614001e-01 2.70211995e-01
      3.32778990e-01 3.32778990e-01 3.32778990e-01 3.32778990e-01
      3.32778990e-01 3.32778990e-01 3.32778990e-01 3.32778990e-01
      3.32778990e-01 3.32778990e-01 3.32778990e-01 3.32778990e-01
      3.32778990e-01 3.32778990e-01 3.32778990e-01 3.32778990e-01
      3.32778990e-01 3.32778990e-01 2.58430988e-01 2.88419992e-01
      3.87667000e-01 3.87667000e-01 3.87667000e-01 1.46770999e-01
      2.70529002e-01 3.87667000e-01 3.87667000e-01 3.32778990e-01
      3.32778990e-01 3.32778990e-01 3.32778990e-01 3.32778990e-01
      3.32778990e-01 3.32778990e-01 3.32778990e-01 3.32778990e-01
      4.00209993e-01 4.00209993e-01 2.18536004e-01 1.11417003e-01
      3.25323999e-01 4.00209993e-01 4.00209993e-01 2.77487010e-01
      3.35144013e-01</_>
    <_>
      3.53843004e-01 3.53843004e-01 3.53843004e-01 3.53843004e-01
      3.53843004e-01 3.53843004e-01 3.44031006e-01 2.31257007e-01
      2.70924985e-01 4.24077988e-01 1.35027006e-01 2.08287001e-01
      2.28310004e-01 4.24077988e-01 4.24077988e-01 2.16251001e-01
      3.40425998e-01 4.24077988e-01 2.88846999e-01 6.06113002e-02
